{
  "activation": "tanh",
  "categories": [
    "airplane",
    "chair",
    "table"
  ],
  "feature_mean": [
    0.34615384615384615,
    0.3269230769230769,
    0.3269230769230769,
    4.615384615384615,
    1.754606489541626,
    1.232729992031555,
    0.717306666748207,
    0.9996851761963753,
    0.6834672886404051,
    0.0
  ],
  "feature_names": [
    "category=airplane",
    "category=chair",
    "category=table",
    "input_Avg_num_box",
    "input_Avg_BVS",
    "input_Avg_MOV",
    "input_Avg_TOV",
    "input_Avg_Covered",
    "input_Avg_vIoU",
    "input_Avg_cub_CD"
  ],
  "feature_std": [
    0.4803844614152613,
    0.473665466715671,
    0.47366546671567106,
    2.07840291394615,
    0.9316922543361033,
    1.2947333239050618,
    0.9262281890863684,
    0.0005760037767236816,
    0.21731321031078932,
    1.0
  ],
  "hidden_size": 8,
  "metadata": {
    "device": "cpu",
    "epochs": 120,
    "learning_rate": 0.03,
    "leave_one_out": {
      "best_f1_threshold": {
        "accuracy": 0.75,
        "f1": 0.7796610169491527,
        "fn": 6,
        "fp": 7,
        "precision": 0.7666666666666667,
        "recall": 0.7931034482758621,
        "threshold": 0.5,
        "tn": 16,
        "tp": 23
      },
      "majority_accuracy": 0.5576923076923077,
      "n": 52,
      "positive": 29,
      "positive_rate": 0.5576923076923077,
      "roc_auc": 0.7841079460269865,
      "threshold_0_5": {
        "accuracy": 0.75,
        "f1": 0.7796610169491527,
        "fn": 6,
        "fp": 7,
        "precision": 0.7666666666666667,
        "recall": 0.7931034482758621,
        "threshold": 0.5,
        "tn": 16,
        "tp": 23
      }
    },
    "model_type": "pytorch_mlp_gate",
    "positive": 29,
    "positive_weight": "balanced",
    "rows": 52,
    "seed": 7,
    "source": "smart.local_refine_gate.train_local_refine_gate",
    "torch_version": "2.8.0",
    "train": {
      "best_f1_threshold": {
        "accuracy": 0.9807692307692307,
        "f1": 0.983050847457627,
        "fn": 0,
        "fp": 1,
        "precision": 0.9666666666666667,
        "recall": 1.0,
        "threshold": 0.5,
        "tn": 22,
        "tp": 29
      },
      "majority_accuracy": 0.5576923076923077,
      "n": 52,
      "positive": 29,
      "positive_rate": 0.5576923076923077,
      "roc_auc": 0.9970014992503748,
      "threshold_0_5": {
        "accuracy": 0.9807692307692307,
        "f1": 0.983050847457627,
        "fn": 0,
        "fp": 1,
        "precision": 0.9666666666666667,
        "recall": 1.0,
        "threshold": 0.5,
        "tn": 22,
        "tp": 29
      }
    },
    "trainer_backend": "torch",
    "weight_decay": 0.001
  },
  "policy_type": "local_refine_gate",
  "schema_version": 1,
  "target": "label_improved",
  "weights": {
    "hidden_bias": [
      -0.9482700228691101,
      0.4962560534477234,
      -0.5916598439216614,
      0.5742978453636169,
      -1.1968576908111572,
      1.2495760917663574,
      1.133061408996582,
      -0.5568468570709229
    ],
    "input": [
      [
        0.06147594377398491,
        -0.14584967494010925,
        0.418651282787323,
        0.7512354254722595,
        -0.45773375034332275,
        0.9093145728111267,
        0.30673274397850037,
        1.675047755241394
      ],
      [
        -0.4492364525794983,
        -0.31648412346839905,
        -0.21426214277744293,
        0.017214128747582436,
        -0.8182986974716187,
        -0.6415166854858398,
        0.7114722728729248,
        -0.7996199131011963
      ],
      [
        0.41312602162361145,
        0.3040010333061218,
        0.007351258769631386,
        -0.4989657700061798,
        0.8700918555259705,
        -0.04938216879963875,
        -0.7416391372680664,
        -0.030438166111707687
      ],
      [
        0.9064798951148987,
        0.614203929901123,
        -0.517546534538269,
        0.8732702136039734,
        1.6990647315979004,
        -1.485721230506897,
        -1.4116257429122925,
        -1.9430814981460571
      ],
      [
        0.06588178128004074,
        0.00173574045766145,
        1.1040066480636597,
        -0.45027005672454834,
        -0.09479466825723648,
        -0.870879590511322,
        0.1487474888563156,
        0.3972778022289276
      ],
      [
        0.05825815349817276,
        0.6884569525718689,
        -0.054179172962903976,
        2.241921901702881,
        1.254054307937622,
        0.14722222089767456,
        -0.9391611814498901,
        -0.6387237906455994
      ],
      [
        -0.2656826376914978,
        0.20328429341316223,
        1.6073758602142334,
        0.2218630462884903,
        -0.6411318778991699,
        -1.2682080268859863,
        0.6195701956748962,
        0.8457401394844055
      ],
      [
        0.010746894404292107,
        -0.05301833525300026,
        3.000196933746338,
        -1.2306073904037476,
        0.02142832800745964,
        0.9938073754310608,
        0.013908576220273972,
        0.17400413751602173
      ],
      [
        -0.9477313160896301,
        -0.12278233468532562,
        0.6116613149642944,
        0.6206793785095215,
        -1.0120142698287964,
        -2.8536884784698486,
        1.0534049272537231,
        2.1897168159484863
      ],
      [
        -0.00025518235634081066,
        -0.0003817014512605965,
        -0.0003269751905463636,
        -7.793011172907427e-05,
        0.0003999065374955535,
        9.633992885937914e-05,
        0.00028883307822979987,
        -9.066930215340108e-05
      ]
    ],
    "output": [
      0.7970626950263977,
      -0.7714061737060547,
      -2.686840057373047,
      -2.7042365074157715,
      1.8009042739868164,
      2.3871843814849854,
      -1.7097392082214355,
      -2.4419236183166504
    ],
    "output_bias": 0.4576408565044403
  }
}