{
  "activation": "tanh",
  "categories": [
    "airplane"
  ],
  "classes": [
    "0:0",
    "0:1",
    "1:0",
    "1:1",
    "2:0",
    "2:1",
    "3:0",
    "3:1",
    "4:0",
    "4:1",
    "5:0",
    "5:1",
    "6:0"
  ],
  "default_logit": -8.009363076630045,
  "fallback_coord_scale_logits": {
    "0:0": -3.2557728855236805,
    "0:1": -3.336534242168139,
    "1:0": -3.434652098126662,
    "1:1": -3.5207267068979053,
    "2:0": -3.060603186251877,
    "2:1": -1.62924053973028,
    "3:0": -3.6786297363437144,
    "3:1": -3.0535360190287846,
    "4:0": -2.588828077357759,
    "4:1": -3.5550157803765376,
    "5:0": -1.1361992424175273,
    "5:1": -3.434652098126662,
    "6:0": -2.3889622109128954
  },
  "feature_names": [
    "bias_context",
    "bvs",
    "bvs_minus_one",
    "abs_bvs_minus_one",
    "step_fraction",
    "action_unit",
    "num_bbox_scaled",
    "cover_penalty_scaled",
    "pen_rate",
    "category=airplane"
  ],
  "hidden_bias": [
    1.0377578735351562,
    -1.0330809354782104,
    -1.032304048538208,
    1.0313435792922974,
    1.0308948755264282,
    -1.0329947471618652,
    1.028172254562378,
    1.0287188291549683,
    -1.0300986766815186,
    1.0305912494659424,
    1.0226439237594604,
    -1.0227562189102173,
    1.0302726030349731,
    1.033477544784546,
    1.0215221643447876,
    -1.029262661933899,
    -1.0244592428207397,
    -1.0298535823822021,
    1.0270764827728271,
    1.0228569507598877,
    1.0253510475158691,
    1.0295747518539429,
    1.0330833196640015,
    -1.029932975769043,
    -1.0359230041503906,
    1.0121581554412842,
    -1.0333549976348877,
    -1.029862880706787,
    1.0318946838378906,
    1.0252488851547241,
    -1.041550874710083,
    1.0306533575057983,
    1.0290082693099976,
    -1.0315848588943481,
    -1.0203608274459839,
    1.0452367067337036,
    -1.039385199546814,
    1.0278046131134033,
    1.0349005460739136,
    1.0205546617507935,
    -1.0190417766571045,
    -1.0403389930725098,
    -1.0254204273223877,
    1.030243992805481,
    1.0366840362548828,
    -1.0325767993927002,
    -1.0324755907058716,
    1.0312288999557495
  ],
  "hidden_size": 48,
  "input_weights": [
    [
      1.0447310209274292,
      -1.0227326154708862,
      -1.0296714305877686,
      1.0225774049758911,
      1.020111083984375,
      -1.0344738960266113,
      1.0335285663604736,
      1.037373423576355,
      -1.0247790813446045,
      1.023946762084961,
      1.011620283126831,
      -1.0270228385925293,
      1.0332683324813843,
      1.0421022176742554,
      1.0269451141357422,
      -1.0309669971466064,
      -1.0329408645629883,
      -1.0360673666000366,
      1.027358889579773,
      1.0308682918548584,
      1.0325995683670044,
      1.0283167362213135,
      1.0233631134033203,
      -1.037758231163025,
      -1.0358808040618896,
      1.0186958312988281,
      -1.0225718021392822,
      -1.0259630680084229,
      1.024055004119873,
      1.0142536163330078,
      -1.044166088104248,
      1.0349647998809814,
      1.0377655029296875,
      -1.0251494646072388,
      -1.0236114263534546,
      1.0339668989181519,
      -1.044411301612854,
      1.0295510292053223,
      1.0432778596878052,
      1.026947259902954,
      -1.0195916891098022,
      -1.0481473207473755,
      -1.0325199365615845,
      1.0292165279388428,
      1.043773889541626,
      -1.0223153829574585,
      -1.030017614364624,
      1.0223474502563477
    ],
    [
      0.8372246623039246,
      -0.8231370449066162,
      -0.8080618381500244,
      0.817158043384552,
      0.8011309504508972,
      -0.8217657804489136,
      0.8151470422744751,
      0.8041602969169617,
      -0.8106608986854553,
      0.8172920942306519,
      0.7933602333068848,
      -0.8148391246795654,
      0.8144799470901489,
      0.813463032245636,
      0.7831283211708069,
      -0.801675021648407,
      -0.7932025194168091,
      -0.8213517665863037,
      0.8062048554420471,
      0.8019039630889893,
      0.7893730401992798,
      0.8015598654747009,
      0.8250691890716553,
      -0.8146560192108154,
      -0.8233557343482971,
      0.8145129680633545,
      -0.8138085007667542,
      -0.8072348237037659,
      0.8176993727684021,
      0.8038274049758911,
      -0.8415055871009827,
      0.8176530003547668,
      0.8032397031784058,
      -0.7869867086410522,
      -0.7780243158340454,
      0.8272330164909363,
      -0.8409963250160217,
      0.8097063302993774,
      0.814329981803894,
      0.778034508228302,
      -0.7880277633666992,
      -0.8153393864631653,
      -0.8100929856300354,
      0.8059750199317932,
      0.8362365961074829,
      -0.8208555579185486,
      -0.8079302906990051,
      0.8169958591461182
    ],
    [
      0.2130967378616333,
      -0.21214552223682404,
      -0.21581752598285675,
      0.21037991344928741,
      0.22454777359962463,
      -0.21787129342556,
      0.21747149527072906,
      0.21435551345348358,
      -0.2102392464876175,
      0.20817667245864868,
      0.2307095229625702,
      -0.22939583659172058,
      0.21927788853645325,
      0.21387486159801483,
      0.23256178200244904,
      -0.22646093368530273,
      -0.21742524206638336,
      -0.21596357226371765,
      0.21931825578212738,
      0.20326140522956848,
      0.22754821181297302,
      0.20894308388233185,
      0.2126239836215973,
      -0.21365322172641754,
      -0.2179122269153595,
      0.21889972686767578,
      -0.2194124311208725,
      -0.21263040602207184,
      0.20873482525348663,
      0.22881612181663513,
      -0.2155291736125946,
      0.2178773432970047,
      0.21390612423419952,
      -0.21092809736728668,
      -0.23155994713306427,
      0.22599095106124878,
      -0.2172355353832245,
      0.21989940106868744,
      0.21622751653194427,
      0.2296016961336136,
      -0.22948434948921204,
      -0.21844467520713806,
      -0.21440161764621735,
      0.21885734796524048,
      0.21323786675930023,
      -0.21147975325584412,
      -0.21635383367538452,
      0.21066130697727203
    ],
    [
      0.5531291365623474,
      -0.5395186543464661,
      -0.5358386039733887,
      0.5332404971122742,
      0.5446217060089111,
      -0.5529928803443909,
      0.5377880334854126,
      0.544891357421875,
      -0.5433022975921631,
      0.5445383191108704,
      0.5308438539505005,
      -0.5550576448440552,
      0.5477486252784729,
      0.5352401733398438,
      0.5304092168807983,
      -0.5334922671318054,
      -0.5399675965309143,
      -0.5405403971672058,
      0.5367144346237183,
      0.5233080983161926,
      0.5382519960403442,
      0.5219876170158386,
      0.5437061786651611,
      -0.5397408604621887,
      -0.5512011647224426,
      0.5320091247558594,
      -0.5305888652801514,
      -0.5377700328826904,
      0.5365087389945984,
      0.5488104820251465,
      -0.572311520576477,
      0.5464291572570801,
      0.5353074073791504,
      -0.5191999673843384,
      -0.5126703381538391,
      0.5456283092498779,
      -0.5612969398498535,
      0.5424118638038635,
      0.5321314930915833,
      0.5287430286407471,
      -0.5281698107719421,
      -0.5522042512893677,
      -0.529902458190918,
      0.5367619395256042,
      0.5532529354095459,
      -0.5365669131278992,
      -0.5356730222702026,
      0.5331063866615295
    ],
    [
      0.7771384119987488,
      -0.8236425518989563,
      -0.8302887678146362,
      0.8346458077430725,
      0.830540657043457,
      -0.8204443454742432,
      0.8218608498573303,
      0.8309985995292664,
      -0.8207820653915405,
      0.8357810378074646,
      0.9042774438858032,
      -0.8755878806114197,
      0.8343367576599121,
      0.8254615068435669,
      0.8965376019477844,
      -0.8703891634941101,
      -0.8797903656959534,
      -0.8168888092041016,
      0.8332172632217407,
      0.8681610226631165,
      0.867026150226593,
      0.8458964228630066,
      0.8190022110939026,
      -0.8219718933105469,
      -0.8059465885162354,
      0.8614189028739929,
      -0.830003023147583,
      -0.8249980807304382,
      0.8304979801177979,
      0.870108425617218,
      -0.798149824142456,
      0.8386953473091125,
      0.832916796207428,
      -0.8475484251976013,
      -0.9200181365013123,
      0.7883477807044983,
      -0.7716550230979919,
      0.8361462950706482,
      0.8036906719207764,
      0.9001855254173279,
      -0.9087291955947876,
      -0.813879132270813,
      -0.8239048719406128,
      0.8375489115715027,
      0.7805511951446533,
      -0.8278518915176392,
      -0.831482470035553,
      0.8355385065078735
    ],
    [
      0.5685929656028748,
      -0.5790189504623413,
      -0.5740479826927185,
      0.5633795857429504,
      0.5624669790267944,
      -0.5749906897544861,
      0.5625694394111633,
      0.5647255778312683,
      -0.5767926573753357,
      0.568524956703186,
      0.5732941031455994,
      -0.5708695650100708,
      0.5772531032562256,
      0.5757147669792175,
      0.5824083089828491,
      -0.5654164552688599,
      -0.5582187175750732,
      -0.5587641000747681,
      0.5724162459373474,
      0.5786827206611633,
      0.5706531405448914,
      0.5633429884910583,
      0.5741741061210632,
      -0.5689020156860352,
      -0.5716553926467896,
      0.5690360069274902,
      -0.5830836296081543,
      -0.5782622694969177,
      0.5611627101898193,
      0.5684680342674255,
      -0.5754420161247253,
      0.570432186126709,
      0.5691338777542114,
      -0.57247394323349,
      -0.5675493478775024,
      0.5761509537696838,
      -0.5606708526611328,
      0.5770317316055298,
      0.5817366242408752,
      0.5810654759407043,
      -0.5693991184234619,
      -0.5595425367355347,
      -0.5685387849807739,
      0.564038872718811,
      0.5707382559776306,
      -0.5772518515586853,
      -0.57344651222229,
      0.5643014907836914
    ],
    [
      0.5811693668365479,
      -0.564965546131134,
      -0.5556039214134216,
      0.568811297416687,
      0.5624018311500549,
      -0.574503481388092,
      0.5559506416320801,
      0.562643826007843,
      -0.5650218725204468,
      0.574755072593689,
      0.5668904185295105,
      -0.5522589683532715,
      0.5679826736450195,
      0.5614824295043945,
      0.5506398677825928,
      -0.5750921368598938,
      -0.5631678700447083,
      -0.5605946779251099,
      0.5707302093505859,
      0.5726067423820496,
      0.5631501078605652,
      0.5718647241592407,
      0.5668366551399231,
      -0.5839508175849915,
      -0.574114203453064,
      0.5452941060066223,
      -0.5648465752601624,
      -0.5551179647445679,
      0.5742325782775879,
      0.5691156983375549,
      -0.5776538252830505,
      0.559660792350769,
      0.5562178492546082,
      -0.5735451579093933,
      -0.5567648410797119,
      0.5764047503471375,
      -0.561566174030304,
      0.5723047852516174,
      0.569762647151947,
      0.5547201037406921,
      -0.5682076811790466,
      -0.5780728459358215,
      -0.5715494155883789,
      0.5655907392501831,
      0.5820373892784119,
      -0.563380777835846,
      -0.5563862323760986,
      0.5680105686187744
    ],
    [
      1.0462068319320679,
      -1.034686803817749,
      -1.040124773979187,
      1.0356404781341553,
      1.0371273756027222,
      -1.039354920387268,
      1.0217593908309937,
      1.0366811752319336,
      -1.0263595581054688,
      1.019453763961792,
      1.02196204662323,
      -1.0118401050567627,
      1.0258606672286987,
      1.0233227014541626,
      1.026249647140503,
      -1.0208910703659058,
      -1.0312325954437256,
      -1.033471703529358,
      1.0351821184158325,
      1.0239429473876953,
      1.0142844915390015,
      1.0291115045547485,
      1.04156494140625,
      -1.0322591066360474,
      -1.0432790517807007,
      1.017162799835205,
      -1.0251715183258057,
      -1.0367730855941772,
      1.0260895490646362,
      1.0335623025894165,
      -1.0382894277572632,
      1.0194791555404663,
      1.0288387537002563,
      -1.0207629203796387,
      -1.0232079029083252,
      1.035327434539795,
      -1.0316276550292969,
      1.0332846641540527,
      1.0253466367721558,
      1.0152286291122437,
      -1.0084552764892578,
      -1.0374975204467773,
      -1.0341994762420654,
      1.0304497480392456,
      1.0448521375656128,
      -1.0355167388916016,
      -1.0396068096160889,
      1.0366482734680176
    ],
    [
      1.0404444932937622,
      -1.039311408996582,
      -1.0215297937393188,
      1.0202305316925049,
      1.0381842851638794,
      -1.0372642278671265,
      1.028639316558838,
      1.0300281047821045,
      -1.0351850986480713,
      1.038308024406433,
      1.0116280317306519,
      -1.0124069452285767,
      1.0221843719482422,
      1.0355050563812256,
      1.0213321447372437,
      -1.032995581626892,
      -1.0152853727340698,
      -1.0383387804031372,
      1.0356144905090332,
      1.0137500762939453,
      1.0290706157684326,
      1.0276103019714355,
      1.0284351110458374,
      -1.0217636823654175,
      -1.0438464879989624,
      1.0210556983947754,
      -1.0410104990005493,
      -1.0224463939666748,
      1.028232216835022,
      1.0223628282546997,
      -1.034481167793274,
      1.020914077758789,
      1.0376951694488525,
      -1.0399593114852905,
      -1.0118917226791382,
      1.0398353338241577,
      -1.038072943687439,
      1.0307873487472534,
      1.0260956287384033,
      1.0290825366973877,
      -1.0279027223587036,
      -1.0305452346801758,
      -1.029720664024353,
      1.0306243896484375,
      1.0378974676132202,
      -1.0376795530319214,
      -1.022284984588623,
      1.0200376510620117
    ],
    [
      0.6424615383148193,
      -0.6346168518066406,
      -0.640519917011261,
      0.6429361701011658,
      0.6322646141052246,
      -0.6382010579109192,
      0.6428858041763306,
      0.6267377734184265,
      -0.6261191964149475,
      0.6300022006034851,
      0.6260626912117004,
      -0.6240437030792236,
      0.6260485649108887,
      0.6461717486381531,
      0.6225059628486633,
      -0.6335757970809937,
      -0.6226919293403625,
      -0.6423631310462952,
      0.640549898147583,
      0.6235328912734985,
      0.6289523839950562,
      0.6238405704498291,
      0.6395229697227478,
      -0.6166264414787292,
      -0.6457498669624329,
      0.6424904465675354,
      -0.641620397567749,
      -0.6359349489212036,
      0.6414647102355957,
      0.6243759393692017,
      -0.6385926008224487,
      0.6325183510780334,
      0.6329212188720703,
      -0.6273276209831238,
      -0.6337763071060181,
      0.6506168842315674,
      -0.6487353444099426,
      0.6337183117866516,
      0.6427556872367859,
      0.6180187463760376,
      -0.6199193000793457,
      -0.6432525515556335,
      -0.632194995880127,
      0.634652316570282,
      0.6411964297294617,
      -0.6317876577377319,
      -0.6400839686393738,
      0.6421916484832764
    ]
  ],
  "metadata": {
    "advantage_baseline": "mesh",
    "advantage_clip": 4.0,
    "advantage_mean": -4.9027539159168264e-17,
    "advantage_std": 6.466777473426892,
    "categories": [
      "airplane"
    ],
    "device": "cpu",
    "entropy_coef": 0.02,
    "epochs": 600,
    "fallback_min_reward": 0.0,
    "hidden_size": 48,
    "l2": 0.0001,
    "learning_rate": 0.01,
    "logit_scale": 0.019280191664372785,
    "max_logit_abs": 6.0,
    "meshes": [
      "10155655850468db78d106ce0a280f87",
      "1021a0914a7207aff927ed529ad90a11",
      "1026dd1b26120799107f68a9cb8e3c",
      "103c9e43cdf6501c62b600da24e0965",
      "105f7f51e4140ee4b6b87e72ead132ed",
      "1066b65c30d153e04c3a35cee92bb95b",
      "106dfe858cb8fbc2afc6b80d80a265ab",
      "10aa040f470500c6a66ef8df4909ded9",
      "10af5de930178a161596c26b5af806fe",
      "10c7cdfdffe2243b88a89a28f04ce622",
      "10cfc2090a2ade124c3a35cee92bb95b",
      "10db820f0e20396a492c7ca609cb0182",
      "10e0a7255d279a419751c7a6f15617f4",
      "10e4331c34d610dacc14f1e6f4f4f49b",
      "10eeb119fd5508e0d6d949577c389a84",
      "110f6dbf0e6216e9f9a63e9a8c332e52",
      "112ca5420188df4bd90bfc986bc4c94d",
      "1169d987dbbce76775f4ea0b85a53249",
      "117830993cc5887726587cb13c78fb9b",
      "117861b9ebca4f17c69cb28fb4b4d257",
      "118e8142a8cb1fe19a4a28ef635593ce",
      "11d2af04fad0a7e2ce19d55bc5e6a406",
      "11def84f9fe8ab0acd726e804e5d7a",
      "1203825bf97bc3524722e1824a086fad",
      "123bd9e948881939c38a1d3458dafa1b",
      "12877bdca58ccbea402991f646f01d6c",
      "13370c42b8ea45cf5e8172e6d9ae84ff",
      "17c2d3e052dfe73f9cc1fc25372199f",
      "18806a80387734b754c7b6e11bf7148d",
      "196d35794f869816db6f03b6829a5891",
      "1998ee1bf3806b05818b286e41cc1a3f",
      "19a624cf1037fc75cda1835f53ae7d53",
      "1ce5b9a79420e946bff7790df3158906",
      "1f3fd9b2ce99e4ed164ee3a88aef3755",
      "1f5537f4747ec847622c69c3abc6f80",
      "2066f1830765183544bb6b89d63deb6f",
      "20dbfa169424bb8ed7b90ecb4a11cd32",
      "22e4e0210f80fae813940713146922c1",
      "240136d2ae7d2dec9fe69c7ccc27d2bf",
      "260305219d81f745623cba1f26a8e885"
    ],
    "min_reward": -1e+18,
    "model_type": "offline_rl_mlp",
    "num_meshes": 40,
    "pre_scale_max_abs_logit": 311.2002258300781,
    "records_seen": 4176,
    "records_used": 4176,
    "reward_mean": -0.001984789210942403,
    "smoothing": 1.0,
    "source": "smart.action_prior.build_rl_mlp_action_prior_from_traces",
    "torch_version": "2.8.0",
    "trace_files": [
      "runs/bench_exact/action_prior_generalization_expanded2_mlp_smoke/airplane_123bd9e948881939c38a1d3458dafa1b.trace.jsonl",
      "runs/bench_exact/action_prior_generalization_expanded2_mlp_smoke/airplane_12877bdca58ccbea402991f646f01d6c.trace.jsonl",
      "runs/bench_exact/action_prior_generalization_smoke3/airplane_1f5537f4747ec847622c69c3abc6f80.trace.jsonl",
      "runs/bench_exact/action_prior_generalization_smoke3/airplane_260305219d81f745623cba1f26a8e885.trace.jsonl",
      "runs/bench_exact/action_prior_generalization_smoke3_smallw/airplane_1f5537f4747ec847622c69c3abc6f80.trace.jsonl",
      "runs/bench_exact/action_prior_generalization_smoke3_smallw/airplane_260305219d81f745623cba1f26a8e885.trace.jsonl",
      "runs/bench_exact/action_prior_generalization_smoke5_w01/airplane_1f5537f4747ec847622c69c3abc6f80.trace.jsonl",
      "runs/bench_exact/action_prior_generalization_smoke5_w01/airplane_260305219d81f745623cba1f26a8e885.trace.jsonl",
      "runs/bench_exact/action_prior_linear_airplane2_mcts2/airplane_123bd9e948881939c38a1d3458dafa1b.trace.jsonl",
      "runs/bench_exact/action_prior_linear_airplane2_mcts2/airplane_12877bdca58ccbea402991f646f01d6c.trace.jsonl",
      "runs/bench_exact/action_prior_linear_smoke3_mcts5/airplane_123bd9e948881939c38a1d3458dafa1b.trace.jsonl",
      "runs/bench_exact/action_prior_linear_smoke3_mcts5/airplane_12877bdca58ccbea402991f646f01d6c.trace.jsonl",
      "runs/bench_exact/action_prior_linear_smoke3_mcts5/airplane_13370c42b8ea45cf5e8172e6d9ae84ff.trace.jsonl",
      "runs/bench_exact/action_prior_mlp_airplane2_mcts2/airplane_123bd9e948881939c38a1d3458dafa1b.trace.jsonl",
      "runs/bench_exact/action_prior_mlp_airplane2_mcts2/airplane_12877bdca58ccbea402991f646f01d6c.trace.jsonl",
      "runs/bench_exact/action_prior_puct_linear_airplane1_mcts2/airplane_123bd9e948881939c38a1d3458dafa1b.trace.jsonl",
      "runs/bench_exact/action_prior_puct_linear_airplane2_mcts2/airplane_123bd9e948881939c38a1d3458dafa1b.trace.jsonl",
      "runs/bench_exact/action_prior_puct_linear_airplane2_mcts2/airplane_12877bdca58ccbea402991f646f01d6c.trace.jsonl",
      "runs/bench_exact/airplane_mcts10_action_prior_sweep.trace.jsonl",
      "runs/bench_exact/airplane_mcts20_action_prior_actionlogits_sweep.trace.jsonl",
      "runs/bench_exact/airplane_mcts20_action_prior_sweep.trace.jsonl",
      "runs/bench_exact/airplane_mcts20_action_prior_tt_sweep.trace.jsonl",
      "runs/bench_exact/trace_collection/expanded_full_cat20_20260514_airplane_batch001.jsonl",
      "runs/bench_exact/trace_collection/expanded_full_cat20_20260514_airplane_batch002.jsonl",
      "runs/bench_exact/trace_collection/expanded_full_cat20_20260514_airplane_batch003.jsonl",
      "runs/bench_exact/trace_collection/expanded_full_cat20_20260514_airplane_batch004.jsonl",
      "runs/bench_exact/trace_collection/expanded_full_next_20260514_airplane_batch001.jsonl",
      "runs/bench_exact/trace_collection/expanded_more_20260514_airplane_batch001.jsonl",
      "runs/bench_exact/trace_collection/shapenet_v1_first_20260514_airplane_batch001.jsonl",
      "runs/bench_exact/traces/airplane_mcts20_trace.jsonl",
      "runs/bench_exact/traces/mcts_airplane_1f5537f474_manifold.jsonl",
      "runs/bench_exact/traces/mcts_airplane_1f5537f474_manifold_stateful.jsonl",
      "runs/bench_exact/traces/mcts_airplane_260305219d_manifold.jsonl",
      "runs/bench_exact/traces/mcts_airplane_260305219d_manifold_stateful.jsonl",
      "runs/bench_exact/traces_expanded_batch2_airplane5_mcts20.jsonl",
      "runs/bench_exact/traces_expanded_batch_airplane5_mcts20.jsonl",
      "runs/bench_exact/traces_properties/mcts_airplane_123bd9e948_manifold.jsonl",
      "runs/bench_exact/traces_properties/mcts_airplane_123bd9e948_manifold_stateful.jsonl",
      "runs/bench_exact/traces_properties/mcts_airplane_123bd9e948_manifold_stateful_properties.jsonl"
    ],
    "trainer_backend": "torch"
  },
  "num_action_scale": 2,
  "output_bias": [
    0.06709828227758408,
    -0.1653362661600113,
    0.06704523414373398,
    -0.16556589305400848,
    0.06718169152736664,
    -0.16557151079177856,
    -0.16528238356113434,
    0.06598503142595291,
    -0.16566422581672668,
    0.06582169979810715,
    -0.16586601734161377,
    0.06678590178489685,
    -0.1655045747756958
  ],
  "output_weights": [
    [
      0.12005193531513214,
      -0.11975301802158356,
      0.119801364839077,
      -0.11983378231525421,
      0.12000251561403275,
      -0.11953694373369217,
      -0.1201132982969284,
      0.12013715505599976,
      -0.12024331837892532,
      0.12002836912870407,
      -0.11892232298851013,
      0.12014739215373993,
      -0.12124936282634735
    ],
    [
      -0.11987456679344177,
      0.11935634911060333,
      -0.11968781054019928,
      0.11957243084907532,
      -0.12001904100179672,
      0.11974435299634933,
      0.12039706110954285,
      -0.1204298734664917,
      0.12006654590368271,
      -0.12020319700241089,
      0.11908341199159622,
      -0.11982854455709457,
      0.12154705822467804
    ],
    [
      -0.1202000081539154,
      0.1198711097240448,
      -0.12026350200176239,
      0.11996091157197952,
      -0.12021636217832565,
      0.11991926282644272,
      0.12012725323438644,
      -0.12003794312477112,
      0.12010478973388672,
      -0.12012364715337753,
      0.11909329891204834,
      -0.1201404556632042,
      0.12141358852386475
    ],
    [
      0.11989255249500275,
      -0.11972597986459732,
      0.12026087194681168,
      -0.11999978870153427,
      0.12016036361455917,
      -0.11971823126077652,
      -0.12042339891195297,
      0.12028459459543228,
      -0.12019748985767365,
      0.12003031373023987,
      -0.11891338229179382,
      0.1200072392821312,
      -0.12139013409614563
    ],
    [
      0.12009924650192261,
      -0.11988697946071625,
      0.11998409777879715,
      -0.11976548284292221,
      0.12030383944511414,
      -0.11980890482664108,
      -0.12044106423854828,
      0.12002410739660263,
      -0.120103619992733,
      0.12037698179483414,
      -0.11913178861141205,
      0.11998668313026428,
      -0.12149708718061447
    ],
    [
      -0.11986412107944489,
      0.11990711092948914,
      -0.11999010294675827,
      0.11994562298059464,
      -0.12008976191282272,
      0.11981615424156189,
      0.12019245326519012,
      -0.12029368430376053,
      0.12003844976425171,
      -0.120361328125,
      0.11897340416908264,
      -0.12035562098026276,
      0.12117825448513031
    ],
    [
      0.1201537474989891,
      -0.11966178566217422,
      0.1199943870306015,
      -0.12000090628862381,
      0.11990603804588318,
      -0.11987626552581787,
      -0.12017425894737244,
      0.1202806606888771,
      -0.11998794972896576,
      0.12028481811285019,
      -0.11909337341785431,
      0.12001152336597443,
      -0.12155693024396896
    ],
    [
      0.12004822492599487,
      -0.11994105577468872,
      0.12022759020328522,
      -0.11969361454248428,
      0.11961385607719421,
      -0.11998002231121063,
      -0.12011801451444626,
      0.12023584544658661,
      -0.12039441615343094,
      0.1201677918434143,
      -0.11858505010604858,
      0.12012647837400436,
      -0.12155140936374664
    ],
    [
      -0.12015434354543686,
      0.11978277564048767,
      -0.12011977285146713,
      0.1197488084435463,
      -0.1199457049369812,
      0.11961139738559723,
      0.1203811913728714,
      -0.12025849521160126,
      0.1202826052904129,
      -0.12019643932580948,
      0.11908531188964844,
      -0.12002789974212646,
      0.12116516381502151
    ],
    [
      0.11991377919912338,
      -0.11968039721250534,
      0.12019026279449463,
      -0.12000295519828796,
      0.12032801657915115,
      -0.1200527772307396,
      -0.12017855048179626,
      0.12016499042510986,
      -0.12032128870487213,
      0.120391845703125,
      -0.11935587227344513,
      0.12035781145095825,
      -0.12149146944284439
    ],
    [
      0.12073042243719101,
      -0.1206570565700531,
      0.12080598622560501,
      -0.12039192020893097,
      0.12081615626811981,
      -0.12074732780456543,
      -0.1210036352276802,
      0.12111684679985046,
      -0.12090305238962173,
      0.12073671817779541,
      -0.12022901326417923,
      0.12110521644353867,
      -0.1220318078994751
    ],
    [
      -0.12085124850273132,
      0.12082842737436295,
      -0.12111682444810867,
      0.12082358449697495,
      -0.12136256694793701,
      0.12069057673215866,
      0.12112456560134888,
      -0.12126321345567703,
      0.12128712981939316,
      -0.121010422706604,
      0.12053298205137253,
      -0.12113086879253387,
      0.1223902627825737
    ],
    [
      0.12026328593492508,
      -0.11965194344520569,
      0.12024285644292831,
      -0.11994095146656036,
      0.12006185948848724,
      -0.1200641617178917,
      -0.12051676213741302,
      0.12002986669540405,
      -0.12041489779949188,
      0.12019571661949158,
      -0.11915221810340881,
      0.12034635245800018,
      -0.12130755931138992
    ],
    [
      0.12002088874578476,
      -0.11985645443201065,
      0.11998365819454193,
      -0.11922191828489304,
      0.11977697163820267,
      -0.11989405751228333,
      -0.1203627735376358,
      0.12017416208982468,
      -0.11994396895170212,
      0.12007457762956619,
      -0.1188788115978241,
      0.11966937780380249,
      -0.12112116813659668
    ],
    [
      0.12052158266305923,
      -0.12039445340633392,
      0.12081894278526306,
      -0.12065475434064865,
      0.1208629161119461,
      -0.1205529198050499,
      -0.12104668468236923,
      0.12108418345451355,
      -0.1210077628493309,
      0.12109290808439255,
      -0.11968554556369781,
      0.12064330279827118,
      -0.12193722277879715
    ],
    [
      -0.12037430703639984,
      0.12006355822086334,
      -0.1203845962882042,
      0.12007009238004684,
      -0.12025737017393112,
      0.11994680017232895,
      0.12053384631872177,
      -0.12047847360372543,
      0.12051316350698471,
      -0.12056829780340195,
      0.11943573504686356,
      -0.12048321217298508,
      0.1216994896531105
    ],
    [
      -0.12030035257339478,
      0.11979171633720398,
      -0.12016573548316956,
      0.12012258917093277,
      -0.12047731876373291,
      0.12005546689033508,
      0.12066338211297989,
      -0.12087014317512512,
      0.12026660889387131,
      -0.1205970048904419,
      0.11933226883411407,
      -0.12052606791257858,
      0.12200859189033508
    ],
    [
      -0.11994200944900513,
      0.11974991858005524,
      -0.1202847808599472,
      0.11965862661600113,
      -0.12018503993749619,
      0.11992278695106506,
      0.12049953639507294,
      -0.1200420930981636,
      0.12023286521434784,
      -0.12034399807453156,
      0.11891772598028183,
      -0.12027553468942642,
      0.12141436338424683
    ],
    [
      0.12022945284843445,
      -0.11953064054250717,
      0.12029219418764114,
      -0.11966933310031891,
      0.12024038285017014,
      -0.11970022320747375,
      -0.12016163766384125,
      0.12021028995513916,
      -0.12014804035425186,
      0.12019046396017075,
      -0.11914154887199402,
      0.12010021507740021,
      -0.12145806849002838
    ],
    [
      0.1203727200627327,
      -0.12014802545309067,
      0.12014487385749817,
      -0.12006521224975586,
      0.12044091522693634,
      -0.11989906430244446,
      -0.12098848074674606,
      0.12065886706113815,
      -0.12051154673099518,
      0.120957151055336,
      -0.11904718726873398,
      0.12036317586898804,
      -0.12216170132160187
    ],
    [
      0.12051958590745926,
      -0.12046030163764954,
      0.12087616324424744,
      -0.12096420675516129,
      0.12060614675283432,
      -0.12024319916963577,
      -0.1210697591304779,
      0.12080958485603333,
      -0.12060856819152832,
      0.12068330496549606,
      -0.11961822211742401,
      0.12126582860946655,
      -0.12209141999483109
    ],
    [
      0.1199963241815567,
      -0.11968258023262024,
      0.12005698680877686,
      -0.11978209018707275,
      0.12004157900810242,
      -0.11976917088031769,
      -0.12056615203619003,
      0.1204412654042244,
      -0.12050075829029083,
      0.12046083062887192,
      -0.1194775328040123,
      0.12045495957136154,
      -0.12159977853298187
    ],
    [
      0.120010145008564,
      -0.11949992179870605,
      0.12000320106744766,
      -0.11965365707874298,
      0.11972932517528534,
      -0.11971260607242584,
      -0.12046662718057632,
      0.1201702430844307,
      -0.11970368027687073,
      0.12009914964437485,
      -0.11921663582324982,
      0.12002081423997879,
      -0.12159081548452377
    ],
    [
      -0.12008319795131683,
      0.11973575502634048,
      -0.12041804194450378,
      0.11955294013023376,
      -0.11968546360731125,
      0.12012776732444763,
      0.12035727500915527,
      -0.1204250305891037,
      0.12017938494682312,
      -0.12022857367992401,
      0.11905163526535034,
      -0.11980893462896347,
      0.12132216989994049
    ],
    [
      -0.11979249119758606,
      0.11987719684839249,
      -0.11986241489648819,
      0.1199338287115097,
      -0.11986198276281357,
      0.11989621073007584,
      0.12033748626708984,
      -0.12001553922891617,
      0.12017949670553207,
      -0.12007715553045273,
      0.11904028058052063,
      -0.12005538493394852,
      0.12123095989227295
    ],
    [
      0.12044841796159744,
      -0.12006083130836487,
      0.1202639564871788,
      -0.12034016102552414,
      0.12033075094223022,
      -0.12004388123750687,
      -0.1204211637377739,
      0.12066665291786194,
      -0.12052667140960693,
      0.12043609470129013,
      -0.1195501759648323,
      0.12039945274591446,
      -0.12174084037542343
    ],
    [
      -0.12007839977741241,
      0.11954467743635178,
      -0.11995735764503479,
      0.11990170925855637,
      -0.12028298527002335,
      0.1198485866189003,
      0.12040748447179794,
      -0.12026184052228928,
      0.12009535729885101,
      -0.11958947032690048,
      0.11908676475286484,
      -0.12032513320446014,
      0.1214795634150505
    ],
    [
      -0.12013284862041473,
      0.11978503316640854,
      -0.12015970051288605,
      0.11982411891222,
      -0.12004988640546799,
      0.11971865594387054,
      0.12022898346185684,
      -0.12015882134437561,
      0.12024951726198196,
      -0.1202588751912117,
      0.11923401802778244,
      -0.12024854123592377,
      0.12146428227424622
    ],
    [
      0.1198703721165657,
      -0.11967029422521591,
      0.12020475417375565,
      -0.1199963167309761,
      0.12024839222431183,
      -0.11986515671014786,
      -0.12030762434005737,
      0.12029700726270676,
      -0.120356984436512,
      0.1202692985534668,
      -0.11907732486724854,
      0.11998206377029419,
      -0.12117373198270798
    ],
    [
      0.12029315531253815,
      -0.12016678601503372,
      0.12027698010206223,
      -0.12032931298017502,
      0.12085984647274017,
      -0.12020393460988998,
      -0.12072378396987915,
      0.1205282062292099,
      -0.12066227942705154,
      0.12051381170749664,
      -0.11989514529705048,
      0.12078019231557846,
      -0.12153570353984833
    ],
    [
      -0.11983153223991394,
      0.11982814222574234,
      -0.12002048641443253,
      0.11985193192958832,
      -0.1202244833111763,
      0.11966700851917267,
      0.12002159655094147,
      -0.12032458186149597,
      0.12002035975456238,
      -0.12021709233522415,
      0.11921994388103485,
      -0.12014035135507584,
      0.12142128497362137
    ],
    [
      0.12021491676568985,
      -0.11966442316770554,
      0.12012127786874771,
      -0.12000920623540878,
      0.11994995176792145,
      -0.12004208564758301,
      -0.12039991468191147,
      0.12016724050045013,
      -0.12014108896255493,
      0.12040150165557861,
      -0.11894147843122482,
      0.12036530673503876,
      -0.12137553095817566
    ],
    [
      0.11999516934156418,
      -0.11986497044563293,
      0.12007299065589905,
      -0.1195792704820633,
      0.12003247439861298,
      -0.1199633777141571,
      -0.12018023431301117,
      0.12026660889387131,
      -0.12014856934547424,
      0.11991067230701447,
      -0.11867155879735947,
      0.12026439607143402,
      -0.1213231310248375
    ],
    [
      -0.12044684588909149,
      0.12004690617322922,
      -0.12030966579914093,
      0.11993385851383209,
      -0.12012773752212524,
      0.11985408514738083,
      0.12061882019042969,
      -0.12041886895895004,
      0.12033391743898392,
      -0.12022589147090912,
      0.11896826326847076,
      -0.12014470249414444,
      0.12144890427589417
    ],
    [
      -0.120852030813694,
      0.12053781747817993,
      -0.12077438831329346,
      0.12043026834726334,
      -0.12057764828205109,
      0.12029331177473068,
      0.12115566432476044,
      -0.12104903161525726,
      0.12093864381313324,
      -0.1209501102566719,
      0.11965969949960709,
      -0.12064257264137268,
      0.12185774743556976
    ],
    [
      0.12046540528535843,
      -0.12040814757347107,
      0.12063285708427429,
      -0.12016124278306961,
      0.12045364081859589,
      -0.12047471106052399,
      -0.1205100491642952,
      0.1206606924533844,
      -0.12079134583473206,
      0.1204991489648819,
      -0.11990299075841904,
      0.12067027390003204,
      -0.12165676802396774
    ],
    [
      -0.11993228644132614,
      0.11981337517499924,
      -0.12024619430303574,
      0.11972939968109131,
      -0.12035051733255386,
      0.11979671567678452,
      0.1203300803899765,
      -0.12005960196256638,
      0.12042384594678879,
      -0.12005160748958588,
      0.11927268654108047,
      -0.12032895535230637,
      0.1211584284901619
    ],
    [
      0.12023049592971802,
      -0.11956880986690521,
      0.12025681138038635,
      -0.11977846920490265,
      0.12012847512960434,
      -0.11988543719053268,
      -0.12037187814712524,
      0.1200137585401535,
      -0.12038753181695938,
      0.12001276761293411,
      -0.1193135604262352,
      0.12000744789838791,
      -0.12154391407966614
    ],
    [
      0.12053053081035614,
      -0.12042664736509323,
      0.12038698047399521,
      -0.12013638764619827,
      0.12060929089784622,
      -0.12026768922805786,
      -0.12100684642791748,
      0.12061148881912231,
      -0.12046458572149277,
      0.12096589058637619,
      -0.11938625574111938,
      0.12031491845846176,
      -0.12192144989967346
    ],
    [
      0.12056365609169006,
      -0.12046796828508377,
      0.12089679390192032,
      -0.12068397551774979,
      0.12080114334821701,
      -0.12041965126991272,
      -0.12119115144014359,
      0.12110956013202667,
      -0.12089120596647263,
      0.12086371332406998,
      -0.11950242519378662,
      0.12062203884124756,
      -0.12210875004529953
    ],
    [
      -0.1208987608551979,
      0.12063915282487869,
      -0.12094447761774063,
      0.12068649381399155,
      -0.12088364362716675,
      0.12062740325927734,
      0.12094740569591522,
      -0.12090497463941574,
      0.12085019052028656,
      -0.12099430710077286,
      0.11978167295455933,
      -0.1209002435207367,
      0.1222563087940216
    ],
    [
      -0.12011611461639404,
      0.11958777904510498,
      -0.1199306920170784,
      0.11980663985013962,
      -0.12026336789131165,
      0.11996959149837494,
      0.11992738395929337,
      -0.1199544370174408,
      0.12028495967388153,
      -0.11968442052602768,
      0.11854687333106995,
      -0.12009095400571823,
      0.12114471197128296
    ],
    [
      -0.1199270561337471,
      0.11963754892349243,
      -0.1203034520149231,
      0.11969636380672455,
      -0.12005805969238281,
      0.11999200284481049,
      0.12038786709308624,
      -0.12010351568460464,
      0.12001881003379822,
      -0.1203179731965065,
      0.11909323185682297,
      -0.12000351399183273,
      0.12150104343891144
    ],
    [
      0.12029895186424255,
      -0.11959802359342575,
      0.12037896364927292,
      -0.11971061676740646,
      0.12035928666591644,
      -0.1197017952799797,
      -0.12013734877109528,
      0.12040499597787857,
      -0.12006988376379013,
      0.12044063955545425,
      -0.11900078505277634,
      0.12040913105010986,
      -0.12125343084335327
    ],
    [
      0.12011776864528656,
      -0.11983552575111389,
      0.11986753344535828,
      -0.11989343166351318,
      0.12008287012577057,
      -0.11960256844758987,
      -0.12021277099847794,
      0.12019805610179901,
      -0.12032381445169449,
      0.12013822048902512,
      -0.11894334107637405,
      0.12023332715034485,
      -0.12136434018611908
    ],
    [
      -0.11992047727108002,
      0.11940543353557587,
      -0.11972583085298538,
      0.11960145831108093,
      -0.12005075812339783,
      0.11979647725820541,
      0.12041223049163818,
      -0.12045852094888687,
      0.12012722343206406,
      -0.12027169018983841,
      0.11913321167230606,
      -0.11983317136764526,
      0.12153875082731247
    ],
    [
      -0.12021799385547638,
      0.11989174038171768,
      -0.12028509378433228,
      0.1199861466884613,
      -0.12024397403001785,
      0.11995181441307068,
      0.12012721598148346,
      -0.12003377079963684,
      0.12009446322917938,
      -0.12011049687862396,
      0.11907193809747696,
      -0.12011783570051193,
      0.1213887631893158
    ],
    [
      0.1198977679014206,
      -0.11973580718040466,
      0.12026903033256531,
      -0.11999848484992981,
      0.12014729529619217,
      -0.11970332264900208,
      -0.12042995542287827,
      0.1202690452337265,
      -0.12016955763101578,
      0.12000839412212372,
      -0.11892048269510269,
      0.12004458159208298,
      -0.12143240869045258
    ]
  ],
  "policy_type": "coord_scale_mlp_prior",
  "schema_version": 2
}