{
  "action_hidden_bias": [
    -0.04116496816277504,
    0.032512128353118896,
    0.06972099095582962,
    0.034322164952754974,
    -0.03253998979926109,
    -0.03594199940562248,
    -0.06787827610969543,
    -0.038383182138204575,
    0.07426844537258148,
    0.04017973318696022,
    -0.06571304798126221,
    -0.03582676872611046,
    -0.0394650436937809,
    -0.028033386915922165,
    0.07114936411380768,
    0.036565277725458145,
    0.059596557170152664,
    -0.027637207880616188,
    -0.04183998703956604,
    -0.04239176586270332,
    0.03272080048918724,
    0.03572801128029823,
    0.030951209366321564,
    -0.03128540888428688,
    -0.06665156781673431,
    -0.07686460018157959,
    0.03545815125107765,
    0.07116199284791946,
    0.0706411600112915,
    -0.07069195061922073,
    -0.03356216102838516,
    -0.07350058108568192,
    0.06971840560436249,
    0.02934393472969532,
    0.03032672218978405,
    0.03946541249752045,
    -0.07766274362802505,
    -0.07107533514499664,
    -0.03780887648463249,
    0.034455474466085434,
    0.028433961793780327,
    0.03642313554883003,
    -0.027040472254157066,
    -0.07758588343858719,
    -0.0395573154091835,
    0.03163646534085274,
    0.037490278482437134,
    0.03373432531952858
  ],
  "action_input_weights": [
    [
      -0.03306006267666817,
      0.04067948833107948,
      0.07105588912963867,
      0.026789488270878792,
      -0.04174209386110306,
      -0.03861230984330177,
      -0.06129402667284012,
      -0.029354413971304893,
      0.07833120226860046,
      0.03473866358399391,
      -0.07496850937604904,
      -0.041097287088632584,
      -0.035311732441186905,
      -0.01865956373512745,
      0.07738529145717621,
      0.0338808037340641,
      0.050332821905612946,
      -0.035128403455019,
      -0.040339525789022446,
      -0.03328495845198631,
      0.04099048301577568,
      0.03563748300075531,
      0.02293943427503109,
      -0.040136728435754776,
      -0.06794353574514389,
      -0.0692664384841919,
      0.04464095085859299,
      0.07380373775959015,
      0.06404976546764374,
      -0.0803222805261612,
      -0.03758750110864639,
      -0.06792522966861725,
      0.07894865423440933,
      0.03451358899474144,
      0.026058273389935493,
      0.029787655919790268,
      -0.08396079391241074,
      -0.06806086003780365,
      -0.02822134457528591,
      0.0418129600584507,
      0.02684328332543373,
      0.0273908618837595,
      -0.035302724689245224,
      -0.07732158154249191,
      -0.03132979944348335,
      0.03954903036355972,
      0.03874470666050911,
      0.026095831766724586
    ],
    [
      -0.06975791603326797,
      0.07203154265880585,
      -0.06324191391468048,
      0.08877450972795486,
      -0.08540494740009308,
      -0.07723686844110489,
      0.05237948149442673,
      0.03278038650751114,
      -0.047725703567266464,
      0.08343974500894547,
      0.0534786619246006,
      -0.09427481889724731,
      -0.07711014151573181,
      -0.059156566858291626,
      -0.052686240524053574,
      0.08530952036380768,
      -0.06055581569671631,
      -0.08953787386417389,
      -0.07791664451360703,
      -0.06909820437431335,
      0.06673622131347656,
      0.08346088975667953,
      0.0903736799955368,
      -0.07986071705818176,
      0.062007565051317215,
      0.06005460023880005,
      0.06524231284856796,
      -0.06608720868825912,
      -0.0525798499584198,
      0.04911040887236595,
      -0.07705464214086533,
      0.05753655359148979,
      -0.059255748987197876,
      0.07499495893716812,
      0.09110238403081894,
      0.09022600203752518,
      0.0674755647778511,
      0.044588495045900345,
      -0.07161039859056473,
      0.0728934109210968,
      0.0882878303527832,
      0.09017081558704376,
      -0.09842736274003983,
      0.06045132130384445,
      -0.06989017874002457,
      0.07163192331790924,
      0.08394833654165268,
      0.08485756814479828
    ],
    [
      -0.060139864683151245,
      0.06585101783275604,
      -0.07806909084320068,
      0.06014503166079521,
      -0.06107322871685028,
      -0.06863852590322495,
      0.07749424129724503,
      0.04723785072565079,
      -0.05876106396317482,
      0.062286294996738434,
      0.08844001591205597,
      -0.05878342315554619,
      -0.06710007786750793,
      -0.07128947973251343,
      -0.058257948607206345,
      0.06169482320547104,
      -0.07458605617284775,
      -0.0759953111410141,
      -0.07278799265623093,
      -0.07376407831907272,
      0.07236915081739426,
      0.07087526470422745,
      0.07118358463048935,
      -0.06773865967988968,
      0.091692715883255,
      0.09369730204343796,
      0.053459059447050095,
      -0.0804833471775055,
      -0.09450358897447586,
      0.07841584831476212,
      -0.07495733350515366,
      0.08118577301502228,
      -0.08862549811601639,
      0.08131039142608643,
      0.04810856282711029,
      0.07332435995340347,
      0.08839587867259979,
      0.07026872038841248,
      -0.07908462733030319,
      0.07891014218330383,
      0.05882953479886055,
      0.07443513721227646,
      -0.06907138973474503,
      0.08001115173101425,
      -0.060783594846725464,
      0.06558892875909805,
      0.07567867636680603,
      0.04497148096561432
    ],
    [
      -0.09518315643072128,
      0.08232651650905609,
      0.026521828025579453,
      0.07812105864286423,
      -0.06797312200069427,
      -0.08125675469636917,
      -0.017581867054104805,
      0.036317307502031326,
      -0.007008860353380442,
      0.07548845559358597,
      -0.025584742426872253,
      -0.07310660183429718,
      -0.0816483125090599,
      -0.08341285586357117,
      0.0005331046413630247,
      0.0761178731918335,
      0.017208971083164215,
      -0.06051255762577057,
      -0.07317128777503967,
      -0.08364471793174744,
      0.10013259202241898,
      0.07336629182100296,
      0.05694381892681122,
      -0.07149292528629303,
      -0.03790218010544777,
      -0.038849011063575745,
      0.09770272672176361,
      0.030388783663511276,
      0.028355155140161514,
      -0.013447042554616928,
      -0.07343533635139465,
      -0.024683229625225067,
      0.03267274051904678,
      0.0836656391620636,
      0.09422435611486435,
      0.06449408829212189,
      -0.03711165860295296,
      -0.0019732469227164984,
      -0.07378678768873215,
      0.07367005944252014,
      0.08689504116773605,
      0.06433183699846268,
      -0.05820803716778755,
      -0.023617643862962723,
      -0.09390002489089966,
      0.08068343251943588,
      0.06600241363048553,
      0.09770086407661438
    ],
    [
      0.11989693343639374,
      -0.12424548715353012,
      -0.023116206750273705,
      -0.12335257977247238,
      0.11688240617513657,
      0.11924932152032852,
      -0.010477231815457344,
      0.04339555650949478,
      0.011649968102574348,
      -0.11167030036449432,
      0.012686599045991898,
      0.12853622436523438,
      0.13720300793647766,
      0.10070617496967316,
      -7.019611075520515e-05,
      -0.1331157684326172,
      -0.02924082800745964,
      0.14785395562648773,
      0.1331784874200821,
      0.13491743803024292,
      -0.13887788355350494,
      -0.13157619535923004,
      -0.10987512767314911,
      0.1283423900604248,
      0.02707979455590248,
      0.018245279788970947,
      -0.1199631541967392,
      -0.004260513000190258,
      -0.05093676224350929,
      -0.01130362693220377,
      0.1313047558069229,
      -0.01058114506304264,
      0.0003487328067421913,
      -0.12159416824579239,
      -0.13706046342849731,
      -0.14297939836978912,
      0.0698762983083725,
      -0.005025925580412149,
      0.12908340990543365,
      -0.1275242567062378,
      -0.1332871913909912,
      -0.13196274638175964,
      0.14543674886226654,
      0.01227855496108532,
      0.11899114400148392,
      -0.12239385396242142,
      -0.12225820124149323,
      -0.12595553696155548
    ],
    [
      0.024055374786257744,
      -0.0139837097376585,
      0.11426795274019241,
      -0.015684019774198532,
      -0.012663627043366432,
      0.01602982170879841,
      -0.14373594522476196,
      -0.0965537503361702,
      0.13299298286437988,
      -0.05116274952888489,
      -0.1298123300075531,
      0.0459679514169693,
      0.03112836554646492,
      0.004178440198302269,
      0.13411249220371246,
      -0.027503080666065216,
      0.12311766296625137,
      0.0541740320622921,
      0.023248711600899696,
      0.02623577043414116,
      0.007016870658844709,
      -0.04381941631436348,
      -0.03270667791366577,
      0.023684609681367874,
      -0.13837279379367828,
      -0.1316738724708557,
      -0.017603997141122818,
      0.1268560141324997,
      0.12117543816566467,
      -0.1304195076227188,
      0.020940186455845833,
      -0.13869084417819977,
      0.12830230593681335,
      0.006326518952846527,
      -0.00557089364156127,
      -0.03575381636619568,
      -0.11982375383377075,
      -0.12412292510271072,
      0.057315632700920105,
      -0.039728108793497086,
      0.012541033327579498,
      -0.03156223148107529,
      0.03485153988003731,
      -0.1298667937517166,
      0.02363969385623932,
      -0.018991690129041672,
      -0.04861551523208618,
      -0.010095087811350822
    ],
    [
      0.07812339067459106,
      -0.062402158975601196,
      0.04339449480175972,
      -0.07209392637014389,
      0.07624585926532745,
      0.07061973959207535,
      -0.01386928278952837,
      -0.07421000301837921,
      0.013286050409078598,
      -0.051144637167453766,
      -0.027474267408251762,
      0.06718774139881134,
      0.0840018093585968,
      0.05116062983870506,
      0.025168579071760178,
      -0.07269253581762314,
      0.040714114904403687,
      0.04129411652684212,
      0.0618419386446476,
      0.06512352079153061,
      -0.07437506318092346,
      -0.0705256462097168,
      -0.06023663654923439,
      0.06604090332984924,
      -0.015194132924079895,
      -0.021476486697793007,
      -0.07954119145870209,
      0.027011007070541382,
      0.038301896303892136,
      -0.0066319918259978294,
      0.031141823157668114,
      0.00512324133887887,
      0.02399309352040291,
      -0.07028280198574066,
      -0.07095694541931152,
      -0.044561564922332764,
      -0.027924656867980957,
      -0.006847813259810209,
      0.05365004390478134,
      -0.0452905036509037,
      -0.07029597461223602,
      -0.0671411007642746,
      0.05092531815171242,
      -0.01880224049091339,
      0.07749911397695541,
      -0.060530755668878555,
      -0.05962098017334938,
      -0.08086398988962173
    ],
    [
      -0.031636789441108704,
      0.02963429130613804,
      0.060825739055871964,
      0.03980371356010437,
      -0.025166399776935577,
      -0.04339797794818878,
      -0.07299552857875824,
      -0.030004236847162247,
      0.07675342261791229,
      0.03026561066508293,
      -0.06532451510429382,
      -0.026083270087838173,
      -0.04263198375701904,
      -0.036618296056985855,
      0.07671132683753967,
      0.043276622891426086,
      0.05198490992188454,
      -0.03254514932632446,
      -0.032598305493593216,
      -0.040148138999938965,
      0.022879445925354958,
      0.0364101380109787,
      0.039902519434690475,
      -0.0347161702811718,
      -0.07532336562871933,
      -0.07078485190868378,
      0.0421769917011261,
      0.06304405629634857,
      0.06604115664958954,
      -0.06132381781935692,
      -0.03174843266606331,
      -0.08330942690372467,
      0.07061644643545151,
      0.03884464129805565,
      0.026459727436304092,
      0.031112177297472954,
      -0.07133042067289352,
      -0.06435112655162811,
      -0.04604148119688034,
      0.03043358214199543,
      0.03794807568192482,
      0.037882789969444275,
      -0.03696824982762337,
      -0.07609359920024872,
      -0.0302850604057312,
      0.02773997001349926,
      0.029535524547100067,
      0.04030964896082878
    ],
    [
      -0.037192750722169876,
      0.02535915933549404,
      0.07902579009532928,
      0.02445194125175476,
      -0.024137312546372414,
      -0.04134731739759445,
      -0.0661553144454956,
      -0.036260996013879776,
      0.06794506311416626,
      0.04903680086135864,
      -0.07496115565299988,
      -0.02664395608007908,
      -0.046264275908470154,
      -0.02495407685637474,
      0.07195672392845154,
      0.03197654336690903,
      0.0674256831407547,
      -0.037388697266578674,
      -0.032170750200748444,
      -0.0502471886575222,
      0.037499550729990005,
      0.03495101258158684,
      0.027686333283782005,
      -0.024369386956095695,
      -0.07588906586170197,
      -0.06692925095558167,
      0.027200261130928993,
      0.0773036852478981,
      0.0681377425789833,
      -0.07234835624694824,
      -0.02796683833003044,
      -0.0818837434053421,
      0.07888267934322357,
      0.019893867895007133,
      0.03772522136569023,
      0.03549954295158386,
      -0.07769925892353058,
      -0.06683265417814255,
      -0.04529706761240959,
      0.043887022882699966,
      0.018557429313659668,
      0.04473324492573738,
      -0.032527364790439606,
      -0.0759195014834404,
      -0.03702302277088165,
      0.02579859085381031,
      0.04617154970765114,
      0.023800194263458252
    ],
    [
      0.02941591665148735,
      0.0035246293991804123,
      0.12580178678035736,
      -0.016757866367697716,
      -0.043676044791936874,
      0.034331344068050385,
      -0.14443089067935944,
      -0.10132309049367905,
      0.15504521131515503,
      -0.09663152694702148,
      -0.14490041136741638,
      0.06644325703382492,
      0.026917792856693268,
      -0.02126530557870865,
      0.14445315301418304,
      -0.05860842391848564,
      0.13228295743465424,
      0.08426980674266815,
      0.03862012177705765,
      0.016190167516469955,
      -0.005322892218828201,
      -0.06080109626054764,
      -0.036163270473480225,
      0.05324182286858559,
      -0.1537139117717743,
      -0.13594967126846313,
      -0.027306854724884033,
      0.14397676289081573,
      0.1549805849790573,
      -0.1592933088541031,
      0.05132138729095459,
      -0.159521222114563,
      0.1456870287656784,
      0.010496562346816063,
      0.007281306199729443,
      -0.04911993816494942,
      -0.15506204962730408,
      -0.15315625071525574,
      0.12402252107858658,
      -0.07958236336708069,
      0.01365760900080204,
      -0.07107037305831909,
      0.07017409056425095,
      -0.14899012446403503,
      0.02774510532617569,
      -0.006522796582430601,
      -0.07142564654350281,
      -0.0073149423114955425
    ],
    [
      -0.03175850212574005,
      0.025906145572662354,
      0.11143068969249725,
      0.04633435979485512,
      -0.036375317722558975,
      -0.032297924160957336,
      -0.12858892977237701,
      -0.07551470398902893,
      0.1313706934452057,
      0.004579521715641022,
      -0.13175657391548157,
      -0.01731054112315178,
      -0.037489503622055054,
      -0.023284707218408585,
      0.1265903264284134,
      0.024642590433359146,
      0.11544421315193176,
      -0.0054664816707372665,
      -0.029184171929955482,
      -0.025374766439199448,
      0.06180089712142944,
      0.01744646020233631,
      0.013581724837422371,
      -0.029401779174804688,
      -0.13282983005046844,
      -0.12873704731464386,
      0.038826219737529755,
      0.13217918574810028,
      0.1263589709997177,
      -0.12777765095233917,
      -0.015327740460634232,
      -0.14162293076515198,
      0.13317632675170898,
      0.04321768507361412,
      0.03483319655060768,
      0.019986674189567566,
      -0.13532759249210358,
      -0.1348220705986023,
      -0.007076522335410118,
      0.0039793821051716805,
      0.05085007846355438,
      0.0214379969984293,
      -0.018092958256602287,
      -0.13255053758621216,
      -0.03351105377078056,
      0.019506560638546944,
      0.01536137331277132,
      0.05075810104608536
    ],
    [
      0.005920573137700558,
      -0.008141247555613518,
      0.12342128157615662,
      0.0038245690520852804,
      -0.005245525389909744,
      0.0068010385148227215,
      -0.13217225670814514,
      -0.07937336713075638,
      0.13568542897701263,
      -0.03151477500796318,
      -0.1357453167438507,
      0.02451876364648342,
      0.0027454537339508533,
      0.0034000128507614136,
      0.1250891536474228,
      -0.017301157116889954,
      0.11078518629074097,
      0.035489533096551895,
      0.0110222352668643,
      0.013119678944349289,
      0.024790028110146523,
      -0.022852862253785133,
      -0.021187767386436462,
      0.007080897223204374,
      -0.13550244271755219,
      -0.12849925458431244,
      0.0033028738107532263,
      0.13763928413391113,
      0.13286139070987701,
      -0.1317056268453598,
      0.027379769831895828,
      -0.1454487442970276,
      0.14015504717826843,
      0.007626729551702738,
      -0.004486482590436935,
      -0.02674384042620659,
      -0.13876202702522278,
      -0.13919784128665924,
      0.0400560162961483,
      -0.030103642493486404,
      0.01764550991356373,
      -0.017025822773575783,
      0.027544762939214706,
      -0.1364142894744873,
      0.0060640498995780945,
      -0.015511955134570599,
      -0.02538825385272503,
      0.012281421571969986
    ],
    [
      0.050831906497478485,
      -0.03181236982345581,
      -0.004736659582704306,
      -0.04865012317895889,
      0.05783838406205177,
      0.04674624279141426,
      0.040195588022470474,
      -0.08546243607997894,
      -0.050901833921670914,
      -0.05598078668117523,
      0.04903319850564003,
      0.04696757718920708,
      0.04864935949444771,
      0.03537743538618088,
      -0.04399219900369644,
      -0.045800112187862396,
      0.02072049304842949,
      0.049651116132736206,
      0.05816439166665077,
      0.0564141683280468,
      -0.05392212048172951,
      -0.04833029583096504,
      -0.05135370418429375,
      0.05636771395802498,
      0.03442775458097458,
      0.020402729511260986,
      -0.05858428031206131,
      -0.03977777436375618,
      -0.02159155160188675,
      0.04138229414820671,
      0.04991648346185684,
      0.06846722960472107,
      -0.06372398883104324,
      -0.04501860961318016,
      -0.044252555817365646,
      -0.051917146891355515,
      0.036359257996082306,
      0.057441674172878265,
      0.045212071388959885,
      -0.054890334606170654,
      -0.06056588888168335,
      -0.057149238884449005,
      0.050110649317502975,
      0.03581211715936661,
      0.0517120361328125,
      -0.026549115777015686,
      -0.04168472811579704,
      -0.04999138414859772
    ],
    [
      0.056582603603601456,
      -0.05119263380765915,
      0.15083864331245422,
      -0.059150777757167816,
      0.05058848485350609,
      0.05384933203458786,
      -0.1597449779510498,
      -0.11846281588077545,
      0.12858256697654724,
      -0.032054219394922256,
      -0.14922496676445007,
      0.046982549130916595,
      0.04910968244075775,
      0.03821785748004913,
      0.14458231627941132,
      -0.06288915872573853,
      0.1398354023694992,
      0.056206490844488144,
      0.06105706840753555,
      0.04916095361113548,
      -0.057206474244594574,
      -0.0498095378279686,
      -0.037149857729673386,
      0.04836799576878548,
      -0.15108966827392578,
      -0.15071915090084076,
      -0.03615018352866173,
      0.15821024775505066,
      0.14623814821243286,
      -0.1631702482700348,
      0.05895509198307991,
      -0.14842349290847778,
      0.14821062982082367,
      -0.05786300450563431,
      -0.04539620131254196,
      -0.05258464440703392,
      -0.1404658406972885,
      -0.15829281508922577,
      0.04499663785099983,
      -0.04317162185907364,
      -0.03788285329937935,
      -0.05829385295510292,
      0.05097310617566109,
      -0.15567612648010254,
      0.05581028386950493,
      -0.0471915565431118,
      -0.0644460916519165,
      -0.056405216455459595
    ],
    [
      -0.041757289320230484,
      0.049574114382267,
      -0.15321707725524902,
      0.06082691252231598,
      -0.04540533572435379,
      -0.04566879943013191,
      0.15606199204921722,
      0.11578670889139175,
      -0.1649228036403656,
      0.05726538598537445,
      0.167463481426239,
      -0.07498027384281158,
      -0.054848894476890564,
      -0.02433086559176445,
      -0.17498323321342468,
      0.06958617269992828,
      -0.15396730601787567,
      -0.06639709323644638,
      -0.05073878914117813,
      -0.06919170916080475,
      0.052598487585783005,
      0.06516900658607483,
      0.05891375243663788,
      -0.04119030013680458,
      0.15697185695171356,
      0.16573888063430786,
      0.04191729798913002,
      -0.17436185479164124,
      -0.15566740930080414,
      0.15562832355499268,
      -0.0625210627913475,
      0.17201842367649078,
      -0.168913334608078,
      0.04987157881259918,
      0.048862602561712265,
      0.06844843178987503,
      0.17076022922992706,
      0.15638384222984314,
      -0.06668432056903839,
      0.055036772042512894,
      0.05017741397023201,
      0.06399764865636826,
      -0.08582597225904465,
      0.168837770819664,
      -0.04370307922363281,
      0.05112212896347046,
      0.06923972815275192,
      0.05179939791560173
    ],
    [
      -0.16126884520053864,
      0.16002805531024933,
      0.15283513069152832,
      0.17201074957847595,
      -0.15767055749893188,
      -0.15293172001838684,
      -0.17069827020168304,
      -0.10509782284498215,
      0.15655332803726196,
      0.16429230570793152,
      -0.15717081725597382,
      -0.16571827232837677,
      -0.1564245969057083,
      -0.14490218460559845,
      0.1711764931678772,
      0.15261323750019073,
      0.15733341872692108,
      -0.17165735363960266,
      -0.15617653727531433,
      -0.1666972041130066,
      0.163969025015831,
      0.16431647539138794,
      0.146819069981575,
      -0.14746861159801483,
      -0.16997350752353668,
      -0.14972718060016632,
      0.13914257287979126,
      0.1709190011024475,
      0.15322354435920715,
      -0.15364977717399597,
      -0.16689039766788483,
      -0.1607997715473175,
      0.1600797027349472,
      0.15737131237983704,
      0.17047102749347687,
      0.15181002020835876,
      -0.15037080645561218,
      -0.17145515978336334,
      -0.15252095460891724,
      0.1504623144865036,
      0.16859808564186096,
      0.15956419706344604,
      -0.16273872554302216,
      -0.15884770452976227,
      -0.16325442492961884,
      0.16064846515655518,
      0.15271812677383423,
      0.17278064787387848
    ],
    [
      0.14912155270576477,
      -0.14963865280151367,
      -0.15478752553462982,
      -0.17250956594944,
      0.14628344774246216,
      0.17321404814720154,
      0.1601361632347107,
      0.10473895817995071,
      -0.1559496521949768,
      -0.15920870006084442,
      0.14978882670402527,
      0.1647283285856247,
      0.1718336045742035,
      0.13005736470222473,
      -0.16891473531723022,
      -0.15336275100708008,
      -0.1489938199520111,
      0.15428458154201508,
      0.16883407533168793,
      0.16963954269886017,
      -0.17226511240005493,
      -0.1649641990661621,
      -0.14145877957344055,
      0.15054671466350555,
      0.15622302889823914,
      0.16907411813735962,
      -0.14624102413654327,
      -0.17371371388435364,
      -0.1614680141210556,
      0.1702325940132141,
      0.15698480606079102,
      0.15900836884975433,
      -0.1501617133617401,
      -0.1631280928850174,
      -0.17339494824409485,
      -0.15561088919639587,
      0.16835373640060425,
      0.15461349487304688,
      0.1611960530281067,
      -0.14858019351959229,
      -0.16801396012306213,
      -0.17069688439369202,
      0.17195084691047668,
      0.16682332754135132,
      0.14815540611743927,
      -0.150867760181427,
      -0.15363329648971558,
      -0.170803040266037
    ],
    [
      -0.16626191139221191,
      0.1450243443250656,
      0.15596038103103638,
      0.16607213020324707,
      -0.13910889625549316,
      -0.1539856195449829,
      -0.16056157648563385,
      -0.11744216084480286,
      0.1542385220527649,
      0.15460087358951569,
      -0.16056035459041595,
      -0.15572009980678558,
      -0.15299811959266663,
      -0.13070866465568542,
      0.16209103167057037,
      0.15448817610740662,
      0.1392129808664322,
      -0.1678590178489685,
      -0.1591520458459854,
      -0.1535574048757553,
      0.171621635556221,
      0.16504430770874023,
      0.144975945353508,
      -0.164451465010643,
      -0.17079156637191772,
      -0.15992410480976105,
      0.1575721800327301,
      0.17348366975784302,
      0.16850528120994568,
      -0.16498085856437683,
      -0.17341837286949158,
      -0.17270556092262268,
      0.15754005312919617,
      0.16830246150493622,
      0.17388856410980225,
      0.16874779760837555,
      -0.16224001348018646,
      -0.1714528650045395,
      -0.17230837047100067,
      0.15302735567092896,
      0.16652631759643555,
      0.17214679718017578,
      -0.15438729524612427,
      -0.16073940694332123,
      -0.16323159635066986,
      0.14359503984451294,
      0.15433016419410706,
      0.16291117668151855
    ],
    [
      0.15888625383377075,
      -0.1507532000541687,
      -0.1549685299396515,
      -0.155317023396492,
      0.15364404022693634,
      0.16957072913646698,
      0.1689266413450241,
      0.12164045125246048,
      -0.14951501786708832,
      -0.15123870968818665,
      0.166230708360672,
      0.17086248099803925,
      0.17067477107048035,
      0.14466702938079834,
      -0.15246634185314178,
      -0.1547403633594513,
      -0.14135593175888062,
      0.16602857410907745,
      0.1645495742559433,
      0.1623057872056961,
      -0.16055132448673248,
      -0.16348330676555634,
      -0.1535600870847702,
      0.14880315959453583,
      0.153689906001091,
      0.15091687440872192,
      -0.15614208579063416,
      -0.1685265749692917,
      -0.16896900534629822,
      0.14863558113574982,
      0.15163008868694305,
      0.14987267553806305,
      -0.16588671505451202,
      -0.17012010514736176,
      -0.16997091472148895,
      -0.16691377758979797,
      0.15190351009368896,
      0.15432675182819366,
      0.15661925077438354,
      -0.1600123643875122,
      -0.16212669014930725,
      -0.16089105606079102,
      0.163270965218544,
      0.16336829960346222,
      0.16148822009563446,
      -0.1464240700006485,
      -0.15382617712020874,
      -0.1529289036989212
    ],
    [
      0.16832628846168518,
      -0.14782173931598663,
      -0.16520005464553833,
      -0.174429789185524,
      0.1434110552072525,
      0.16958263516426086,
      0.1749790757894516,
      0.11477749049663544,
      -0.1734490692615509,
      -0.17202498018741608,
      0.1615847647190094,
      0.17273515462875366,
      0.17030608654022217,
      0.1334673911333084,
      -0.17514322698116302,
      -0.167876735329628,
      -0.14289623498916626,
      0.17430828511714935,
      0.1651604026556015,
      0.15542902052402496,
      -0.17248019576072693,
      -0.16231997311115265,
      -0.14196084439754486,
      0.16111165285110474,
      0.1607460230588913,
      0.1517457813024521,
      -0.1533987820148468,
      -0.1580415815114975,
      -0.15576934814453125,
      0.16303610801696777,
      0.1561601608991623,
      0.15751752257347107,
      -0.1583203673362732,
      -0.15325622260570526,
      -0.1595558524131775,
      -0.16754093766212463,
      0.1529705971479416,
      0.1626819670200348,
      0.17096418142318726,
      -0.14992204308509827,
      -0.16536685824394226,
      -0.17322373390197754,
      0.15727700293064117,
      0.16875801980495453,
      0.16857483983039856,
      -0.1490158885717392,
      -0.16885718703269958,
      -0.1742221713066101
    ],
    [
      -0.1499451994895935,
      0.14569313824176788,
      0.16310521960258484,
      0.17039412260055542,
      -0.1572224348783493,
      -0.15955643355846405,
      -0.15734118223190308,
      -0.12281859666109085,
      0.1696416139602661,
      0.16705656051635742,
      -0.16918805241584778,
      -0.15615318715572357,
      -0.159596249461174,
      -0.14587295055389404,
      0.1720438003540039,
      0.1643955111503601,
      0.1391727328300476,
      -0.15375550091266632,
      -0.16316567361354828,
      -0.17020530998706818,
      0.17142926156520844,
      0.161007821559906,
      0.14419065415859222,
      -0.1444067507982254,
      -0.16717591881752014,
      -0.16731709241867065,
      0.1592559516429901,
      0.15805046260356903,
      0.15680715441703796,
      -0.15243275463581085,
      -0.168997660279274,
      -0.1666819304227829,
      0.16952435672283173,
      0.15375085175037384,
      0.15993766486644745,
      0.1695154309272766,
      -0.17105187475681305,
      -0.16301150619983673,
      -0.1538911908864975,
      0.14855103194713593,
      0.16423702239990234,
      0.16937090456485748,
      -0.17270077764987946,
      -0.15993089973926544,
      -0.15205052495002747,
      0.14341330528259277,
      0.16715840995311737,
      0.16709396243095398
    ],
    [
      0.15864680707454681,
      -0.15475226938724518,
      -0.1617552638053894,
      -0.16317631304264069,
      0.14760169386863708,
      0.16379664838314056,
      0.16323097050189972,
      0.11334917694330215,
      -0.1648094356060028,
      -0.16179120540618896,
      0.15878814458847046,
      0.16376730799674988,
      0.16182611882686615,
      0.13818953931331635,
      -0.16517461836338043,
      -0.16163478791713715,
      -0.1502275913953781,
      0.16540870070457458,
      0.16164623200893402,
      0.16489751636981964,
      -0.1650203913450241,
      -0.16153013706207275,
      -0.1533978134393692,
      0.15661384165287018,
      0.16176727414131165,
      0.163137286901474,
      -0.15182439982891083,
      -0.16127249598503113,
      -0.16628703474998474,
      0.16412371397018433,
      0.16136151552200317,
      0.16663654148578644,
      -0.16278746724128723,
      -0.159633606672287,
      -0.16698907315731049,
      -0.15821132063865662,
      0.15883764624595642,
      0.1671139895915985,
      0.15904851257801056,
      -0.15499341487884521,
      -0.1673627644777298,
      -0.15949596464633942,
      0.15986976027488708,
      0.16765600442886353,
      0.15427415072917938,
      -0.14944539964199066,
      -0.16627541184425354,
      -0.1594100296497345
    ],
    [
      0.14977334439754486,
      -0.14508716762065887,
      -0.1619599312543869,
      -0.17096051573753357,
      0.15701545774936676,
      0.16026130318641663,
      0.1561124324798584,
      0.12192363291978836,
      -0.16511163115501404,
      -0.16859948635101318,
      0.16847985982894897,
      0.15783917903900146,
      0.15705934166908264,
      0.1468111276626587,
      -0.16737478971481323,
      -0.1668277382850647,
      -0.13829229772090912,
      0.15749049186706543,
      0.15957440435886383,
      0.1726028323173523,
      -0.17022591829299927,
      -0.16500908136367798,
      -0.1414211392402649,
      0.14621107280254364,
      0.16192053258419037,
      0.1684124767780304,
      -0.15765108168125153,
      -0.16272398829460144,
      -0.15494193136692047,
      0.1502697914838791,
      0.16565661132335663,
      0.17051750421524048,
      -0.16821494698524475,
      -0.15938380360603333,
      -0.1572229564189911,
      -0.1709570288658142,
      0.16396178305149078,
      0.16900420188903809,
      0.15230312943458557,
      -0.15334837138652802,
      -0.15887416899204254,
      -0.17296704649925232,
      0.1690186858177185,
      0.16695348918437958,
      0.1477547287940979,
      -0.14600025117397308,
      -0.1588878333568573,
      -0.17295731604099274
    ],
    [
      0.14700448513031006,
      -0.16000710427761078,
      -0.15344664454460144,
      -0.1485152393579483,
      0.15157060325145721,
      0.1553914099931717,
      0.14435282349586487,
      0.10823900252580643,
      -0.14200499653816223,
      -0.15035392343997955,
      0.151328444480896,
      0.15097661316394806,
      0.15146589279174805,
      0.13731801509857178,
      -0.14385882019996643,
      -0.1530693620443344,
      -0.14808353781700134,
      0.15003328025341034,
      0.15550386905670166,
      0.16480451822280884,
      -0.14840057492256165,
      -0.15818777680397034,
      -0.15743134915828705,
      0.14355510473251343,
      0.15150222182273865,
      0.16154985129833221,
      -0.13977272808551788,
      -0.15621711313724518,
      -0.16198763251304626,
      0.14783726632595062,
      0.16432158648967743,
      0.16286486387252808,
      -0.14642071723937988,
      -0.1672331541776657,
      -0.169375941157341,
      -0.15749742090702057,
      0.15897111594676971,
      0.16077962517738342,
      0.15703247487545013,
      -0.16637352108955383,
      -0.1645408421754837,
      -0.15521478652954102,
      0.16908422112464905,
      0.15802444517612457,
      0.14892390370368958,
      -0.16079387068748474,
      -0.1613667905330658,
      -0.1505032181739807
    ],
    [
      0.15805096924304962,
      -0.15790815651416779,
      -0.16587401926517487,
      -0.1700046807527542,
      0.14248719811439514,
      0.1567666381597519,
      0.15679261088371277,
      0.10384704172611237,
      -0.1743660420179367,
      -0.17325276136398315,
      0.15036237239837646,
      0.15350212156772614,
      0.1537383496761322,
      0.12796325981616974,
      -0.17384842038154602,
      -0.17235776782035828,
      -0.15684588253498077,
      0.15828365087509155,
      0.15818344056606293,
      0.15957403182983398,
      -0.1681852787733078,
      -0.16649536788463593,
      -0.15258599817752838,
      0.15555579960346222,
      0.16678659617900848,
      0.16450773179531097,
      -0.14585354924201965,
      -0.15931572020053864,
      -0.15817666053771973,
      0.16967914998531342,
      0.17385390400886536,
      0.17384037375450134,
      -0.15113197267055511,
      -0.1535492241382599,
      -0.1555367261171341,
      -0.15242069959640503,
      0.17224502563476562,
      0.17438548803329468,
      0.17248837649822235,
      -0.15075388550758362,
      -0.15804672241210938,
      -0.1577918529510498,
      0.1702013611793518,
      0.16913150250911713,
      0.16181685030460358,
      -0.15191102027893066,
      -0.16243354976177216,
      -0.16589055955410004
    ],
    [
      0.1639537513256073,
      -0.1444801688194275,
      -0.15594719350337982,
      -0.16294872760772705,
      0.13676266372203827,
      0.15199518203735352,
      0.16391386091709137,
      0.11807307600975037,
      -0.1564297378063202,
      -0.1541001796722412,
      0.1599886119365692,
      0.15283972024917603,
      0.1510135382413864,
      0.13008368015289307,
      -0.16200394928455353,
      -0.15132686495780945,
      -0.1415904015302658,
      0.16300494968891144,
      0.1546611338853836,
      0.15179646015167236,
      -0.16431359946727753,
      -0.15941986441612244,
      -0.14193032681941986,
      0.16147825121879578,
      0.16958244144916534,
      0.15629415214061737,
      -0.15697425603866577,
      -0.17401304841041565,
      -0.16604644060134888,
      0.17105098068714142,
      0.1720099151134491,
      0.1710454821586609,
      -0.16481119394302368,
      -0.16768048703670502,
      -0.16717299818992615,
      -0.16175483167171478,
      0.16993297636508942,
      0.17624492943286896,
      0.16797272861003876,
      -0.15768569707870483,
      -0.16748526692390442,
      -0.169650599360466,
      0.15847428143024445,
      0.17110028862953186,
      0.1654903143644333,
      -0.14500409364700317,
      -0.1592974215745926,
      -0.16628210246562958
    ],
    [
      0.16642437875270844,
      -0.15851567685604095,
      -0.1643095463514328,
      -0.15074066817760468,
      0.1473741978406906,
      0.15127745270729065,
      0.16232314705848694,
      0.11919433623552322,
      -0.16355779767036438,
      -0.16245970129966736,
      0.1633489578962326,
      0.1564309448003769,
      0.15307532250881195,
      0.14476695656776428,
      -0.154427632689476,
      -0.1708492636680603,
      -0.14229804277420044,
      0.16919416189193726,
      0.15300887823104858,
      0.15645882487297058,
      -0.1498563587665558,
      -0.16351991891860962,
      -0.15857352316379547,
      0.16039890050888062,
      0.15992212295532227,
      0.14557160437107086,
      -0.14634887874126434,
      -0.14766059815883636,
      -0.16280978918075562,
      0.15094943344593048,
      0.17026253044605255,
      0.15601344406604767,
      -0.16251851618289948,
      -0.15469534695148468,
      -0.15548573434352875,
      -0.16765549778938293,
      0.15442730486392975,
      0.1661118119955063,
      0.15454894304275513,
      -0.16374307870864868,
      -0.1509028524160385,
      -0.15942658483982086,
      0.1505141705274582,
      0.16170728206634521,
      0.16340182721614838,
      -0.1604144126176834,
      -0.16255588829517365,
      -0.15033668279647827
    ],
    [
      0.1372181475162506,
      -0.14000023901462555,
      -0.08503054082393646,
      -0.12084491550922394,
      0.1388087421655655,
      0.12885889410972595,
      0.09040530771017075,
      0.08119089156389236,
      -0.04092450067400932,
      -0.14253370463848114,
      0.07478497922420502,
      0.1381000578403473,
      0.13015519082546234,
      0.13465997576713562,
      -0.07712368667125702,
      -0.12162892520427704,
      -0.11015374958515167,
      0.14933781325817108,
      0.12531660497188568,
      0.13623152673244476,
      -0.11689335852861404,
      -0.13817952573299408,
      -0.13744011521339417,
      0.13527370989322662,
      0.06542862206697464,
      0.06021854653954506,
      -0.12179941684007645,
      -0.0873795747756958,
      -0.06339548528194427,
      0.0735306367278099,
      0.13579420745372772,
      0.0690360963344574,
      -0.06522629410028458,
      -0.13891391456127167,
      -0.13760200142860413,
      -0.12258916348218918,
      0.04622027277946472,
      0.08197332918643951,
      0.12944699823856354,
      -0.13580122590065002,
      -0.12202335894107819,
      -0.12851764261722565,
      0.12419598549604416,
      0.08698846399784088,
      0.13049018383026123,
      -0.13775357604026794,
      -0.1353868991136551,
      -0.12139109522104263
    ],
    [
      -0.11141200363636017,
      0.0960063487291336,
      0.0774756520986557,
      0.09472337365150452,
      -0.07443853467702866,
      -0.0893092229962349,
      -0.11867939680814743,
      -0.021290887147188187,
      0.12628325819969177,
      0.1320430189371109,
      -0.11696062237024307,
      -0.11442729830741882,
      -0.09442909061908722,
      -0.074784055352211,
      0.12924374639987946,
      0.11236988753080368,
      0.09262128919363022,
      -0.1291123926639557,
      -0.11495707184076309,
      -0.11195756494998932,
      0.0680273026227951,
      0.10243045538663864,
      0.11690961569547653,
      -0.09491503983736038,
      -0.09035228192806244,
      -0.11204226315021515,
      0.08626645058393478,
      0.11776534467935562,
      0.06765729188919067,
      -0.12867070734500885,
      -0.13690297305583954,
      -0.1549103707075119,
      0.13154387474060059,
      0.04974355921149254,
      0.07065526396036148,
      0.13678865134716034,
      -0.08911631256341934,
      -0.13445934653282166,
      -0.13426005840301514,
      0.10619543492794037,
      0.08993935585021973,
      0.09658554196357727,
      -0.12240853905677795,
      -0.10129784047603607,
      -0.11466073244810104,
      0.09810345619916916,
      0.10560239851474762,
      0.0812382698059082
    ],
    [
      0.14943827688694,
      -0.1581205576658249,
      -0.15339553356170654,
      -0.15902630984783173,
      0.14151574671268463,
      0.15566736459732056,
      0.16989384591579437,
      0.12201669067144394,
      -0.16717226803302765,
      -0.17353998124599457,
      0.15923799574375153,
      0.17301693558692932,
      0.16769295930862427,
      0.12943769991397858,
      -0.17189832031726837,
      -0.15770770609378815,
      -0.14060699939727783,
      0.16161464154720306,
      0.1540471315383911,
      0.16459257900714874,
      -0.15475763380527496,
      -0.1615341156721115,
      -0.16078436374664307,
      0.14963194727897644,
      0.17282967269420624,
      0.16951613128185272,
      -0.15518802404403687,
      -0.1744544953107834,
      -0.16277644038200378,
      0.17255567014217377,
      0.16648000478744507,
      0.15563246607780457,
      -0.16476193070411682,
      -0.15474459528923035,
      -0.15901857614517212,
      -0.16882231831550598,
      0.15402358770370483,
      0.16926412284374237,
      0.17319239675998688,
      -0.1599489003419876,
      -0.17542700469493866,
      -0.16639475524425507,
      0.17394427955150604,
      0.17029456794261932,
      0.15097956359386444,
      -0.16092318296432495,
      -0.15744733810424805,
      -0.15581881999969482
    ],
    [
      0.15532821416854858,
      -0.1632881760597229,
      -0.17143411934375763,
      -0.1746634542942047,
      0.13973619043827057,
      0.1583370864391327,
      0.1637497991323471,
      0.11418983340263367,
      -0.1607765555381775,
      -0.1547657698392868,
      0.17093606293201447,
      0.17306384444236755,
      0.17168809473514557,
      0.1412658542394638,
      -0.16579309105873108,
      -0.16699406504631042,
      -0.15705247223377228,
      0.15567883849143982,
      0.15421809256076813,
      0.1553604006767273,
      -0.17062509059906006,
      -0.16715633869171143,
      -0.1504334807395935,
      0.160384401679039,
      0.1746867299079895,
      0.17187179625034332,
      -0.14031222462654114,
      -0.15833187103271484,
      -0.1612195521593094,
      0.1643088459968567,
      0.16198432445526123,
      0.15934047102928162,
      -0.17063751816749573,
      -0.17321191728115082,
      -0.1740380972623825,
      -0.16903051733970642,
      0.16062745451927185,
      0.16719436645507812,
      0.16851906478405,
      -0.1506912261247635,
      -0.15532556176185608,
      -0.1544940024614334,
      0.17300452291965485,
      0.17166326940059662,
      0.16006821393966675,
      -0.15713177621364594,
      -0.1689915806055069,
      -0.17364798486232758
    ],
    [
      -0.03458302468061447,
      0.06763117015361786,
      -0.14437898993492126,
      0.03930521756410599,
      -0.03364701196551323,
      -0.038325756788253784,
      0.1542077660560608,
      0.1004246398806572,
      -0.1728026419878006,
      0.09043093770742416,
      0.1588323414325714,
      -0.07404160499572754,
      -0.020344167947769165,
      -0.015020382590591908,
      -0.15690471231937408,
      0.08910849690437317,
      -0.15103814005851746,
      -0.09986341744661331,
      -0.06904508173465729,
      -0.08077646791934967,
      -0.03211899846792221,
      0.0733124166727066,
      0.0926593616604805,
      -0.02684755064547062,
      0.17349503934383392,
      0.16250993311405182,
      0.0189681239426136,
      -0.16986022889614105,
      -0.1739586889743805,
      0.15026669204235077,
      -0.10256379097700119,
      0.1604497730731964,
      -0.1538625806570053,
      -0.007369572296738625,
      0.022125188261270523,
      0.10217344760894775,
      0.16568268835544586,
      0.16012705862522125,
      -0.10976514220237732,
      0.06976179778575897,
      0.008718876168131828,
      0.04583257436752319,
      -0.09408663213253021,
      0.16875235736370087,
      -0.030408421531319618,
      0.07434527575969696,
      0.08640172332525253,
      0.0019930764101445675
    ],
    [
      -0.1487533003091812,
      0.15467622876167297,
      0.15155623853206635,
      0.16406473517417908,
      -0.1380709409713745,
      -0.16404953598976135,
      -0.17381832003593445,
      -0.11147288978099823,
      0.17395171523094177,
      0.1612885445356369,
      -0.1696578413248062,
      -0.16109412908554077,
      -0.15313488245010376,
      -0.13878625631332397,
      0.15404915809631348,
      0.16515155136585236,
      0.15849578380584717,
      -0.16618557274341583,
      -0.1730368733406067,
      -0.1605222076177597,
      0.1727730929851532,
      0.1605781614780426,
      0.14180591702461243,
      -0.15132395923137665,
      -0.15450461208820343,
      -0.16427946090698242,
      0.14009305834770203,
      0.16736966371536255,
      0.17301736772060394,
      -0.16539356112480164,
      -0.1732502281665802,
      -0.15972404181957245,
      0.1689624786376953,
      0.1582067310810089,
      0.1550101935863495,
      0.16595546901226044,
      -0.15324625372886658,
      -0.16866163909435272,
      -0.17110376060009003,
      0.1635325402021408,
      0.17237241566181183,
      0.15783736109733582,
      -0.17200185358524323,
      -0.15835699439048767,
      -0.14990118145942688,
      0.14767947793006897,
      0.15411953628063202,
      0.16948124766349792
    ],
    [
      0.16399596631526947,
      -0.1639907956123352,
      -0.15162357687950134,
      -0.17135724425315857,
      0.15146590769290924,
      0.16528038680553436,
      0.15695913136005402,
      0.12242065370082855,
      -0.17394433915615082,
      -0.15612152218818665,
      0.15827469527721405,
      0.15872326493263245,
      0.17120899260044098,
      0.12683846056461334,
      -0.15546788275241852,
      -0.16788944602012634,
      -0.14923854172229767,
      0.16923323273658752,
      0.15412099659442902,
      0.17281204462051392,
      -0.1705290973186493,
      -0.16043077409267426,
      -0.148910790681839,
      0.14718645811080933,
      0.17384982109069824,
      0.15174874663352966,
      -0.14335931837558746,
      -0.16465774178504944,
      -0.16785235702991486,
      0.17038622498512268,
      0.15375328063964844,
      0.17238791286945343,
      -0.1644059270620346,
      -0.16352495551109314,
      -0.15726441144943237,
      -0.17058400809764862,
      0.17214477062225342,
      0.15660616755485535,
      0.16480372846126556,
      -0.15536832809448242,
      -0.17109163105487823,
      -0.15306060016155243,
      0.15429450571537018,
      0.16955946385860443,
      0.15770269930362701,
      -0.15841637551784515,
      -0.1534651815891266,
      -0.17335191369056702
    ],
    [
      0.15395326912403107,
      -0.14636588096618652,
      -0.17051701247692108,
      -0.1533636599779129,
      0.13955584168434143,
      0.16721880435943604,
      0.16269433498382568,
      0.10829325765371323,
      -0.15427732467651367,
      -0.172028049826622,
      0.16841192543506622,
      0.1540120393037796,
      0.16733816266059875,
      0.13593287765979767,
      -0.1654016226530075,
      -0.15547695755958557,
      -0.15765860676765442,
      0.17379629611968994,
      0.15419842302799225,
      0.16833719611167908,
      -0.16433878242969513,
      -0.16603593528270721,
      -0.1439521461725235,
      0.14486795663833618,
      0.17278268933296204,
      0.1507806032896042,
      -0.14324983954429626,
      -0.16474877297878265,
      -0.16588449478149414,
      0.16590192914009094,
      0.1551162600517273,
      0.17288903892040253,
      -0.16761724650859833,
      -0.15576189756393433,
      -0.16624930500984192,
      -0.16333338618278503,
      0.16649189591407776,
      0.1541139781475067,
      0.17227177321910858,
      -0.1671525090932846,
      -0.15736012160778046,
      -0.16559769213199615,
      0.16159652173519135,
      0.168800488114357,
      0.1489013135433197,
      -0.14259223639965057,
      -0.1710677295923233,
      -0.15648779273033142
    ]
  ],
  "action_output_bias": -0.005639112088829279,
  "action_output_weights": [
    0.15346010029315948,
    -0.15248717367649078,
    -0.1495947390794754,
    -0.16964571177959442,
    0.15156638622283936,
    0.15742559731006622,
    0.16847528517246246,
    0.11785224080085754,
    -0.16980911791324615,
    -0.15714822709560394,
    0.1626497209072113,
    0.15746136009693146,
    0.1568354368209839,
    0.14129121601581573,
    -0.16850736737251282,
    -0.1546531319618225,
    -0.1532999873161316,
    0.16787147521972656,
    0.15626651048660278,
    0.16589918732643127,
    -0.1693342924118042,
    -0.15990281105041504,
    -0.14610713720321655,
    0.15145234763622284,
    0.17143648862838745,
    0.1570795327425003,
    -0.15287217497825623,
    -0.17275375127792358,
    -0.16940838098526,
    0.16394490003585815,
    0.17067956924438477,
    0.17003075778484344,
    -0.16314657032489777,
    -0.1558624505996704,
    -0.17094175517559052,
    -0.16443085670471191,
    0.15820525586605072,
    0.1720704734325409,
    0.16490091383457184,
    -0.14925993978977203,
    -0.1732245832681656,
    -0.1652815192937851,
    0.16714291274547577,
    0.17209535837173462,
    0.1527608036994934,
    -0.14993149042129517,
    -0.15106692910194397,
    -0.1691344976425171
  ],
  "activation": "tanh",
  "categories": [
    "airplane",
    "chair",
    "table"
  ],
  "default_logit": -8.952217101765946,
  "fallback_coord_scale_logits": {
    "0:0": -2.8954330885373216,
    "0:1": -3.063339143433065,
    "1:0": -3.3067702041227083,
    "1:1": -2.6368591002436115,
    "2:0": -3.117406364703341,
    "2:1": -1.8133501018204226,
    "3:0": -3.0523197481834545,
    "3:1": -2.9860703626422542,
    "4:0": -2.70805020110221,
    "4:1": -3.261857647441886,
    "5:0": -1.619194087379465,
    "5:1": -3.102892321819087,
    "6:0": -1.9899736374997394
  },
  "feature_names": [
    "bias_context",
    "bvs",
    "bvs_minus_one",
    "abs_bvs_minus_one",
    "step_fraction",
    "action_unit",
    "num_bbox_scaled",
    "cover_penalty_scaled",
    "pen_rate",
    "category=airplane",
    "category=chair",
    "category=table",
    "bbox_idx_norm",
    "bbox_centered",
    "bbox_reverse_norm",
    "local_action_norm",
    "is_axis_action",
    "is_recenter_action",
    "is_lower_coord",
    "is_upper_coord",
    "signed_scale_norm",
    "abs_scale_norm",
    "scale_idx_norm",
    "axis=x",
    "axis=y",
    "axis=z",
    "coord=0",
    "coord=1",
    "coord=2",
    "coord=3",
    "coord=4",
    "coord=5",
    "coord=6",
    "scale_idx=0",
    "scale_idx=1"
  ],
  "hidden_size": 48,
  "metadata": {
    "advantage_baseline": "category",
    "advantage_clip": 5.0,
    "advantage_mean": -0.005391716920692912,
    "advantage_std": 8.1126701239969,
    "candidate_actions_seen": 918359,
    "candidate_records_used": 541,
    "categories": [
      "airplane",
      "chair",
      "table"
    ],
    "device": "cpu",
    "entropy_coef": 0.005,
    "epochs": 30,
    "fallback_min_reward": 0.0,
    "hidden_size": 48,
    "l2": 0.0001,
    "learning_rate": 0.005,
    "logit_scale": 1.0,
    "max_logit_abs": 6.0,
    "meshes": [
      "1006be65e7bc937e9141f9b58470d646",
      "1007e20d5e811b308351982a6e40cf41",
      "100b18376b885f206ae9ad7e32c4139d",
      "1011e1c9812b84d2a9ed7bb5b55809f8",
      "10139657dfa9afe0c3bd24f986301745",
      "1013f70851210a618f2e765c4a8ed3d",
      "10155655850468db78d106ce0a280f87",
      "1015e71a0d21b127de03ab2a27ba7531",
      "1016f4debe988507589aae130c1f06fb",
      "1021a0914a7207aff927ed529ad90a11",
      "1026dd1b26120799107f68a9cb8e3c",
      "1028a9cbaa7a333230bbd4cddd04c77b",
      "1028b32dc1873c2afe26a3ac360dbd4",
      "102f0532f9f8bbcdcb503f63ed915ed2",
      "1033ee86cc8bac4390962e4fb7072b86",
      "1033f41fd2decfa938da3ea2c9e0e4f",
      "103a0a413d4c3353a723872ad91e4ed1",
      "103a60f3b09107df2da1314e036b435e",
      "103ad97126bc54f4fc5e9e325e1bd5b8",
      "103b75dfd146976563ed57e35c972b4b",
      "103c31671f8c0b1467bb14b25f99796e",
      "103c9e43cdf6501c62b600da24e0965",
      "103d77d63f0d68a044e6721e9db29c1b",
      "1040cd764facf6981190e285a2cbc9c",
      "104256e5bb73b0b719fb4103277a6b93",
      "1049953406c81b237eaeab1f0c9120b7",
      "104c5225ef0a288ff932326d9778e21b",
      "104c8e90ecf0e5351ed672982b7954af",
      "10506aab1adfe9f4eb7b988bf4f0d1ef",
      "105b9a03ddfaf5c5e7828dbf1991f6a4",
      "105f53a6471f3ceb4a420e3c1b966720",
      "105f7f51e4140ee4b6b87e72ead132ed",
      "1063d4fcd366de4060e37b3f76995f8b",
      "10657fcfce1d326b30bbd4cddd04c77b",
      "1066b65c30d153e04c3a35cee92bb95b",
      "106a0dbaead5066519fb4103277a6b93",
      "106c7f10c5bf5bd5f51f77a6d7299806",
      "106dfe858cb8fbc2afc6b80d80a265ab",
      "106e9487a1d47ff1a09cb462b3e723e2",
      "10709332176024ce9e47e7a22e24daa3",
      "10733a711fe254965d7786e1df78254f",
      "1079635b3da12a812cee4bf5d0f11ffe",
      "107caefdad02cf1c8ab8e68cb52baa6a",
      "107ed94869ed6f1be13496cd332ce78f",
      "108238b535eb293cd79b19c7c4f0e293",
      "1093d35c2ac73bb74ca84d60642ec7e8",
      "1096b4a30bd7717c4733824eae5cd9ae",
      "109738784a0a6129a02c88fe01f2b9c1",
      "10991b3b01cc6cc99982a4d6320875e",
      "109a8d453ce93a6fc21b51dd4113da62",
      "10a4e263f8087c4b8cf2bc41970d572a",
      "10aa040f470500c6a66ef8df4909ded9",
      "10af5de930178a161596c26b5af806fe",
      "10b0d655bf4938eae1ab19b3beff6716",
      "10b5723ea035cb047464e25da6d2e90",
      "10b6147009cbc17ec25cfdac7cd67ea3",
      "10bb44a54a12a74e4719088c8e42c6ab",
      "10c0eecb17d1bac64b3c42e318f3affc",
      "10c25bdfea5eccfd153555abe935e806",
      "10c7cdfdffe2243b88a89a28f04ce622",
      "10ca7bfe736d81b64b3c42e318f3affc",
      "10cc8c941fc8aeaa71a782a4379556c7",
      "10cd74fb0af8021fbf7cf6012a0af9fc",
      "10cfc2090a2ade124c3a35cee92bb95b",
      "10db820f0e20396a492c7ca609cb0182",
      "10e0a7255d279a419751c7a6f15617f4",
      "10e4331c34d610dacc14f1e6f4f4f49b",
      "10eeb119fd5508e0d6d949577c389a84",
      "110f6dbf0e6216e9f9a63e9a8c332e52",
      "112ca5420188df4bd90bfc986bc4c94d",
      "1169d987dbbce76775f4ea0b85a53249",
      "117830993cc5887726587cb13c78fb9b",
      "117861b9ebca4f17c69cb28fb4b4d257",
      "118e8142a8cb1fe19a4a28ef635593ce",
      "11b7c86fc42306ec7e7e25239e7b8f85",
      "11d2af04fad0a7e2ce19d55bc5e6a406",
      "11def84f9fe8ab0acd726e804e5d7a",
      "1203825bf97bc3524722e1824a086fad",
      "123bd9e948881939c38a1d3458dafa1b",
      "12877bdca58ccbea402991f646f01d6c",
      "13370c42b8ea45cf5e8172e6d9ae84ff",
      "1692563658149377630047043c6a0c50",
      "16f603525c5ce57b23f7198a00163bb6",
      "16fa03bfc61770652c5d34a902e568f9",
      "17883ea5a837f5731250f48219951972",
      "17c2d3e052dfe73f9cc1fc25372199f",
      "1804dd6f5c827c1a4bf8d5f43e57b138",
      "18806a80387734b754c7b6e11bf7148d",
      "18be1556eb4da5af7ccf848ce05c84be",
      "194fd39afab11888b84c578d4c100fe6",
      "196d35794f869816db6f03b6829a5891",
      "1998ee1bf3806b05818b286e41cc1a3f",
      "19a624cf1037fc75cda1835f53ae7d53",
      "19c8189116dd7cd3e95c611687989498",
      "1a00aa6b75362cc5b324368d54a7416f",
      "1a96d308eef57195efaa61516f88b67",
      "1ac6531a337de85f2f7628d6bf38bcc4",
      "1b78b8e14a21439afab04609f4609e83",
      "1c3310f4c05ce1f6a192483aa282f8e5",
      "1c45b266d3c879dab36dcc661f3905d",
      "1cb2fe52097b5304217ffa735084910f",
      "1cd6a00b71f02b06430c2c15987e4cd",
      "1ce5b9a79420e946bff7790df3158906",
      "1ee30d218c8c730ecb01bc908e8cea6",
      "1f3fd9b2ce99e4ed164ee3a88aef3755",
      "1f5537f4747ec847622c69c3abc6f80",
      "2066f1830765183544bb6b89d63deb6f",
      "20dbfa169424bb8ed7b90ecb4a11cd32",
      "22e4e0210f80fae813940713146922c1",
      "23acbdfee13b407ce42d6c2ea750090e",
      "240136d2ae7d2dec9fe69c7ccc27d2bf",
      "24445a532ce3e18f7b5f4d129cc2873d",
      "24fdf6e5090bc3442370db05a58bf9c6",
      "2581685a8aeff78b713decb1a0563b12",
      "2592e69aaa2344292463e74275a0e3c",
      "25ad35439836dd7c8fc307d246c19849",
      "260305219d81f745623cba1f26a8e885",
      "2718b1d46ca52df052bfb1d5ec273240",
      "2724c02bc7797bd1486150a9b7f2cf18"
    ],
    "min_reward": -1000000000000.0,
    "model_type": "policy_gradient_agent",
    "num_meshes": 119,
    "pre_scale_max_abs_logit": 5.599891662597656,
    "records_seen": 11043,
    "records_used": 11043,
    "reward_mean": 0.036494573218054466,
    "reward_weighted": false,
    "smoothing": 1.0,
    "source": "smart.action_prior.build_policy_gradient_action_prior_from_traces",
    "torch_version": "2.8.0",
    "trace_files": [
      "runs/bench_exact/action_prior_generalization_expanded2_mlp_smoke/airplane_123bd9e948881939c38a1d3458dafa1b.trace.jsonl",
      "runs/bench_exact/action_prior_generalization_expanded2_mlp_smoke/airplane_12877bdca58ccbea402991f646f01d6c.trace.jsonl",
      "runs/bench_exact/action_prior_generalization_smoke3/airplane_1f5537f4747ec847622c69c3abc6f80.trace.jsonl",
      "runs/bench_exact/action_prior_generalization_smoke3/airplane_260305219d81f745623cba1f26a8e885.trace.jsonl",
      "runs/bench_exact/action_prior_generalization_smoke3/chair_11b7c86fc42306ec7e7e25239e7b8f85.trace.jsonl",
      "runs/bench_exact/action_prior_generalization_smoke3_smallw/airplane_1f5537f4747ec847622c69c3abc6f80.trace.jsonl",
      "runs/bench_exact/action_prior_generalization_smoke3_smallw/airplane_260305219d81f745623cba1f26a8e885.trace.jsonl",
      "runs/bench_exact/action_prior_generalization_smoke3_smallw/chair_11b7c86fc42306ec7e7e25239e7b8f85.trace.jsonl",
      "runs/bench_exact/action_prior_generalization_smoke5_w01/airplane_1f5537f4747ec847622c69c3abc6f80.trace.jsonl",
      "runs/bench_exact/action_prior_generalization_smoke5_w01/airplane_260305219d81f745623cba1f26a8e885.trace.jsonl",
      "runs/bench_exact/action_prior_generalization_smoke5_w01/chair_11b7c86fc42306ec7e7e25239e7b8f85.trace.jsonl",
      "runs/bench_exact/action_prior_generalization_smoke5_w01/chair_17883ea5a837f5731250f48219951972.trace.jsonl",
      "runs/bench_exact/action_prior_generalization_smoke5_w01/table_1692563658149377630047043c6a0c50.trace.jsonl",
      "runs/bench_exact/action_prior_linear_airplane2_mcts2/airplane_123bd9e948881939c38a1d3458dafa1b.trace.jsonl",
      "runs/bench_exact/action_prior_linear_airplane2_mcts2/airplane_12877bdca58ccbea402991f646f01d6c.trace.jsonl",
      "runs/bench_exact/action_prior_linear_smoke3_mcts5/airplane_123bd9e948881939c38a1d3458dafa1b.trace.jsonl",
      "runs/bench_exact/action_prior_linear_smoke3_mcts5/airplane_12877bdca58ccbea402991f646f01d6c.trace.jsonl",
      "runs/bench_exact/action_prior_linear_smoke3_mcts5/airplane_13370c42b8ea45cf5e8172e6d9ae84ff.trace.jsonl",
      "runs/bench_exact/action_prior_mlp_airplane2_mcts2/airplane_123bd9e948881939c38a1d3458dafa1b.trace.jsonl",
      "runs/bench_exact/action_prior_mlp_airplane2_mcts2/airplane_12877bdca58ccbea402991f646f01d6c.trace.jsonl",
      "runs/bench_exact/action_prior_puct_linear_airplane1_mcts2/airplane_123bd9e948881939c38a1d3458dafa1b.trace.jsonl",
      "runs/bench_exact/action_prior_puct_linear_airplane2_mcts2/airplane_123bd9e948881939c38a1d3458dafa1b.trace.jsonl",
      "runs/bench_exact/action_prior_puct_linear_airplane2_mcts2/airplane_12877bdca58ccbea402991f646f01d6c.trace.jsonl",
      "runs/bench_exact/airplane_mcts10_action_prior_sweep.trace.jsonl",
      "runs/bench_exact/airplane_mcts20_action_prior_actionlogits_sweep.trace.jsonl",
      "runs/bench_exact/airplane_mcts20_action_prior_sweep.trace.jsonl",
      "runs/bench_exact/airplane_mcts20_action_prior_tt_sweep.trace.jsonl",
      "runs/bench_exact/debug_unscored_base20_fresh.jsonl",
      "runs/bench_exact/debug_unscored_base5.jsonl",
      "runs/bench_exact/debug_unscored_opt20.jsonl",
      "runs/bench_exact/debug_unscored_opt5.jsonl",
      "runs/bench_exact/table_mcts_trace_for_prior.jsonl",
      "runs/bench_exact/trace_collection/expanded_full_cat20_20260514_airplane_batch001.jsonl",
      "runs/bench_exact/trace_collection/expanded_full_cat20_20260514_airplane_batch002.jsonl",
      "runs/bench_exact/trace_collection/expanded_full_cat20_20260514_airplane_batch003.jsonl",
      "runs/bench_exact/trace_collection/expanded_full_cat20_20260514_airplane_batch004.jsonl",
      "runs/bench_exact/trace_collection/expanded_full_cat20_20260514_chair_batch001.jsonl",
      "runs/bench_exact/trace_collection/expanded_full_cat20_20260514_chair_batch002.jsonl",
      "runs/bench_exact/trace_collection/expanded_full_cat20_20260514_chair_batch003.jsonl",
      "runs/bench_exact/trace_collection/expanded_full_cat20_20260514_chair_batch004.jsonl",
      "runs/bench_exact/trace_collection/expanded_full_cat20_20260514_chair_batch005.jsonl",
      "runs/bench_exact/trace_collection/expanded_full_cat20_20260514_table_batch001.jsonl",
      "runs/bench_exact/trace_collection/expanded_full_cat20_20260514_table_batch002.jsonl",
      "runs/bench_exact/trace_collection/expanded_full_cat20_20260514_table_batch003.jsonl",
      "runs/bench_exact/trace_collection/expanded_full_cat20_20260514_table_batch004.jsonl",
      "runs/bench_exact/trace_collection/expanded_full_cat20_20260514_table_batch005.jsonl",
      "runs/bench_exact/trace_collection/expanded_full_next_20260514_airplane_batch001.jsonl",
      "runs/bench_exact/trace_collection/expanded_full_next_20260514_chair_batch001.jsonl",
      "runs/bench_exact/trace_collection/expanded_full_next_20260514_table_batch001.jsonl",
      "runs/bench_exact/trace_collection/expanded_more_20260514_airplane_batch001.jsonl",
      "runs/bench_exact/trace_collection/expanded_more_20260514_chair_batch001.jsonl",
      "runs/bench_exact/trace_collection/expanded_more_20260514_table_batch001.jsonl",
      "runs/bench_exact/trace_collection/shapenet_v1_first_20260514_airplane_batch001.jsonl",
      "runs/bench_exact/trace_collection/shapenet_v1_first_20260514_chair_batch001.jsonl",
      "runs/bench_exact/trace_collection/shapenet_v1_first_20260514_table_batch001.jsonl",
      "runs/bench_exact/traces/airplane_mcts20_trace.jsonl",
      "runs/bench_exact/traces/mcts_airplane_1f5537f474_manifold.jsonl",
      "runs/bench_exact/traces/mcts_airplane_1f5537f474_manifold_stateful.jsonl",
      "runs/bench_exact/traces/mcts_airplane_260305219d_manifold.jsonl",
      "runs/bench_exact/traces/mcts_airplane_260305219d_manifold_stateful.jsonl",
      "runs/bench_exact/traces/mcts_chair_11b7c86fc4_manifold.jsonl",
      "runs/bench_exact/traces/mcts_chair_11b7c86fc4_manifold_stateful.jsonl",
      "runs/bench_exact/traces/mcts_chair_17883ea5a8_manifold.jsonl",
      "runs/bench_exact/traces/mcts_chair_17883ea5a8_manifold_stateful.jsonl",
      "runs/bench_exact/traces/mcts_table_1692563658_manifold.jsonl",
      "runs/bench_exact/traces/mcts_table_1692563658_manifold_stateful.jsonl",
      "runs/bench_exact/traces/trace_chair_11b7_baseline.jsonl",
      "runs/bench_exact/traces/trace_chair_11b7_stateful_python.jsonl",
      "runs/bench_exact/traces_expanded_batch2_airplane5_mcts20.jsonl",
      "runs/bench_exact/traces_expanded_batch2_chair5_mcts20.jsonl",
      "runs/bench_exact/traces_expanded_batch2_table5_mcts20.jsonl",
      "runs/bench_exact/traces_expanded_batch2_table_replacement_mcts20.jsonl",
      "runs/bench_exact/traces_expanded_batch_airplane5_mcts20.jsonl",
      "runs/bench_exact/traces_expanded_batch_chair5_mcts20.jsonl",
      "runs/bench_exact/traces_expanded_batch_table5_mcts20.jsonl",
      "runs/bench_exact/traces_properties/mcts_airplane_123bd9e948_manifold.jsonl",
      "runs/bench_exact/traces_properties/mcts_airplane_123bd9e948_manifold_stateful.jsonl",
      "runs/bench_exact/traces_properties/mcts_airplane_123bd9e948_manifold_stateful_properties.jsonl",
      "runs/bench_exact/traces_properties/schema_v2_probe.jsonl",
      "runs/bench_exact/candidate_traces/candidate_pg_cat3_mcts10_airplane_candidates.jsonl",
      "runs/bench_exact/candidate_traces/candidate_pg_cat3_mcts10_chair_candidates.jsonl",
      "runs/bench_exact/candidate_traces/candidate_pg_cat3_mcts10_table_candidates.jsonl"
    ],
    "trainer": "scripts/train_action_prior_from_traces.py",
    "trainer_backend": "torch"
  },
  "num_action_scale": 2,
  "policy_type": "action_mlp_prior",
  "schema_version": 2
}