{
  "activation": "tanh",
  "categories": [
    "airplane",
    "chair",
    "table"
  ],
  "classes": [
    "0:0",
    "0:1",
    "1:0",
    "1:1",
    "2:0",
    "2:1",
    "3:0",
    "3:1",
    "4:0",
    "4:1",
    "5:0",
    "5:1",
    "6:0"
  ],
  "default_logit": -8.909505512946101,
  "fallback_coord_scale_logits": {
    "0:0": -2.8836395391207867,
    "0:1": -3.0402085998123267,
    "1:0": -3.3260092041644023,
    "1:1": -2.61608623409962,
    "2:0": -3.1226081315793937,
    "2:1": -1.7842224214353901,
    "3:0": -3.028972526545401,
    "3:1": -2.987927093302286,
    "4:0": -2.6849470836707416,
    "4:1": -3.2782937311247355,
    "5:0": -1.5876557991577454,
    "5:1": -3.1134477621807295,
    "6:0": -2.1060002553377632
  },
  "feature_names": [
    "bias_context",
    "bvs",
    "bvs_minus_one",
    "abs_bvs_minus_one",
    "step_fraction",
    "action_unit",
    "num_bbox_scaled",
    "cover_penalty_scaled",
    "pen_rate",
    "category=airplane",
    "category=chair",
    "category=table"
  ],
  "hidden_bias": [
    -0.014908990822732449,
    -0.31070348620414734,
    0.1575438231229782,
    -0.1560584455728531,
    -0.062363654375076294,
    -0.010342901572585106,
    -0.07190040498971939,
    -0.07352131605148315,
    -0.03562847524881363,
    0.1513841450214386,
    -0.07151253521442413,
    0.1070702001452446,
    -0.07141713052988052,
    -0.014821208082139492,
    -0.0051401397213339806,
    0.07633587718009949,
    -0.35007190704345703,
    0.05801996961236,
    -0.05329912155866623,
    0.16248516738414764,
    0.040934789925813675,
    -0.14290733635425568,
    0.14680145680904388,
    -0.08313187211751938,
    -0.021649692207574844,
    -0.13722866773605347,
    0.10270276665687561,
    -0.06662458926439285,
    -0.1431315392255783,
    -0.06263177841901779,
    -0.008216822519898415,
    -0.0296199768781662,
    0.6068477630615234,
    -0.054420411586761475,
    0.24032486975193024,
    -0.29537850618362427,
    -0.00409354455769062,
    0.49893254041671753,
    0.01040945015847683,
    -0.1489184945821762,
    0.10964210331439972,
    -0.008901438675820827,
    0.21428616344928741,
    0.10134824365377426,
    -0.0069040474481880665,
    -0.10832303762435913,
    0.1219141036272049,
    -0.2932164967060089,
    -0.03290005028247833,
    -0.003033929970115423,
    0.07769724726676941,
    -0.07527771592140198,
    -0.053905658423900604,
    0.007478754036128521,
    0.09861452132463455,
    0.002091379603371024,
    -0.49043896794319153,
    0.03698623925447464,
    0.07357882708311081,
    0.09926731139421463,
    -0.445762038230896,
    0.15886364877223969,
    0.039906442165374756,
    0.13924719393253326
  ],
  "hidden_size": 64,
  "input_weights": [
    [
      -0.006510937586426735,
      -0.301443487405777,
      0.15893246233463287,
      -0.1635739952325821,
      -0.07192669063806534,
      -0.01311766542494297,
      -0.06530435383319855,
      -0.0636271983385086,
      -0.03148777782917023,
      0.1459149718284607,
      -0.0814766213297844,
      0.10169694572687149,
      -0.06718158721923828,
      -0.004944791551679373,
      0.0013636203948408365,
      0.07342133671045303,
      -0.35949525237083435,
      0.050525963306427,
      -0.05179543048143387,
      0.17153087258338928,
      0.04926053062081337,
      -0.14294098317623138,
      0.13830839097499847,
      -0.09214961528778076,
      -0.02296128310263157,
      -0.12958166003227234,
      0.11211030930280685,
      -0.06390518695116043,
      -0.14967243373394012,
      -0.07243791222572327,
      -0.012226030230522156,
      -0.024093296378850937,
      0.6165178418159485,
      -0.04908180609345436,
      0.2359759509563446,
      -0.3051545023918152,
      -0.010516933165490627,
      0.5016158819198608,
      0.020028110593557358,
      -0.1414514183998108,
      0.10802061855792999,
      -0.018076088279485703,
      0.20584441721439362,
      0.10145354270935059,
      0.001584756188094616,
      -0.09913740307092667,
      0.12313330173492432,
      -0.3007720410823822,
      -0.042410604655742645,
      -0.005642302334308624,
      0.08439351618289948,
      -0.06541147828102112,
      -0.049924708902835846,
      0.0018693353049457073,
      0.08862141519784927,
      -0.0031285914592444897,
      -0.48565077781677246,
      0.046884384006261826,
      0.07989983260631561,
      0.09617485105991364,
      -0.45525917410850525,
      0.15145471692085266,
      0.041571639478206635,
      0.1483667492866516
    ],
    [
      0.04888545721769333,
      0.02354998141527176,
      0.001347654964774847,
      0.18893234431743622,
      0.32370826601982117,
      -0.02789352834224701,
      -0.02148226834833622,
      -0.11610111594200134,
      -0.06482540816068649,
      0.037541937083005905,
      -0.004093834664672613,
      -0.013022318482398987,
      0.2935065031051636,
      0.1829121857881546,
      -0.009654559195041656,
      0.01975310780107975,
      -0.15145520865917206,
      -0.2921886742115021,
      0.009426932781934738,
      -0.011668862774968147,
      -0.08448967337608337,
      -0.0022924228105694056,
      0.01213274709880352,
      0.5115447044372559,
      -0.03202497586607933,
      0.1373850703239441,
      0.22002270817756653,
      -0.031292710453271866,
      0.4017109274864197,
      0.47512876987457275,
      -0.005092426668852568,
      0.0003136070445179939,
      -0.5676721930503845,
      -0.029257681220769882,
      0.11282435804605484,
      1.0679658651351929,
      -0.06848601996898651,
      -0.05006394907832146,
      -0.25375208258628845,
      0.27220940589904785,
      0.030234897509217262,
      0.06456308811903,
      -0.4570472836494446,
      0.15061956644058228,
      0.04303997382521629,
      -0.07109760493040085,
      -0.012551119551062584,
      0.6436756253242493,
      0.37535345554351807,
      -0.03352538123726845,
      0.002555112587288022,
      -0.11401574313640594,
      -0.044648170471191406,
      0.03408300131559372,
      0.0678475871682167,
      -0.019760627299547195,
      0.2695714831352234,
      0.2603635787963867,
      -0.3257213234901428,
      0.027565572410821915,
      -0.04237997904419899,
      -0.020183155313134193,
      0.026236791163682938,
      -0.0108744902536273
    ],
    [
      0.10955561697483063,
      0.22815051674842834,
      -0.032653965055942535,
      0.6819348335266113,
      0.7809639573097229,
      -0.043429501354694366,
      0.021933065727353096,
      0.0583852156996727,
      -0.07456107437610626,
      -0.10484607517719269,
      0.09139277040958405,
      -0.045230329036712646,
      0.6561691164970398,
      0.2777617275714874,
      -0.029432721436023712,
      -0.05788462609052658,
      0.2543056309223175,
      -0.6435373425483704,
      0.05212786793708801,
      -0.2767721116542816,
      -0.17248864471912384,
      0.038038820028305054,
      -0.05030218884348869,
      1.624342679977417,
      -0.04415653645992279,
      0.48150062561035156,
      0.2084098905324936,
      0.021739643067121506,
      0.7904877066612244,
      0.5310976505279541,
      -0.023535968735814095,
      0.0010813996195793152,
      -2.18554949760437,
      0.03203072398900986,
      -0.10989178717136383,
      4.430323600769043,
      -0.13224467635154724,
      -0.46680817008018494,
      -0.3976547420024872,
      0.5669139623641968,
      -0.061041563749313354,
      0.017583487555384636,
      -1.0582799911499023,
      0.2020983099937439,
      0.08544959127902985,
      -0.030142176896333694,
      -0.038260892033576965,
      1.6682040691375732,
      0.823789656162262,
      -0.06641824543476105,
      -0.060758184641599655,
      0.05366223677992821,
      -0.012886390089988708,
      0.014702082611620426,
      -0.031677115708589554,
      0.03691544011235237,
      1.365147352218628,
      0.38809967041015625,
      -0.8465399146080017,
      -0.06704308837652206,
      0.5121830701828003,
      -0.24776965379714966,
      -0.018421685323119164,
      -0.2336682826280594
    ],
    [
      0.10058490186929703,
      0.2408304512500763,
      -0.042136576026678085,
      0.6844173073768616,
      0.7835865616798401,
      -0.044974200427532196,
      0.016278564929962158,
      0.07294196635484695,
      -0.09402567893266678,
      -0.08752705156803131,
      0.08157757669687271,
      -0.0429961122572422,
      0.6563968658447266,
      0.28170445561408997,
      -0.040979139506816864,
      -0.04101549834012985,
      0.23863396048545837,
      -0.6354249715805054,
      0.0534265972673893,
      -0.283656507730484,
      -0.16684140264987946,
      0.03865789622068405,
      -0.05694695562124252,
      1.6316189765930176,
      -0.04534143581986427,
      0.4731513559818268,
      0.2239505648612976,
      0.0055171228013932705,
      0.8010485172271729,
      0.5279725193977356,
      -0.024009723216295242,
      -0.0015423083677887917,
      -2.1750388145446777,
      0.014199216850101948,
      -0.0904090479016304,
      4.416187763214111,
      -0.12698675692081451,
      -0.46532708406448364,
      -0.3995710611343384,
      0.5633090138435364,
      -0.05049939453601837,
      0.004334264900535345,
      -1.0492804050445557,
      0.20227469503879547,
      0.07656301558017731,
      -0.018108516931533813,
      -0.04664376750588417,
      1.6695619821548462,
      0.8270896077156067,
      -0.06800128519535065,
      -0.06679785251617432,
      0.06855738908052444,
      -0.032250694930553436,
      0.03143220767378807,
      -0.040764693170785904,
      0.03876975178718567,
      1.365107774734497,
      0.39285585284233093,
      -0.8590141534805298,
      -0.04959000274538994,
      0.49645906686782837,
      -0.23990871012210846,
      -0.017025675624608994,
      -0.24010483920574188
    ],
    [
      3.970759391784668,
      -1.7181367874145508,
      9.54629898071289,
      5.277003765106201,
      5.8474626541137695,
      -4.794384479522705,
      -3.196495294570923,
      3.7994236946105957,
      -4.995305061340332,
      -4.548975467681885,
      -3.5062665939331055,
      6.6249308586120605,
      -4.805840015411377,
      -1.7256817817687988,
      -7.244960308074951,
      5.681006908416748,
      3.0206947326660156,
      -1.4413224458694458,
      -6.766156196594238,
      4.7365031242370605,
      6.955238342285156,
      -3.72967529296875,
      8.225728988647461,
      2.0109972953796387,
      -5.198903560638428,
      -5.9476165771484375,
      -5.392655849456787,
      5.222052574157715,
      -6.388275623321533,
      -9.123772621154785,
      -3.334118127822876,
      12.030281066894531,
      1.9511985778808594,
      -4.110649108886719,
      -0.8609142303466797,
      2.88533091545105,
      -4.965610027313232,
      4.525330066680908,
      4.517538547515869,
      -0.20464543998241425,
      9.022366523742676,
      -7.500160217285156,
      -2.3988893032073975,
      -1.5034371614456177,
      3.95497727394104,
      2.2731287479400635,
      6.884064674377441,
      -0.14510631561279297,
      4.858566761016846,
      -4.591730117797852,
      2.846508502960205,
      3.6904799938201904,
      -6.12717866897583,
      -3.6878693103790283,
      -3.719210386276245,
      4.120486736297607,
      0.8264410495758057,
      -2.0661094188690186,
      -5.899311542510986,
      6.821788311004639,
      1.5521411895751953,
      -3.4417221546173096,
      -4.823448657989502,
      4.586373805999756
    ],
    [
      -0.3707473576068878,
      0.2584257423877716,
      -0.03961058333516121,
      -0.08700034767389297,
      0.6862796545028687,
      0.24201028048992157,
      0.3634430468082428,
      -0.6912492513656616,
      0.2730695903301239,
      0.415071040391922,
      0.22346055507659912,
      -0.1087040901184082,
      0.8560313582420349,
      0.5050999522209167,
      -0.6048204302787781,
      -0.21755830943584442,
      0.2589256763458252,
      0.4107067286968231,
      -0.39134129881858826,
      -0.05268372222781181,
      -0.8984777927398682,
      0.3451269567012787,
      -0.13134892284870148,
      0.5065284967422485,
      0.21172446012496948,
      -0.5529866814613342,
      -0.6842287182807922,
      0.21263180673122406,
      -0.3933489918708801,
      0.0909198671579361,
      0.17956846952438354,
      0.6288549900054932,
      0.32621559500694275,
      0.38685157895088196,
      0.4947223961353302,
      -0.7237170934677124,
      0.2687244713306427,
      0.42297637462615967,
      -1.2553379535675049,
      -0.3084375560283661,
      -0.13259559869766235,
      1.2732003927230835,
      0.2643420100212097,
      0.35883262753486633,
      -0.3691006004810333,
      0.3487933278083801,
      -0.1911100149154663,
      -0.2414390593767166,
      0.5312544703483582,
      0.2612193524837494,
      0.26028260588645935,
      -0.6421109437942505,
      0.193296417593956,
      0.35881462693214417,
      0.529798686504364,
      -0.3263036012649536,
      -1.119956135749817,
      0.4818672835826874,
      -0.686332106590271,
      -0.17754359543323517,
      -0.03520677983760834,
      0.5912904143333435,
      -0.34700319170951843,
      -0.098492830991745
    ],
    [
      -0.06897664815187454,
      -2.239685297012329,
      -1.1124048233032227,
      1.1283999681472778,
      0.5366829037666321,
      -0.01373378001153469,
      -5.00071382522583,
      -0.008009633980691433,
      0.2877674698829651,
      0.5524977445602417,
      0.5994174480438232,
      -0.1909312903881073,
      1.8615809679031372,
      -2.0938093662261963,
      -1.438592791557312,
      0.03525953367352486,
      -0.6988586187362671,
      -1.8107324838638306,
      -1.6064754724502563,
      1.437456488609314,
      -1.613824725151062,
      1.1422796249389648,
      -0.6130812764167786,
      -0.07049395889043808,
      0.12579582631587982,
      -0.032098595052957535,
      -0.11595120280981064,
      0.4726099371910095,
      2.111490488052368,
      2.9814958572387695,
      -0.22060225903987885,
      0.3873109817504883,
      1.6915974617004395,
      -0.032213762402534485,
      -3.932971954345703,
      -1.109391689300537,
      0.24155399203300476,
      -2.7025232315063477,
      -1.6020303964614868,
      0.8094431757926941,
      -0.21985551714897156,
      0.9625072479248047,
      5.032399654388428,
      -1.3262381553649902,
      -0.012337463907897472,
      -0.30181893706321716,
      -0.10177215933799744,
      -2.952799081802368,
      -0.21908451616764069,
      0.0230435561388731,
      -7.447234153747559,
      0.08484958857297897,
      0.2944995164871216,
      -0.40663400292396545,
      0.15706321597099304,
      0.1970982849597931,
      2.268437147140503,
      -2.099900484085083,
      0.165212482213974,
      -0.0547029972076416,
      -1.232306718826294,
      -0.4204331338405609,
      -1.854066014289856,
      1.1490479707717896
    ],
    [
      -0.005033128894865513,
      -0.3134039640426636,
      0.14847032725811005,
      -0.15050271153450012,
      -0.05490182340145111,
      -0.018002822995185852,
      -0.07708122581243515,
      -0.0643201395869255,
      -0.03306969255208969,
      0.14141926169395447,
      -0.0711282268166542,
      0.1168915256857872,
      -0.07459230720996857,
      -0.023735877126455307,
      0.0006673636380583048,
      0.08350325375795364,
      -0.3577865660190582,
      0.05312293395400047,
      -0.043965600430965424,
      0.16460010409355164,
      0.030934203416109085,
      -0.14214551448822021,
      0.15653032064437866,
      -0.086647629737854,
      -0.03036597929894924,
      -0.13111576437950134,
      0.10951105505228043,
      -0.07472416758537292,
      -0.14763668179512024,
      -0.0531185120344162,
      -0.006342355161905289,
      -0.03959132358431816,
      0.607587456703186,
      -0.04469329118728638,
      0.2363792061805725,
      -0.30379316210746765,
      0.0022775193210691214,
      0.5053486227989197,
      0.0020872079767286777,
      -0.15316273272037506,
      0.11916422843933105,
      -0.007420018315315247,
      0.20416541397571564,
      0.10268653184175491,
      0.002664076630026102,
      -0.11233790963888168,
      0.11353561282157898,
      -0.2864750921726227,
      -0.02645309828221798,
      -0.011523852124810219,
      0.07373863458633423,
      -0.06561639904975891,
      -0.05273452401161194,
      -0.0025347331538796425,
      0.10037437081336975,
      0.011560780927538872,
      -0.49451881647109985,
      0.02880561724305153,
      0.08042933791875839,
      0.10537691414356232,
      -0.45428821444511414,
      0.15521274507045746,
      0.04963957890868187,
      0.13996674120426178
    ],
    [
      -0.01080130971968174,
      -0.31803038716316223,
      0.1670813262462616,
      -0.16592176258563995,
      -0.05384484678506851,
      -0.015909571200609207,
      -0.0701972171664238,
      -0.07097864151000977,
      -0.04190053418278694,
      0.16028575599193573,
      -0.08146878331899643,
      0.11632410436868668,
      -0.07826951146125793,
      -0.011545725166797638,
      -0.004251837730407715,
      0.07139158993959427,
      -0.34183013439178467,
      0.04825374111533165,
      -0.04353310912847519,
      0.15440061688423157,
      0.04572940617799759,
      -0.14364778995513916,
      0.1433859020471573,
      -0.07614593952894211,
      -0.03093358688056469,
      -0.12722016870975494,
      0.09367422014474869,
      -0.060386139899492264,
      -0.14549241960048676,
      -0.06432446837425232,
      -0.002531748730689287,
      -0.03815508261322975,
      0.6164474487304688,
      -0.06389578431844711,
      0.24769620597362518,
      -0.29928362369537354,
      -0.004173976369202137,
      0.5028517246246338,
      0.0028366674669086933,
      -0.13931727409362793,
      0.09970570355653763,
      -0.00046114902943372726,
      0.20864248275756836,
      0.10286134481430054,
      -0.004296395927667618,
      -0.11449980735778809,
      0.13087302446365356,
      -0.30308133363723755,
      -0.02365627884864807,
      -0.009848680347204208,
      0.0809098407626152,
      -0.07430154830217361,
      -0.05886498838663101,
      0.015562730841338634,
      0.08881653845310211,
      0.01182442344725132,
      -0.4979514181613922,
      0.0417163111269474,
      0.07282906025648117,
      0.09575728327035904,
      -0.4385838508605957,
      0.14951474964618683,
      0.049876369535923004,
      0.1303178369998932
    ],
    [
      -0.6448138952255249,
      -0.09440450370311737,
      -0.0686638355255127,
      -1.069916009902954,
      0.5799131393432617,
      0.44970083236694336,
      -0.5333677530288696,
      0.3304433524608612,
      0.5426881313323975,
      -0.2132485955953598,
      -0.10494337230920792,
      -0.15360674262046814,
      0.04325404390692711,
      1.3733233213424683,
      0.3878781497478485,
      -0.4265233278274536,
      -0.5046504139900208,
      -0.1433369368314743,
      -1.5919594764709473,
      0.47228071093559265,
      0.736405611038208,
      0.02484024502336979,
      -0.17544826865196228,
      0.33377718925476074,
      0.43658366799354553,
      -0.5759214758872986,
      -0.7661561965942383,
      0.7370333671569824,
      -0.47518011927604675,
      -0.22991693019866943,
      0.19689293205738068,
      -0.3996373414993286,
      1.5797233581542969,
      0.5736364722251892,
      -0.5862241983413696,
      0.3588687479496002,
      0.4609837532043457,
      0.7876893281936646,
      -0.033611640334129333,
      -0.016424614936113358,
      -0.2503347396850586,
      -0.29914602637290955,
      -0.7524358630180359,
      1.3227791786193848,
      -0.6244852542877197,
      0.03604161739349365,
      -0.26788249611854553,
      0.5776002407073975,
      0.5892025232315063,
      0.4762606620788574,
      0.11269384622573853,
      0.322826087474823,
      0.4735487401485443,
      0.7872975468635559,
      -0.26551759243011475,
      -0.050777655094861984,
      -4.322268009185791,
      1.2051985263824463,
      -0.6857854127883911,
      -0.36663439869880676,
      -1.0945900678634644,
      0.9050716161727905,
      -1.487387776374817,
      0.40713638067245483
    ],
    [
      -0.30782637000083923,
      -0.12329082936048508,
      0.1734754741191864,
      0.6074684858322144,
      0.03899639844894409,
      0.06399784982204437,
      0.8758980631828308,
      -1.433503270149231,
      0.07616341859102249,
      1.5436341762542725,
      0.28002655506134033,
      0.09096470475196838,
      0.7442951202392578,
      0.5027227401733398,
      -1.1982835531234741,
      -0.23718996345996857,
      0.8241139054298401,
      0.37792491912841797,
      0.07749153673648834,
      -0.34249261021614075,
      -2.937502384185791,
      0.8909288048744202,
      -0.0065604280680418015,
      -0.3691805303096771,
      -0.043835364282131195,
      -0.7126162648200989,
      -0.07443086802959442,
      0.08317023515701294,
      -1.113984227180481,
      -0.48242005705833435,
      -0.01567315123975277,
      1.7250840663909912,
      -0.8024961352348328,
      0.5550566911697388,
      1.4721723794937134,
      -1.339097499847412,
      0.17995744943618774,
      0.2424488067626953,
      -1.6337435245513916,
      -0.8225181102752686,
      -0.10354346036911011,
      2.848310947418213,
      0.698448121547699,
      -0.16383157670497894,
      -0.3209364712238312,
      0.3263497054576874,
      -0.06591106951236725,
      -0.6373451352119446,
      -0.22254785895347595,
      0.0896550863981247,
      0.9054287075996399,
      -1.3726505041122437,
      -0.1550447642803192,
      0.29647085070610046,
      1.3216149806976318,
      -0.6062979698181152,
      0.9955573081970215,
      0.1811622530221939,
      0.15585221350193024,
      -0.14247265458106995,
      0.6268062591552734,
      0.4809061288833618,
      0.3416624963283539,
      -0.4457370638847351
    ],
    [
      -0.16218256950378418,
      1.014428973197937,
      -0.24749772250652313,
      0.1942773163318634,
      1.2648844718933105,
      0.28251713514328003,
      0.6003689169883728,
      -0.7832974791526794,
      0.2614498734474182,
      0.11577948182821274,
      0.3452513515949249,
      -0.2740941643714905,
      1.2792091369628906,
      -0.2581556439399719,
      -1.1708300113677979,
      -0.022376440465450287,
      0.2443210482597351,
      0.9051916599273682,
      -0.14887692034244537,
      -0.24467600882053375,
      -0.0939231663942337,
      0.07497604936361313,
      -0.18778076767921448,
      1.7369894981384277,
      0.2836796045303345,
      -0.19071388244628906,
      -1.2395167350769043,
      -0.17182181775569916,
      1.3863532543182373,
      1.4473241567611694,
      0.4127514958381653,
      1.2898070812225342,
      0.8931816220283508,
      0.011564060114324093,
      0.45378485321998596,
      -0.6865867376327515,
      0.14512299001216888,
      -0.3589324951171875,
      -1.1830122470855713,
      0.02201760746538639,
      -0.08657930046319962,
      1.0480443239212036,
      0.8356526494026184,
      0.3366428315639496,
      -0.16714446246623993,
      0.5892391204833984,
      -0.26486024260520935,
      -0.19550821185112,
      1.255387306213379,
      0.2840518355369568,
      -0.015934623777866364,
      -0.7050114870071411,
      0.33494094014167786,
      0.05670022964477539,
      0.459524929523468,
      -0.2370559722185135,
      -0.09702923148870468,
      0.045014385133981705,
      -1.623687505722046,
      -0.06675485521554947,
      0.5622400045394897,
      0.22733663022518158,
      -0.5893105864524841,
      -0.17234748601913452
    ]
  ],
  "metadata": {
    "categories": [
      "airplane",
      "chair",
      "table"
    ],
    "device": "cpu",
    "epochs": 500,
    "hidden_size": 64,
    "l2": 0.0001,
    "learning_rate": 0.03,
    "meshes": [
      "1006be65e7bc937e9141f9b58470d646",
      "1007e20d5e811b308351982a6e40cf41",
      "100b18376b885f206ae9ad7e32c4139d",
      "1011e1c9812b84d2a9ed7bb5b55809f8",
      "10139657dfa9afe0c3bd24f986301745",
      "1013f70851210a618f2e765c4a8ed3d",
      "10155655850468db78d106ce0a280f87",
      "1015e71a0d21b127de03ab2a27ba7531",
      "1016f4debe988507589aae130c1f06fb",
      "1021a0914a7207aff927ed529ad90a11",
      "1026dd1b26120799107f68a9cb8e3c",
      "1028a9cbaa7a333230bbd4cddd04c77b",
      "1028b32dc1873c2afe26a3ac360dbd4",
      "102f0532f9f8bbcdcb503f63ed915ed2",
      "1033ee86cc8bac4390962e4fb7072b86",
      "1033f41fd2decfa938da3ea2c9e0e4f",
      "103a0a413d4c3353a723872ad91e4ed1",
      "103a60f3b09107df2da1314e036b435e",
      "103ad97126bc54f4fc5e9e325e1bd5b8",
      "103b75dfd146976563ed57e35c972b4b",
      "103c31671f8c0b1467bb14b25f99796e",
      "103c9e43cdf6501c62b600da24e0965",
      "103d77d63f0d68a044e6721e9db29c1b",
      "1040cd764facf6981190e285a2cbc9c",
      "104256e5bb73b0b719fb4103277a6b93",
      "1049953406c81b237eaeab1f0c9120b7",
      "104c5225ef0a288ff932326d9778e21b",
      "104c8e90ecf0e5351ed672982b7954af",
      "10506aab1adfe9f4eb7b988bf4f0d1ef",
      "105b9a03ddfaf5c5e7828dbf1991f6a4",
      "105f53a6471f3ceb4a420e3c1b966720",
      "105f7f51e4140ee4b6b87e72ead132ed",
      "1063d4fcd366de4060e37b3f76995f8b",
      "10657fcfce1d326b30bbd4cddd04c77b",
      "1066b65c30d153e04c3a35cee92bb95b",
      "106a0dbaead5066519fb4103277a6b93",
      "106c7f10c5bf5bd5f51f77a6d7299806",
      "106dfe858cb8fbc2afc6b80d80a265ab",
      "106e9487a1d47ff1a09cb462b3e723e2",
      "10709332176024ce9e47e7a22e24daa3",
      "10733a711fe254965d7786e1df78254f",
      "1079635b3da12a812cee4bf5d0f11ffe",
      "107caefdad02cf1c8ab8e68cb52baa6a",
      "107ed94869ed6f1be13496cd332ce78f",
      "108238b535eb293cd79b19c7c4f0e293",
      "1093d35c2ac73bb74ca84d60642ec7e8",
      "1096b4a30bd7717c4733824eae5cd9ae",
      "109738784a0a6129a02c88fe01f2b9c1",
      "10991b3b01cc6cc99982a4d6320875e",
      "109a8d453ce93a6fc21b51dd4113da62",
      "10a4e263f8087c4b8cf2bc41970d572a",
      "10aa040f470500c6a66ef8df4909ded9",
      "10af5de930178a161596c26b5af806fe",
      "10b0d655bf4938eae1ab19b3beff6716",
      "10b5723ea035cb047464e25da6d2e90",
      "10b6147009cbc17ec25cfdac7cd67ea3",
      "10bb44a54a12a74e4719088c8e42c6ab",
      "10c0eecb17d1bac64b3c42e318f3affc",
      "10c25bdfea5eccfd153555abe935e806",
      "10c7cdfdffe2243b88a89a28f04ce622",
      "10ca7bfe736d81b64b3c42e318f3affc",
      "10cc8c941fc8aeaa71a782a4379556c7",
      "10cd74fb0af8021fbf7cf6012a0af9fc",
      "10cfc2090a2ade124c3a35cee92bb95b",
      "10db820f0e20396a492c7ca609cb0182",
      "10e0a7255d279a419751c7a6f15617f4",
      "10e4331c34d610dacc14f1e6f4f4f49b",
      "10eeb119fd5508e0d6d949577c389a84",
      "110f6dbf0e6216e9f9a63e9a8c332e52",
      "112ca5420188df4bd90bfc986bc4c94d",
      "1169d987dbbce76775f4ea0b85a53249",
      "117830993cc5887726587cb13c78fb9b",
      "117861b9ebca4f17c69cb28fb4b4d257",
      "118e8142a8cb1fe19a4a28ef635593ce",
      "11b7c86fc42306ec7e7e25239e7b8f85",
      "11d2af04fad0a7e2ce19d55bc5e6a406",
      "11def84f9fe8ab0acd726e804e5d7a",
      "1203825bf97bc3524722e1824a086fad",
      "123bd9e948881939c38a1d3458dafa1b",
      "12877bdca58ccbea402991f646f01d6c",
      "13370c42b8ea45cf5e8172e6d9ae84ff",
      "1692563658149377630047043c6a0c50",
      "16f603525c5ce57b23f7198a00163bb6",
      "16fa03bfc61770652c5d34a902e568f9",
      "17883ea5a837f5731250f48219951972",
      "17c2d3e052dfe73f9cc1fc25372199f",
      "1804dd6f5c827c1a4bf8d5f43e57b138",
      "18806a80387734b754c7b6e11bf7148d",
      "18be1556eb4da5af7ccf848ce05c84be",
      "194fd39afab11888b84c578d4c100fe6",
      "196d35794f869816db6f03b6829a5891",
      "1998ee1bf3806b05818b286e41cc1a3f",
      "19a624cf1037fc75cda1835f53ae7d53",
      "19c8189116dd7cd3e95c611687989498",
      "1a00aa6b75362cc5b324368d54a7416f",
      "1a96d308eef57195efaa61516f88b67",
      "1ac6531a337de85f2f7628d6bf38bcc4",
      "1b78b8e14a21439afab04609f4609e83",
      "1c3310f4c05ce1f6a192483aa282f8e5",
      "1c45b266d3c879dab36dcc661f3905d",
      "1cb2fe52097b5304217ffa735084910f",
      "1cd6a00b71f02b06430c2c15987e4cd",
      "1ce5b9a79420e946bff7790df3158906",
      "1ee30d218c8c730ecb01bc908e8cea6",
      "1f3fd9b2ce99e4ed164ee3a88aef3755",
      "1f5537f4747ec847622c69c3abc6f80",
      "2066f1830765183544bb6b89d63deb6f",
      "20dbfa169424bb8ed7b90ecb4a11cd32",
      "22e4e0210f80fae813940713146922c1",
      "23acbdfee13b407ce42d6c2ea750090e",
      "240136d2ae7d2dec9fe69c7ccc27d2bf",
      "24445a532ce3e18f7b5f4d129cc2873d",
      "24fdf6e5090bc3442370db05a58bf9c6",
      "2581685a8aeff78b713decb1a0563b12",
      "2592e69aaa2344292463e74275a0e3c",
      "25ad35439836dd7c8fc307d246c19849",
      "260305219d81f745623cba1f26a8e885",
      "2718b1d46ca52df052bfb1d5ec273240",
      "2724c02bc7797bd1486150a9b7f2cf18"
    ],
    "min_reward": 0.0,
    "model_type": "mlp",
    "num_meshes": 119,
    "records_seen": 10502,
    "records_used": 7389,
    "reward_power": 0.0,
    "smoothing": 1.0,
    "source": "smart.action_prior.build_mlp_action_prior_from_traces",
    "torch_version": "2.8.0",
    "trace_file_list": "runs/bench_exact/priors/all_available_trace_files_20260514.txt",
    "trace_files": [
      "runs/bench_exact/action_prior_generalization_expanded2_mlp_smoke/airplane_123bd9e948881939c38a1d3458dafa1b.trace.jsonl",
      "runs/bench_exact/action_prior_generalization_expanded2_mlp_smoke/airplane_12877bdca58ccbea402991f646f01d6c.trace.jsonl",
      "runs/bench_exact/action_prior_generalization_smoke3/airplane_1f5537f4747ec847622c69c3abc6f80.trace.jsonl",
      "runs/bench_exact/action_prior_generalization_smoke3/airplane_260305219d81f745623cba1f26a8e885.trace.jsonl",
      "runs/bench_exact/action_prior_generalization_smoke3/chair_11b7c86fc42306ec7e7e25239e7b8f85.trace.jsonl",
      "runs/bench_exact/action_prior_generalization_smoke3_smallw/airplane_1f5537f4747ec847622c69c3abc6f80.trace.jsonl",
      "runs/bench_exact/action_prior_generalization_smoke3_smallw/airplane_260305219d81f745623cba1f26a8e885.trace.jsonl",
      "runs/bench_exact/action_prior_generalization_smoke3_smallw/chair_11b7c86fc42306ec7e7e25239e7b8f85.trace.jsonl",
      "runs/bench_exact/action_prior_generalization_smoke5_w01/airplane_1f5537f4747ec847622c69c3abc6f80.trace.jsonl",
      "runs/bench_exact/action_prior_generalization_smoke5_w01/airplane_260305219d81f745623cba1f26a8e885.trace.jsonl",
      "runs/bench_exact/action_prior_generalization_smoke5_w01/chair_11b7c86fc42306ec7e7e25239e7b8f85.trace.jsonl",
      "runs/bench_exact/action_prior_generalization_smoke5_w01/chair_17883ea5a837f5731250f48219951972.trace.jsonl",
      "runs/bench_exact/action_prior_generalization_smoke5_w01/table_1692563658149377630047043c6a0c50.trace.jsonl",
      "runs/bench_exact/action_prior_linear_airplane2_mcts2/airplane_123bd9e948881939c38a1d3458dafa1b.trace.jsonl",
      "runs/bench_exact/action_prior_linear_airplane2_mcts2/airplane_12877bdca58ccbea402991f646f01d6c.trace.jsonl",
      "runs/bench_exact/action_prior_linear_smoke3_mcts5/airplane_123bd9e948881939c38a1d3458dafa1b.trace.jsonl",
      "runs/bench_exact/action_prior_linear_smoke3_mcts5/airplane_12877bdca58ccbea402991f646f01d6c.trace.jsonl",
      "runs/bench_exact/action_prior_linear_smoke3_mcts5/airplane_13370c42b8ea45cf5e8172e6d9ae84ff.trace.jsonl",
      "runs/bench_exact/action_prior_mlp_airplane2_mcts2/airplane_123bd9e948881939c38a1d3458dafa1b.trace.jsonl",
      "runs/bench_exact/action_prior_mlp_airplane2_mcts2/airplane_12877bdca58ccbea402991f646f01d6c.trace.jsonl",
      "runs/bench_exact/action_prior_puct_linear_airplane1_mcts2/airplane_123bd9e948881939c38a1d3458dafa1b.trace.jsonl",
      "runs/bench_exact/action_prior_puct_linear_airplane2_mcts2/airplane_123bd9e948881939c38a1d3458dafa1b.trace.jsonl",
      "runs/bench_exact/action_prior_puct_linear_airplane2_mcts2/airplane_12877bdca58ccbea402991f646f01d6c.trace.jsonl",
      "runs/bench_exact/airplane_mcts10_action_prior_sweep.trace.jsonl",
      "runs/bench_exact/airplane_mcts20_action_prior_actionlogits_sweep.trace.jsonl",
      "runs/bench_exact/airplane_mcts20_action_prior_sweep.trace.jsonl",
      "runs/bench_exact/airplane_mcts20_action_prior_tt_sweep.trace.jsonl",
      "runs/bench_exact/debug_unscored_base20_fresh.jsonl",
      "runs/bench_exact/debug_unscored_base5.jsonl",
      "runs/bench_exact/debug_unscored_opt20.jsonl",
      "runs/bench_exact/debug_unscored_opt5.jsonl",
      "runs/bench_exact/table_mcts_trace_for_prior.jsonl",
      "runs/bench_exact/trace_collection/expanded_full_cat20_20260514_airplane_batch001.jsonl",
      "runs/bench_exact/trace_collection/expanded_full_cat20_20260514_airplane_batch002.jsonl",
      "runs/bench_exact/trace_collection/expanded_full_cat20_20260514_airplane_batch003.jsonl",
      "runs/bench_exact/trace_collection/expanded_full_cat20_20260514_airplane_batch004.jsonl",
      "runs/bench_exact/trace_collection/expanded_full_cat20_20260514_chair_batch001.jsonl",
      "runs/bench_exact/trace_collection/expanded_full_cat20_20260514_chair_batch002.jsonl",
      "runs/bench_exact/trace_collection/expanded_full_cat20_20260514_chair_batch003.jsonl",
      "runs/bench_exact/trace_collection/expanded_full_cat20_20260514_chair_batch004.jsonl",
      "runs/bench_exact/trace_collection/expanded_full_cat20_20260514_chair_batch005.jsonl",
      "runs/bench_exact/trace_collection/expanded_full_cat20_20260514_table_batch001.jsonl",
      "runs/bench_exact/trace_collection/expanded_full_cat20_20260514_table_batch002.jsonl",
      "runs/bench_exact/trace_collection/expanded_full_cat20_20260514_table_batch003.jsonl",
      "runs/bench_exact/trace_collection/expanded_full_cat20_20260514_table_batch004.jsonl",
      "runs/bench_exact/trace_collection/expanded_full_cat20_20260514_table_batch005.jsonl",
      "runs/bench_exact/trace_collection/expanded_full_next_20260514_airplane_batch001.jsonl",
      "runs/bench_exact/trace_collection/expanded_full_next_20260514_chair_batch001.jsonl",
      "runs/bench_exact/trace_collection/expanded_full_next_20260514_table_batch001.jsonl",
      "runs/bench_exact/trace_collection/expanded_more_20260514_airplane_batch001.jsonl",
      "runs/bench_exact/trace_collection/expanded_more_20260514_chair_batch001.jsonl",
      "runs/bench_exact/trace_collection/expanded_more_20260514_table_batch001.jsonl",
      "runs/bench_exact/trace_collection/shapenet_v1_first_20260514_airplane_batch001.jsonl",
      "runs/bench_exact/trace_collection/shapenet_v1_first_20260514_chair_batch001.jsonl",
      "runs/bench_exact/trace_collection/shapenet_v1_first_20260514_table_batch001.jsonl",
      "runs/bench_exact/traces/airplane_mcts20_trace.jsonl",
      "runs/bench_exact/traces/mcts_airplane_1f5537f474_manifold.jsonl",
      "runs/bench_exact/traces/mcts_airplane_1f5537f474_manifold_stateful.jsonl",
      "runs/bench_exact/traces/mcts_airplane_260305219d_manifold.jsonl",
      "runs/bench_exact/traces/mcts_airplane_260305219d_manifold_stateful.jsonl",
      "runs/bench_exact/traces/mcts_chair_11b7c86fc4_manifold.jsonl",
      "runs/bench_exact/traces/mcts_chair_11b7c86fc4_manifold_stateful.jsonl",
      "runs/bench_exact/traces/mcts_chair_17883ea5a8_manifold.jsonl",
      "runs/bench_exact/traces/mcts_chair_17883ea5a8_manifold_stateful.jsonl",
      "runs/bench_exact/traces/mcts_table_1692563658_manifold.jsonl",
      "runs/bench_exact/traces/mcts_table_1692563658_manifold_stateful.jsonl",
      "runs/bench_exact/traces/trace_chair_11b7_baseline.jsonl",
      "runs/bench_exact/traces/trace_chair_11b7_stateful_python.jsonl",
      "runs/bench_exact/traces_expanded_batch2_airplane5_mcts20.jsonl",
      "runs/bench_exact/traces_expanded_batch2_chair5_mcts20.jsonl",
      "runs/bench_exact/traces_expanded_batch2_table5_mcts20.jsonl",
      "runs/bench_exact/traces_expanded_batch2_table_replacement_mcts20.jsonl",
      "runs/bench_exact/traces_expanded_batch_airplane5_mcts20.jsonl",
      "runs/bench_exact/traces_expanded_batch_chair5_mcts20.jsonl",
      "runs/bench_exact/traces_expanded_batch_table5_mcts20.jsonl",
      "runs/bench_exact/traces_properties/mcts_airplane_123bd9e948_manifold.jsonl",
      "runs/bench_exact/traces_properties/mcts_airplane_123bd9e948_manifold_stateful.jsonl",
      "runs/bench_exact/traces_properties/mcts_airplane_123bd9e948_manifold_stateful_properties.jsonl",
      "runs/bench_exact/traces_properties/schema_v2_probe.jsonl"
    ],
    "trainer_backend": "torch",
    "wall_time_sec": 2.70131778717041
  },
  "num_action_scale": 2,
  "output_bias": [
    -2.596458911895752,
    -2.585644245147705,
    -2.7094271183013916,
    -2.6667120456695557,
    -2.828742742538452,
    -2.360264539718628,
    -2.6175923347473145,
    -2.8236868381500244,
    -2.7676544189453125,
    -2.857032060623169,
    -2.2305097579956055,
    -2.621593713760376,
    -2.698852777481079
  ],
  "output_weights": [
    [
      -0.05128089338541031,
      -0.03349735960364342,
      -0.10714993625879288,
      0.1302279680967331,
      -0.3135942816734314,
      0.11992277950048447,
      -0.28440284729003906,
      0.12921638786792755,
      -0.2636437714099884,
      0.003806453663855791,
      0.13330799341201782,
      -0.07946131378412247,
      0.0806293934583664
    ],
    [
      -0.41253992915153503,
      -0.7105433344841003,
      -0.9002505540847778,
      0.2952341139316559,
      0.3675680160522461,
      -0.2975603938102722,
      0.2518225908279419,
      -0.515179455280304,
      0.047342099249362946,
      -0.510104775428772,
      -0.4403574764728546,
      -0.4025585949420929,
      1.1619086265563965
    ],
    [
      -0.939055323600769,
      -0.7443754076957703,
      -0.8432421684265137,
      -0.4876478612422943,
      -0.8075756430625916,
      0.3670685887336731,
      -0.34643855690956116,
      -1.4574745893478394,
      -0.24249844253063202,
      -0.2875766158103943,
      0.18872401118278503,
      -0.6323356628417969,
      1.2801344394683838
    ],
    [
      -0.6823366284370422,
      0.17827539145946503,
      0.599583625793457,
      0.01012333668768406,
      0.27358269691467285,
      -0.7150964736938477,
      -0.04156124219298363,
      0.17461226880550385,
      1.2982841730117798,
      -0.14840717613697052,
      -0.0914921909570694,
      0.3511362671852112,
      -0.21065078675746918
    ],
    [
      -0.2221812903881073,
      0.6681998372077942,
      0.4609421193599701,
      0.407863050699234,
      -0.1565515249967575,
      0.006587706506252289,
      0.37091147899627686,
      0.06089525669813156,
      0.8470053672790527,
      -0.014224173501133919,
      0.08419740945100784,
      0.3001013696193695,
      -0.7747173309326172
    ],
    [
      0.38377997279167175,
      0.03126220777630806,
      0.2139929234981537,
      0.01754368282854557,
      0.08927623927593231,
      -0.10224079340696335,
      0.07397543638944626,
      -0.06227118521928787,
      0.22788198292255402,
      -0.18657439947128296,
      -0.22661305963993073,
      0.2909052073955536,
      -0.12379966676235199
    ],
    [
      0.3423372507095337,
      -0.22363880276679993,
      0.7293156981468201,
      0.19294652342796326,
      0.16701076924800873,
      0.3682571351528168,
      0.3292343318462372,
      0.28687989711761475,
      0.43103528022766113,
      0.8880026936531067,
      0.5755777955055237,
      0.2500940263271332,
      -1.4228695631027222
    ],
    [
      -0.5693955421447754,
      -0.5903739333152771,
      0.3834628462791443,
      -0.09723552316427231,
      -0.2669851779937744,
      0.5251844525337219,
      -0.040007833391427994,
      -0.584842324256897,
      0.3426307439804077,
      -0.3751172423362732,
      0.2140359729528427,
      0.31424370408058167,
      -0.2389986366033554
    ],
    [
      0.23287872970104218,
      -0.04518037289381027,
      0.34255096316337585,
      -0.01602211780846119,
      0.38709473609924316,
      -0.018561024218797684,
      0.15844208002090454,
      -0.08669203519821167,
      0.16728058457374573,
      -0.12572118639945984,
      -0.20820875465869904,
      0.23974132537841797,
      -0.1961798071861267
    ],
    [
      0.4884083867073059,
      0.6532043218612671,
      -0.15838155150413513,
      0.7891407012939453,
      -0.2205076515674591,
      -0.31671491265296936,
      0.04612576588988304,
      0.5291314125061035,
      0.0019036842277273536,
      -0.35069161653518677,
      -0.5634059906005859,
      0.34480127692222595,
      -0.19264991581439972
    ],
    [
      0.5078145265579224,
      -0.6570910215377808,
      0.42347946763038635,
      0.00016238586977124214,
      0.3503657579421997,
      -0.18646423518657684,
      0.21632374823093414,
      -0.12893475592136383,
      0.0654202401638031,
      -0.29685285687446594,
      -0.029832160100340843,
      0.0005894337082281709,
      0.03215642645955086
    ],
    [
      -0.8176606297492981,
      -0.6647083759307861,
      -0.2977830767631531,
      -0.19904381036758423,
      -0.19850805401802063,
      0.40977877378463745,
      -0.42660972476005554,
      -0.46867063641548157,
      -0.21137717366218567,
      -0.1532740443944931,
      0.2192160040140152,
      -0.16647514700889587,
      0.5446516871452332
    ],
    [
      0.3278813362121582,
      -0.3647962808609009,
      -0.5457221865653992,
      -0.4462554454803467,
      0.28551921248435974,
      -0.07277494668960571,
      -0.25756213068962097,
      0.21555858850479126,
      -0.5936470031738281,
      0.33243244886398315,
      0.05557318404316902,
      -0.5425593852996826,
      0.44533586502075195
    ],
    [
      0.5152541995048523,
      -0.4272197186946869,
      -0.1178591400384903,
      -0.23567253351211548,
      0.33629024028778076,
      0.17490807175636292,
      0.7644956111907959,
      -0.050754986703395844,
      -0.08775857836008072,
      -0.09227757900953293,
      -0.23296040296554565,
      0.2885626554489136,
      -0.10366632044315338
    ],
    [
      0.7692183256149292,
      0.8162814974784851,
      -1.3457525968551636,
      -0.1537819653749466,
      0.13673657178878784,
      -0.33670735359191895,
      -0.10249833762645721,
      0.803440511226654,
      -0.9885625243186951,
      0.8398082852363586,
      -0.14736931025981903,
      -0.9721303582191467,
      0.32488492131233215
    ],
    [
      -0.1640959084033966,
      -0.26728302240371704,
      -0.4579310715198517,
      0.19964079558849335,
      -0.10638944059610367,
      0.11359819024801254,
      -0.12007500231266022,
      0.11430373042821884,
      -0.2867600917816162,
      -0.07087071985006332,
      0.030622197315096855,
      -0.20184540748596191,
      0.27504727244377136
    ],
    [
      -0.8151447176933289,
      0.27089789509773254,
      -0.8667144179344177,
      0.026753857731819153,
      -0.26318955421447754,
      0.2022450715303421,
      -0.10634922236204147,
      -0.2588782012462616,
      -0.20151935517787933,
      0.44712185859680176,
      -0.100847028195858,
      -0.1451738476753235,
      0.7773626446723938
    ],
    [
      0.2613629996776581,
      -0.3093354403972626,
      -0.1708431839942932,
      -0.7074008584022522,
      0.0313100591301918,
      0.1331794112920761,
      0.39709165692329407,
      -0.03798585757613182,
      -0.30950435996055603,
      0.49813032150268555,
      -0.3856178820133209,
      -0.009443724527955055,
      0.3370850086212158
    ],
    [
      0.8915197849273682,
      0.06850823014974594,
      0.2465878129005432,
      -0.21905723214149475,
      0.5282216668128967,
      0.32461977005004883,
      0.19542132318019867,
      0.45404914021492004,
      -0.594460666179657,
      0.6354959011077881,
      -0.043741390109062195,
      -0.4628683030605316,
      -0.5998137593269348
    ],
    [
      -0.1956687718629837,
      -0.4527764916419983,
      -0.540325939655304,
      0.409652978181839,
      0.4654938876628876,
      0.7173022031784058,
      0.03455701097846031,
      0.4142756164073944,
      -0.6582813262939453,
      0.48596951365470886,
      0.2821345627307892,
      -0.45195436477661133,
      -0.7281678318977356
    ],
    [
      -0.16246356070041656,
      -1.0299601554870605,
      0.9499589800834656,
      -0.8149758577346802,
      -0.5299314260482788,
      0.5280179977416992,
      0.07632497698068619,
      -1.0879067182540894,
      0.4874684810638428,
      -0.8971763849258423,
      0.5754656791687012,
      0.188600555062294,
      0.007474896498024464
    ],
    [
      -0.2565302848815918,
      -0.6151114702224731,
      0.5037624835968018,
      0.42134854197502136,
      0.1047729030251503,
      0.12933754920959473,
      0.07759855687618256,
      -0.1502087414264679,
      0.38395988941192627,
      -0.26134470105171204,
      0.02285786345601082,
      0.2753693759441376,
      -0.3417387306690216
    ],
    [
      -0.9148215055465698,
      -0.914324939250946,
      -1.2448798418045044,
      -0.11429834365844727,
      -0.8237046003341675,
      0.4323326349258423,
      -0.5948063135147095,
      -0.998556911945343,
      -0.2284632921218872,
      -0.24964892864227295,
      0.1711934357881546,
      -0.728426992893219,
      0.999723494052887
    ],
    [
      0.16576625406742096,
      -0.08982444554567337,
      1.100581407546997,
      -0.7094144225120544,
      -0.4178176522254944,
      0.6174876093864441,
      0.04224236309528351,
      -0.11950235068798065,
      0.15888510644435883,
      0.2560223340988159,
      0.08658629655838013,
      0.4740140438079834,
      -0.6088544726371765
    ],
    [
      0.44056379795074463,
      0.04569647088646889,
      0.291207879781723,
      0.06099328398704529,
      0.199582040309906,
      -0.08522222936153412,
      0.03323240205645561,
      0.0274413600564003,
      0.158856600522995,
      -0.1700836718082428,
      -0.24021026492118835,
      0.315646231174469,
      -0.16359594464302063
    ],
    [
      0.5685164928436279,
      0.15115205943584442,
      -0.32642754912376404,
      1.1710138320922852,
      0.9463817477226257,
      -0.26770246028900146,
      0.3281184136867523,
      0.8462998867034912,
      0.20168720185756683,
      0.09230996668338776,
      -0.14213308691978455,
      -0.0012992355041205883,
      -0.654977560043335
    ],
    [
      0.18321284651756287,
      -0.4108186364173889,
      0.32207828760147095,
      0.14990940690040588,
      -0.14655113220214844,
      -0.20372450351715088,
      -0.2610565721988678,
      -0.1743091642856598,
      0.5506794452667236,
      -0.5241793394088745,
      0.5509458184242249,
      -0.5201197862625122,
      -0.19331620633602142
    ],
    [
      -0.9090527892112732,
      -0.17710275948047638,
      -0.18960051238536835,
      -0.41567546129226685,
      0.2355717271566391,
      -0.11831489205360413,
      -0.24618150293827057,
      -0.049253951758146286,
      -0.17185655236244202,
      0.07844888418912888,
      0.20557774603366852,
      0.9658441543579102,
      0.3415469527244568
    ],
    [
      0.02641424536705017,
      -0.5860523581504822,
      0.1164993941783905,
      -0.47878298163414,
      -0.006978235207498074,
      -0.022999819368124008,
      -1.153828740119934,
      0.018994906917214394,
      -0.8924565315246582,
      -0.5947157144546509,
      0.1829417496919632,
      -0.5978167653083801,
      1.022464394569397
    ],
    [
      0.3547583222389221,
      -1.8575204610824585,
      0.26209890842437744,
      -0.897551417350769,
      -0.18132434785366058,
      0.3780018091201782,
      -1.263487458229065,
      -0.45130494236946106,
      -1.1091468334197998,
      -0.5064963698387146,
      0.2190735787153244,
      -0.5358456969261169,
      1.1885981559753418
    ],
    [
      0.5399277210235596,
      -0.1694747805595398,
      -0.2951773405075073,
      0.13313989341259003,
      -0.5566920042037964,
      -0.14873075485229492,
      -0.029009167104959488,
      -0.09798021614551544,
      0.2852870523929596,
      -0.12182583659887314,
      0.002090709749609232,
      -0.07725440710783005,
      -0.1130204126238823
    ],
    [
      -0.904973566532135,
      -1.8535282611846924,
      1.8822039365768433,
      -0.9746070504188538,
      -0.8985631465911865,
      1.354854941368103,
      -0.09027323871850967,
      -2.0523808002471924,
      2.3402602672576904,
      -1.0834084749221802,
      0.918247401714325,
      0.1845741868019104,
      -0.37838107347488403
    ],
    [
      0.17737838625907898,
      0.3988308608531952,
      0.7767035365104675,
      0.7103265523910522,
      0.4260270297527313,
      0.1649714857339859,
      0.16957104206085205,
      0.6574836373329163,
      0.49395641684532166,
      -0.00012228777632117271,
      0.5556674599647522,
      0.39794838428497314,
      -1.6253739595413208
    ],
    [
      -0.08295078575611115,
      -0.08895236253738403,
      0.21094585955142975,
      -0.14872486889362335,
      0.05978228896856308,
      0.015781795606017113,
      0.1235736608505249,
      -0.17013682425022125,
      0.36011940240859985,
      0.013004513457417488,
      -0.1126403659582138,
      0.2759559452533722,
      -0.08691459894180298
    ],
    [
      -0.24112804234027863,
      0.4033829867839813,
      -0.7493717074394226,
      0.48703089356422424,
      1.7657543420791626,
      -0.13543552160263062,
      0.8460002541542053,
      0.2736862301826477,
      -0.10602613538503647,
      -0.039193738251924515,
      -0.9126406311988831,
      1.221920132637024,
      -0.14820370078086853
    ],
    [
      0.8312259912490845,
      -0.30091625452041626,
      0.16898581385612488,
      0.42392003536224365,
      0.582044243812561,
      0.23680150508880615,
      0.4763299822807312,
      0.44704607129096985,
      -0.5719397664070129,
      0.4869268238544464,
      0.18912695348262787,
      1.3163923025131226,
      -1.5052095651626587
    ],
    [
      0.22295376658439636,
      0.017217464745044708,
      0.3856664001941681,
      -0.10811004787683487,
      0.31082966923713684,
      -0.009049464948475361,
      0.2976554036140442,
      -0.14091327786445618,
      0.2552123963832855,
      -0.15152113139629364,
      -0.11509077250957489,
      0.043731242418289185,
      -0.2276962846517563
    ],
    [
      0.22481569647789001,
      0.6420291662216187,
      0.44136473536491394,
      0.4154740273952484,
      -0.8929882049560547,
      -0.04594498500227928,
      -1.150392770767212,
      0.5163449645042419,
      -0.4162604808807373,
      -0.43266841769218445,
      -0.6390235424041748,
      -0.8008822798728943,
      1.0772111415863037
    ],
    [
      -0.2995491921901703,
      -0.2949300706386566,
      0.7201988101005554,
      -0.06277724355459213,
      -0.37133467197418213,
      0.20204484462738037,
      0.15267764031887054,
      -0.4696897566318512,
      0.7207990288734436,
      -0.5164023637771606,
      0.015904465690255165,
      0.4601283371448517,
      -0.26470768451690674
    ],
    [
      -0.30252575874328613,
      -0.12049093097448349,
      -0.3754153847694397,
      0.33122962713241577,
      0.3260597884654999,
      -0.06169914826750755,
      0.24677886068820953,
      -0.37387925386428833,
      0.19705970585346222,
      -0.2811352610588074,
      0.15596014261245728,
      0.14726592600345612,
      -0.0246339850127697
    ],
    [
      -0.56861412525177,
      -1.003269076347351,
      -0.7596699595451355,
      0.26401448249816895,
      -0.44407808780670166,
      0.2878471314907074,
      -0.1901661902666092,
      -0.4895302355289459,
      -0.17947469651699066,
      -0.37322863936424255,
      0.2392357438802719,
      -0.6541678309440613,
      0.6746410727500916
    ],
    [
      0.3416912853717804,
      0.7643004655838013,
      -0.960976243019104,
      0.46673139929771423,
      0.23994854092597961,
      -0.46300551295280457,
      0.12397892028093338,
      0.9090796709060669,
      -0.866506040096283,
      0.8125377893447876,
      -0.5501776337623596,
      0.08065078407526016,
      0.13081657886505127
    ],
    [
      0.17309978604316711,
      0.15439654886722565,
      -0.5509324669837952,
      -0.07313945144414902,
      -0.02227131836116314,
      -0.17387127876281738,
      0.46993687748908997,
      -0.6667329668998718,
      -0.038231585174798965,
      -0.4953288733959198,
      1.0694893598556519,
      0.7677132487297058,
      -0.5708152651786804
    ],
    [
      0.4594607353210449,
      0.06588872522115707,
      0.29842573404312134,
      -0.4211602210998535,
      -0.05885506048798561,
      0.2737308144569397,
      0.5323424935340881,
      -0.4828678369522095,
      -0.18055562674999237,
      0.06089673191308975,
      -0.1487620323896408,
      0.4517959654331207,
      -0.11331517994403839
    ],
    [
      -0.0421513095498085,
      -0.023371461778879166,
      -0.0875273048877716,
      0.12294087558984756,
      -0.24332381784915924,
      0.10924175381660461,
      -0.25138843059539795,
      0.1273716688156128,
      -0.2748781442642212,
      -0.0034860933665186167,
      0.14059865474700928,
      -0.1405716985464096,
      0.06800389289855957
    ],
    [
      -0.14263206720352173,
      -0.11825177818536758,
      -0.2683234214782715,
      -0.004067224450409412,
      -0.06278526782989502,
      -0.05431758984923363,
      0.010225441306829453,
      0.16543252766132355,
      -0.046624016016721725,
      0.48358336091041565,
      -0.34784191846847534,
      0.21827082335948944,
      0.20597408711910248
    ],
    [
      -0.654692530632019,
      -0.7801322937011719,
      -0.49620020389556885,
      -0.05175144970417023,
      -0.2912762761116028,
      0.42486679553985596,
      -0.51064133644104,
      -0.3196438252925873,
      -0.3011583387851715,
      -0.23387426137924194,
      0.26304322481155396,
      -0.39948832988739014,
      0.5461055040359497
    ],
    [
      -0.002066205721348524,
      0.5901721715927124,
      0.08846623450517654,
      0.2663123607635498,
      -0.05220825970172882,
      0.22222402691841125,
      -0.019736403599381447,
      0.15842629969120026,
      0.41432076692581177,
      0.049646005034446716,
      0.7834306359291077,
      -0.2343405783176422,
      -0.957309365272522
    ],
    [
      -0.14951002597808838,
      0.9550978541374207,
      0.20050770044326782,
      0.27507346868515015,
      -0.08352939784526825,
      -0.07644902169704437,
      0.40905725955963135,
      0.4223848581314087,
      0.5237337350845337,
      0.3021795451641083,
      0.059949226677417755,
      0.028014367446303368,
      -0.7607977390289307
    ],
    [
      0.3209318220615387,
      0.025274746119976044,
      0.23376896977424622,
      0.0032747378572821617,
      0.15444648265838623,
      -0.0821688175201416,
      0.13550807535648346,
      -0.09353142231702805,
      0.22166955471038818,
      -0.16652053594589233,
      -0.2234598845243454,
      0.20033596456050873,
      -0.117985799908638
    ],
    [
      0.6488645672798157,
      0.5612740516662598,
      1.2207446098327637,
      0.43144816160202026,
      0.7498893141746521,
      -0.02434532903134823,
      0.31013938784599304,
      1.1526603698730469,
      0.7576862573623657,
      0.2635156512260437,
      1.3467754125595093,
      0.5873081684112549,
      -2.420112133026123
    ],
    [
      -0.5641627907752991,
      -0.5815706253051758,
      0.34612423181533813,
      -0.08205626159906387,
      -0.2500545084476471,
      0.5508064031600952,
      -0.05790412425994873,
      -0.5573472380638123,
      0.26436203718185425,
      -0.3329980969429016,
      0.18988661468029022,
      0.3184783458709717,
      -0.23161496222019196
    ],
    [
      0.5303096175193787,
      0.09717695415019989,
      0.30800575017929077,
      0.10309140384197235,
      0.3445122539997101,
      -0.13104085624217987,
      -0.06252621114253998,
      0.22406966984272003,
      0.0847690999507904,
      -0.14103853702545166,
      -0.2973513901233673,
      0.5184947848320007,
      -0.2535320520401001
    ],
    [
      0.331138014793396,
      0.039509858936071396,
      0.004294632468372583,
      -0.17598706483840942,
      0.06378835439682007,
      -0.006341847591102123,
      0.5430828928947449,
      -0.4879770278930664,
      0.2590760886669159,
      -0.06442777812480927,
      0.3452986478805542,
      -0.053911227732896805,
      -0.2276485413312912
    ],
    [
      0.6746593117713928,
      0.480745404958725,
      -0.23812320828437805,
      0.17236745357513428,
      0.3205223083496094,
      -0.6026051044464111,
      0.09583670645952225,
      0.6237891316413879,
      -0.31490558385849,
      0.22754260897636414,
      -0.149668887257576,
      -0.2106863111257553,
      0.14231827855110168
    ],
    [
      -0.2626151144504547,
      -0.0814502015709877,
      0.023869816213846207,
      -0.08826412260532379,
      0.44869542121887207,
      0.13931448757648468,
      -0.6195425987243652,
      0.0860040932893753,
      -0.5620981454849243,
      0.05630830302834511,
      0.09295740723609924,
      0.06659255176782608,
      0.14302057027816772
    ],
    [
      0.5311363935470581,
      -0.007197882980108261,
      0.5470095872879028,
      -0.8347375988960266,
      -0.171986386179924,
      0.557073712348938,
      -0.3607178032398224,
      0.09471786022186279,
      -1.2194454669952393,
      0.30227959156036377,
      0.05070512369275093,
      -0.7183988690376282,
      0.0833268016576767
    ],
    [
      0.5809265971183777,
      -0.347934365272522,
      -0.032650649547576904,
      -0.28458914160728455,
      -0.036005906760692596,
      0.3603686988353729,
      0.676205039024353,
      -0.22140182554721832,
      -0.04620778188109398,
      -0.17016273736953735,
      -0.22399760782718658,
      0.5496398210525513,
      -0.1668645441532135
    ],
    [
      0.6105260848999023,
      -1.6811662912368774,
      -0.41475164890289307,
      -0.5100821852684021,
      -0.04926205426454544,
      0.2701433002948761,
      -0.5689674019813538,
      -0.7733275294303894,
      -1.0728241205215454,
      -0.8180892467498779,
      0.4000464081764221,
      -0.28544190526008606,
      0.823343813419342
    ],
    [
      -0.3040807843208313,
      -0.5179128646850586,
      -0.5304539799690247,
      0.21911367774009705,
      -0.21551622450351715,
      0.1820797622203827,
      -0.11452896893024445,
      -0.07490622252225876,
      -0.2126491516828537,
      -0.19551151990890503,
      0.07496465742588043,
      -0.28370189666748047,
      0.3910382390022278
    ],
    [
      -0.809928834438324,
      0.31808730959892273,
      -0.3727416694164276,
      0.38949257135391235,
      -1.3377646207809448,
      0.4563975930213928,
      -0.8270412087440491,
      -0.3965878486633301,
      -0.21266482770442963,
      -1.0580500364303589,
      -0.1473202109336853,
      0.12017058581113815,
      1.105866551399231
    ],
    [
      0.17837698757648468,
      0.540969729423523,
      -0.06582222878932953,
      -0.24520011246204376,
      0.29938024282455444,
      -0.5203234553337097,
      0.4283730685710907,
      0.09038981050252914,
      0.3783176839351654,
      0.0901324674487114,
      -0.23558160662651062,
      -0.24738067388534546,
      0.09947134554386139
    ],
    [
      1.0942071676254272,
      -0.302101194858551,
      0.6164393424987793,
      -0.3787538409233093,
      -0.0036521092988550663,
      0.48923569917678833,
      -0.2604145109653473,
      0.3421124815940857,
      -0.33821794390678406,
      -0.19902721047401428,
      0.09915769845247269,
      -0.06194232031702995,
      -0.4838985800743103
    ],
    [
      -0.22790618240833282,
      -0.3612828254699707,
      -0.6059623956680298,
      0.4541652202606201,
      0.4902242124080658,
      0.7057464122772217,
      -0.03791394829750061,
      0.3679375648498535,
      -0.6863587498664856,
      0.35293057560920715,
      0.21450774371623993,
      -0.3653164803981781,
      -0.5912051200866699
    ]
  ],
  "policy_type": "coord_scale_mlp_prior",
  "schema_version": 2
}