{
  "activation": "tanh",
  "categories": [
    "airplane",
    "chair",
    "table"
  ],
  "classes": [
    "0:0",
    "0:1",
    "1:0",
    "1:1",
    "2:0",
    "2:1",
    "3:0",
    "3:1",
    "4:0",
    "4:1",
    "5:0",
    "5:1",
    "6:0"
  ],
  "default_logit": -8.909505512946101,
  "fallback_coord_scale_logits": {
    "0:0": -2.8836395391207867,
    "0:1": -3.0402085998123267,
    "1:0": -3.3260092041644023,
    "1:1": -2.61608623409962,
    "2:0": -3.1226081315793937,
    "2:1": -1.7842224214353901,
    "3:0": -3.028972526545401,
    "3:1": -2.987927093302286,
    "4:0": -2.6849470836707416,
    "4:1": -3.2782937311247355,
    "5:0": -1.5876557991577454,
    "5:1": -3.1134477621807295,
    "6:0": -2.1060002553377632
  },
  "feature_names": [
    "bias_context",
    "bvs",
    "bvs_minus_one",
    "abs_bvs_minus_one",
    "step_fraction",
    "action_unit",
    "num_bbox_scaled",
    "cover_penalty_scaled",
    "pen_rate",
    "category=airplane",
    "category=chair",
    "category=table"
  ],
  "hidden_bias": [
    2.9622557163238525,
    -2.8490052223205566,
    -1.0674110651016235,
    -1.0579427480697632,
    1.0600805282592773,
    -1.0677239894866943,
    1.0636323690414429,
    2.841827154159546,
    -1.0653660297393799,
    1.0676723718643188,
    1.0604548454284668,
    2.850627899169922,
    1.0574300289154053,
    2.864565849304199,
    1.051734447479248,
    -1.0654301643371582,
    -1.0559967756271362,
    -1.0509015321731567,
    1.060215950012207,
    1.0612527132034302,
    1.0729833841323853,
    1.066556453704834,
    1.062390685081482,
    -2.9542529582977295,
    -1.0636872053146362,
    1.0579761266708374,
    -1.0536891222000122,
    -1.0657401084899902,
    1.0562371015548706,
    1.0634255409240723,
    2.8375837802886963,
    1.0703967809677124,
    2.856680393218994,
    -1.061798334121704,
    1.0520700216293335,
    1.0663801431655884,
    -1.0648702383041382,
    1.0635310411453247,
    1.0404874086380005,
    2.896178960800171,
    -1.0598273277282715,
    1.0667884349822998,
    -1.0583609342575073,
    1.0629724264144897,
    1.0663843154907227,
    -2.8484716415405273,
    -1.0674430131912231,
    -1.0560235977172852,
    1.0533723831176758,
    -1.0684363842010498,
    1.0630903244018555,
    2.849214553833008,
    -1.0635854005813599,
    1.068156361579895,
    1.063741683959961,
    2.848670482635498,
    1.0582832098007202,
    2.8634908199310303,
    1.0527139902114868,
    -1.0561071634292603,
    -1.0587944984436035,
    -1.0511531829833984,
    1.0601998567581177,
    1.06083345413208
  ],
  "hidden_size": 64,
  "input_weights": [
    [
      2.969154119491577,
      -2.838550329208374,
      -1.0648508071899414,
      -1.064302921295166,
      1.049381971359253,
      -1.069248080253601,
      1.0690879821777344,
      2.850313663482666,
      -1.0601731538772583,
      1.0610586404800415,
      1.0493800640106201,
      2.8438565731048584,
      1.060524821281433,
      2.8729970455169678,
      1.0572632551193237,
      -1.0672394037246704,
      -1.0645800828933716,
      -1.0573281049728394,
      1.060606837272644,
      1.0692676305770874,
      1.080093264579773,
      1.0653873682022095,
      1.0528417825698853,
      -2.961665153503418,
      -1.0638436079025269,
      1.0645713806152344,
      -1.0431101322174072,
      -1.06190824508667,
      1.0485578775405884,
      1.0524346828460693,
      2.8321542739868164,
      1.0746818780899048,
      2.865267038345337,
      -1.0554817914962769,
      1.0466102361679077,
      1.0551691055297852,
      -1.0700302124023438,
      1.0653411149978638,
      1.049180507659912,
      2.9020864963531494,
      -1.0603920221328735,
      1.0563626289367676,
      -1.0655744075775146,
      1.0620570182800293,
      1.0736496448516846,
      -2.8380894660949707,
      -1.0650569200515747,
      -1.0625176429748535,
      1.0427979230880737,
      -1.0697813034057617,
      1.0686817169189453,
      2.8576903343200684,
      -1.058544635772705,
      1.0613938570022583,
      1.0526384115219116,
      2.8420474529266357,
      1.0615297555923462,
      2.871951103210449,
      1.0581172704696655,
      -1.0581588745117188,
      -1.0674028396606445,
      -1.0574578046798706,
      1.0607620477676392,
      1.0689332485198975
    ],
    [
      1.4751242399215698,
      -1.9764089584350586,
      -0.9090180993080139,
      -0.9605460166931152,
      0.924845814704895,
      -0.9376077055931091,
      0.9015290141105652,
      2.3033323287963867,
      -0.8845357894897461,
      0.924263060092926,
      0.9321439266204834,
      2.2126474380493164,
      0.9408167600631714,
      2.5940654277801514,
      0.8878610134124756,
      -0.8805955052375793,
      -0.8941811919212341,
      -0.9327952861785889,
      0.8983668088912964,
      0.9115292429924011,
      0.9193375706672668,
      0.8876104950904846,
      0.9101354479789734,
      -2.3831593990325928,
      -0.9092043042182922,
      0.8716597557067871,
      -0.9278343915939331,
      -0.9052051305770874,
      0.9307445287704468,
      0.9165902733802795,
      2.2425265312194824,
      0.9346280694007874,
      2.1000115871429443,
      -0.8897737264633179,
      0.995375394821167,
      0.9988046884536743,
      -0.9647224545478821,
      0.9112499952316284,
      0.9440705180168152,
      2.686306953430176,
      -0.88422691822052,
      0.9611703753471375,
      -0.9042921662330627,
      0.8990333080291748,
      0.9240414500236511,
      -1.975852131843567,
      -0.9095698595046997,
      -0.9627882838249207,
      0.9233438968658447,
      -0.934903085231781,
      0.899962306022644,
      2.071716547012329,
      -0.8979135751724243,
      0.9238605499267578,
      0.9283745884895325,
      2.2097363471984863,
      0.9418748021125793,
      2.5726120471954346,
      0.8806697130203247,
      -0.8929158449172974,
      -0.8888879418373108,
      -0.9341884851455688,
      0.8986701369285583,
      0.9095355868339539
    ],
    [
      -2.1424477100372314,
      2.3497393131256104,
      -0.2393011897802353,
      -0.23859913647174835,
      0.2506871223449707,
      -0.24110065400600433,
      0.22964775562286377,
      -2.536329507827759,
      -0.2242327481508255,
      0.23238804936408997,
      0.24124811589717865,
      -2.47434401512146,
      0.24596910178661346,
      -2.662993907928467,
      0.1686156839132309,
      -0.2203110158443451,
      -0.18641796708106995,
      -0.24228306114673615,
      0.24335458874702454,
      0.23602770268917084,
      0.25312966108322144,
      0.211228147149086,
      0.2378031313419342,
      2.605513572692871,
      -0.24244371056556702,
      0.23495540022850037,
      -0.23961925506591797,
      -0.23372462391853333,
      0.22793300449848175,
      0.23925548791885376,
      -2.4825220108032227,
      0.24114522337913513,
      -2.434407949447632,
      -0.18909896910190582,
      0.23070432245731354,
      0.2576161026954651,
      -0.25054797530174255,
      0.24457992613315582,
      0.10466985404491425,
      -2.715564489364624,
      -0.2437288761138916,
      0.23884084820747375,
      -0.23962290585041046,
      0.24164928495883942,
      0.24007654190063477,
      2.3498494625091553,
      -0.24001659452915192,
      -0.23893176019191742,
      0.25579139590263367,
      -0.24091356992721558,
      0.22941707074642181,
      -2.41987681388855,
      -0.21573439240455627,
      0.2319067418575287,
      0.23934844136238098,
      -2.4722602367401123,
      0.24564380943775177,
      -2.655121326446533,
      0.1769583821296692,
      -0.17470666766166687,
      -0.20558181405067444,
      -0.24248850345611572,
      0.24355548620224,
      0.22368837893009186
    ],
    [
      -2.146944522857666,
      2.4300899505615234,
      -0.5639219284057617,
      -0.6379913091659546,
      0.6106095314025879,
      -0.606117844581604,
      0.5336483120918274,
      -2.624659776687622,
      -0.5503610968589783,
      0.5759566426277161,
      0.5741060376167297,
      -2.5850467681884766,
      0.6092218160629272,
      -2.8548026084899902,
      0.5079913139343262,
      -0.5124631524085999,
      -0.5176311135292053,
      -0.587489664554596,
      0.557736337184906,
      0.5678912997245789,
      0.6030030846595764,
      0.531190037727356,
      0.5607864260673523,
      2.752359628677368,
      -0.5771320462226868,
      0.5208879113197327,
      -0.5654245018959045,
      -0.5600462555885315,
      0.5642247796058655,
      0.5681227445602417,
      -2.6008687019348145,
      0.5962193012237549,
      -2.4964616298675537,
      -0.5210486650466919,
      0.668457567691803,
      0.6489288806915283,
      -0.6410669088363647,
      0.5723708868026733,
      0.5286789536476135,
      -2.9481184482574463,
      -0.5483211874961853,
      0.6112232208251953,
      -0.553695559501648,
      0.5622368454933167,
      0.5970027446746826,
      2.4291021823883057,
      -0.5650850534439087,
      -0.6384439468383789,
      0.6165173649787903,
      -0.602541983127594,
      0.530987560749054,
      -2.4751076698303223,
      -0.540212869644165,
      0.5738784074783325,
      0.5700161457061768,
      -2.5822932720184326,
      0.6101011633872986,
      -2.836317539215088,
      0.5084099173545837,
      -0.4957222044467926,
      -0.5279840230941772,
      -0.5893435478210449,
      0.5578994154930115,
      0.5524992346763611
    ],
    [
      -8.579615592956543,
      8.577879905700684,
      -0.6603577136993408,
      -0.5923236608505249,
      0.6527674198150635,
      -0.5820136666297913,
      0.660930871963501,
      -8.58619213104248,
      -0.6722379326820374,
      0.657123863697052,
      0.6819128394126892,
      -8.615330696105957,
      0.6928524374961853,
      -8.60084342956543,
      0.717425525188446,
      -0.6913971304893494,
      -0.6889926791191101,
      -0.6740862131118774,
      0.6605348587036133,
      0.642294704914093,
      0.5575112104415894,
      0.6783745288848877,
      0.6602378487586975,
      8.318625450134277,
      -0.6544422507286072,
      0.6710700392723083,
      -0.6913149356842041,
      -0.6570907235145569,
      0.7015030980110168,
      0.666935920715332,
      -8.643657684326172,
      0.6535806655883789,
      -8.606350898742676,
      -0.6791729927062988,
      0.5434755086898804,
      0.523087203502655,
      -0.5282100439071655,
      0.6664043664932251,
      0.7291532754898071,
      -8.578186988830566,
      -0.6980886459350586,
      0.6182466745376587,
      -0.6525548100471497,
      0.6649081707000732,
      0.6383877992630005,
      8.576590538024902,
      -0.6612508893013,
      -0.5916625261306763,
      0.6685789823532104,
      -0.5929434895515442,
      0.6603415012359619,
      -8.57097339630127,
      -0.6697945594787598,
      0.6562603712081909,
      0.6729921102523804,
      -8.624617576599121,
      0.6831382513046265,
      -8.598432540893555,
      0.7258580923080444,
      -0.720848560333252,
      -0.6782093644142151,
      -0.6745133399963379,
      0.6601012349128723,
      0.6485052108764648
    ],
    [
      3.192279100418091,
      -3.093583822250366,
      -0.7508657574653625,
      -0.7457652688026428,
      0.7339844107627869,
      -0.7489861249923706,
      0.7356117963790894,
      3.0747721195220947,
      -0.7515823245048523,
      0.7413821816444397,
      0.7441178560256958,
      3.091569423675537,
      0.7540460228919983,
      3.102374792098999,
      0.7521557211875916,
      -0.739258348941803,
      -0.7341412305831909,
      -0.7288616299629211,
      0.748080313205719,
      0.7494311332702637,
      0.7448990941047668,
      0.7368780374526978,
      0.7436444759368896,
      -3.226400375366211,
      -0.7463750839233398,
      0.7376109957695007,
      -0.7526265382766724,
      -0.7543764710426331,
      0.7364727854728699,
      0.7385895848274231,
      3.0706276893615723,
      0.7412839531898499,
      3.0895729064941406,
      -0.7281053066253662,
      0.7408122420310974,
      0.7489880323410034,
      -0.7301733493804932,
      0.7519547939300537,
      0.7438411712646484,
      3.1622424125671387,
      -0.7392279505729675,
      0.7447012662887573,
      -0.7424477338790894,
      0.7443807721138,
      0.7380604147911072,
      -3.09122371673584,
      -0.7499986290931702,
      -0.7454644441604614,
      0.7333627939224243,
      -0.747988760471344,
      0.7352333664894104,
      3.080620765686035,
      -0.7511614561080933,
      0.740066409111023,
      0.7444532513618469,
      3.0878608226776123,
      0.7536247968673706,
      3.099959373474121,
      0.7529776692390442,
      -0.7354496717453003,
      -0.7347638607025146,
      -0.7279794216156006,
      0.7486847639083862,
      0.7507371306419373
    ],
    [
      3.509822368621826,
      -3.35813570022583,
      -0.6958970427513123,
      -0.698468029499054,
      0.6979748010635376,
      -0.7153176069259644,
      0.6909616589546204,
      3.3392250537872314,
      -0.698243260383606,
      0.6933797597885132,
      0.705567479133606,
      3.3676235675811768,
      0.6991899013519287,
      3.3509340286254883,
      0.6772503852844238,
      -0.7099165320396423,
      -0.6938990354537964,
      -0.6910462975502014,
      0.7055726051330566,
      0.708212673664093,
      0.7144726514816284,
      0.7028464078903198,
      0.6946036219596863,
      -3.4688892364501953,
      -0.7059691548347473,
      0.6941967010498047,
      -0.6888948082923889,
      -0.6939667463302612,
      0.7033159136772156,
      0.7043996453285217,
      3.3476061820983887,
      0.7001452445983887,
      3.3594970703125,
      -0.7029603719711304,
      0.6873753070831299,
      0.7016276717185974,
      -0.6924921274185181,
      0.7110421061515808,
      0.6788222193717957,
      3.366553783416748,
      -0.7074958682060242,
      0.6975800395011902,
      -0.7058650255203247,
      0.702408492565155,
      0.7096300721168518,
      -3.3559365272521973,
      -0.6966831088066101,
      -0.6980387568473816,
      0.6917678117752075,
      -0.7158241868019104,
      0.6910871267318726,
      3.356360673904419,
      -0.6979847550392151,
      0.713768482208252,
      0.7082228064537048,
      3.364948272705078,
      0.6984162926673889,
      3.3503153324127197,
      0.6803139448165894,
      -0.6988173127174377,
      -0.6961991190910339,
      -0.6898064613342285,
      0.7061629891395569,
      0.7063614726066589
    ],
    [
      2.9706318378448486,
      -2.850515365600586,
      -1.0753037929534912,
      -1.0512373447418213,
      1.066401720046997,
      -1.0741313695907593,
      1.0573171377182007,
      2.8496205806732178,
      -1.0617544651031494,
      1.0565663576126099,
      1.0597214698791504,
      2.859048366546631,
      1.0531151294708252,
      2.8542065620422363,
      1.0565673112869263,
      -1.057163119316101,
      -1.0628725290298462,
      -1.0547325611114502,
      1.0684313774108887,
      1.0623418092727661,
      1.0617811679840088,
      1.066182255744934,
      1.0710482597351074,
      -2.956162691116333,
      -1.0712428092956543,
      1.0630383491516113,
      -1.045710563659668,
      -1.0727202892303467,
      1.0505927801132202,
      1.0717458724975586,
      2.8380379676818848,
      1.059194803237915,
      2.8563344478607178,
      -1.0510951280593872,
      1.047013521194458,
      1.0565298795700073,
      -1.057244896888733,
      1.0690749883651733,
      1.0312433242797852,
      2.890361785888672,
      -1.0492541790008545,
      1.067010760307312,
      -1.0672544240951538,
      1.0632903575897217,
      1.0747287273406982,
      -2.8513011932373047,
      -1.0746465921401978,
      -1.0482174158096313,
      1.0587528944015503,
      -1.0756587982177734,
      1.0580333471298218,
      2.857485055923462,
      -1.0613529682159424,
      1.0569920539855957,
      1.0643837451934814,
      2.8567376136779785,
      1.0526584386825562,
      2.8538665771484375,
      1.0586464405059814,
      -1.0489616394042969,
      -1.0664325952529907,
      -1.0537021160125732,
      1.0688248872756958,
      1.0605382919311523
    ],
    [
      2.9648640155792236,
      -2.8551430702209473,
      -1.0567076206207275,
      -1.0666497945785522,
      1.067457914352417,
      -1.072039008140564,
      1.0641975402832031,
      2.8429629802703857,
      -1.0705808401107788,
      1.0754226446151733,
      1.049387812614441,
      2.858480930328369,
      1.0494388341903687,
      2.8663954734802246,
      1.0516502857208252,
      -1.0692684650421143,
      -1.046921968460083,
      -1.0595999956130981,
      1.0688636302947998,
      1.0521467924118042,
      1.076565146446228,
      1.0646804571151733,
      1.0579149723052979,
      -2.9456593990325928,
      -1.0718103647232056,
      1.0669316053390503,
      -1.0615532398223877,
      -1.0583910942077637,
      1.0527371168136597,
      1.0605452060699463,
      2.8418495655059814,
      1.060629963874817,
      2.865196943283081,
      -1.0702929496765137,
      1.0583280324935913,
      1.0610374212265015,
      -1.0636926889419556,
      1.0665769577026367,
      1.031992793083191,
      2.904222249984741,
      -1.0687018632888794,
      1.073965311050415,
      -1.0627741813659668,
      1.0634653568267822,
      1.0677719116210938,
      -2.8534653186798096,
      -1.057321310043335,
      -1.0648273229599,
      1.061549186706543,
      -1.0739843845367432,
      1.0652002096176147,
      2.8488006591796875,
      -1.067481279373169,
      1.0750806331634521,
      1.0528334379196167,
      2.8570010662078857,
      1.0492253303527832,
      2.866781234741211,
      1.0510499477386475,
      -1.058576226234436,
      -1.0507354736328125,
      -1.0593960285186768,
      1.0690618753433228,
      1.050894856452942
    ],
    [
      2.460296630859375,
      -2.341838836669922,
      -0.7555264234542847,
      -0.7254074215888977,
      0.7421917915344238,
      -0.7536175847053528,
      0.7536322474479675,
      2.328961133956909,
      -0.7272030711174011,
      0.7468989491462708,
      0.7492502331733704,
      2.35298228263855,
      0.7458809018135071,
      2.335925579071045,
      0.7028249502182007,
      -0.7361473441123962,
      -0.7202979922294617,
      -0.7462689280509949,
      0.7520833015441895,
      0.7404375076293945,
      0.7485949993133545,
      0.7260360717773438,
      0.7428112030029297,
      -2.458691120147705,
      -0.7496926188468933,
      0.7394692897796631,
      -0.7450218796730042,
      -0.7497013211250305,
      0.7539087533950806,
      0.7414425015449524,
      2.3301451206207275,
      0.7515038251876831,
      2.3508317470550537,
      -0.7232065200805664,
      0.7332984209060669,
      0.7705191373825073,
      -0.7620406746864319,
      0.7489960789680481,
      0.6929630637168884,
      2.3744022846221924,
      -0.7293741106987,
      0.7491504549980164,
      -0.7420057654380798,
      0.7354399561882019,
      0.7420785427093506,
      -2.339648962020874,
      -0.754909336566925,
      -0.7285507917404175,
      0.7394397258758545,
      -0.7538899779319763,
      0.7539570927619934,
      2.345435380935669,
      -0.7298986911773682,
      0.7479137778282166,
      0.7499848008155823,
      2.350160837173462,
      0.7466340065002441,
      2.3343613147735596,
      0.7033747434616089,
      -0.7163648009300232,
      -0.7246488332748413,
      -0.74704909324646,
      0.752487301826477,
      0.7397724390029907
    ],
    [
      3.829200506210327,
      -3.754121780395508,
      -0.8062761425971985,
      -0.8047489523887634,
      0.7999030947685242,
      -0.812212347984314,
      0.8221815228462219,
      3.7906529903411865,
      -0.8268004059791565,
      0.8141862154006958,
      0.8210825324058533,
      3.779294490814209,
      0.8096067905426025,
      3.8531205654144287,
      0.8264355659484863,
      -0.8198304176330566,
      -0.825495719909668,
      -0.8012720942497253,
      0.8200464844703674,
      0.8142127990722656,
      0.8162380456924438,
      0.809253454208374,
      0.8222293853759766,
      -4.015598773956299,
      -0.8223749995231628,
      0.812947690486908,
      -0.7991545796394348,
      -0.8136765360832214,
      0.7996992468833923,
      0.8131222724914551,
      3.7779428958892822,
      0.8171811699867249,
      3.758514404296875,
      -0.8060893416404724,
      0.8169565200805664,
      0.8223326206207275,
      -0.8159199357032776,
      0.8112127184867859,
      0.8229141235351562,
      3.9700446128845215,
      -0.8221251368522644,
      0.8080733418464661,
      -0.8050209879875183,
      0.8161467909812927,
      0.8057643175125122,
      -3.7549397945404053,
      -0.8063485026359558,
      -0.8006169199943542,
      0.7945812940597534,
      -0.8134164214134216,
      0.8218232989311218,
      3.7680840492248535,
      -0.8239551186561584,
      0.8123165965080261,
      0.8224623799324036,
      3.7778451442718506,
      0.8098598122596741,
      3.8450400829315186,
      0.8231008052825928,
      -0.8163480162620544,
      -0.8254134654998779,
      -0.8025028109550476,
      0.8197662234306335,
      0.816926896572113
    ],
    [
      3.1898891925811768,
      -3.1209609508514404,
      -0.8221049308776855,
      -0.825501024723053,
      0.8114785552024841,
      -0.811989963054657,
      0.8205379843711853,
      3.0995442867279053,
      -0.8084911108016968,
      0.8213350772857666,
      0.8075969815254211,
      3.0994060039520264,
      0.8036068081855774,
      3.0827479362487793,
      0.8144974112510681,
      -0.8229060769081116,
      -0.8143295645713806,
      -0.7978496551513672,
      0.8191090822219849,
      0.8196089267730713,
      0.8162156939506531,
      0.8055216670036316,
      0.8106314539909363,
      -3.1953556537628174,
      -0.8220089077949524,
      0.8063389658927917,
      -0.8094058036804199,
      -0.8128620982170105,
      0.8110310435295105,
      0.8211889266967773,
      3.1060383319854736,
      0.824440598487854,
      3.1002840995788574,
      -0.8195237517356873,
      0.7962232232093811,
      0.8020709156990051,
      -0.8161441087722778,
      0.8081253170967102,
      0.8185092210769653,
      3.138392210006714,
      -0.8062567114830017,
      0.8224141001701355,
      -0.8079168796539307,
      0.8161682486534119,
      0.8265979886054993,
      -3.120633602142334,
      -0.8220763802528381,
      -0.8260624408721924,
      0.8037054538726807,
      -0.8137016892433167,
      0.8189897537231445,
      3.113065242767334,
      -0.8068678379058838,
      0.8223263025283813,
      0.8132675290107727,
      3.099933624267578,
      0.8048198223114014,
      3.0815680027008057,
      0.8031861186027527,
      -0.8252701759338379,
      -0.8155419230461121,
      -0.7988163232803345,
      0.8184453845024109,
      0.8202566504478455
    ]
  ],
  "metadata": {
    "advantage_baseline": "category",
    "advantage_clip": 5.0,
    "advantage_mean": 2.872815720261724e-17,
    "advantage_std": 8.163662700052392,
    "categories": [
      "airplane",
      "chair",
      "table"
    ],
    "device": "cpu",
    "entropy_coef": 0.01,
    "epochs": 800,
    "fallback_min_reward": 0.0,
    "hidden_size": 64,
    "l2": 0.0001,
    "learning_rate": 0.01,
    "logit_scale": 0.013606930864308777,
    "max_logit_abs": 8.0,
    "meshes": [
      "1006be65e7bc937e9141f9b58470d646",
      "1007e20d5e811b308351982a6e40cf41",
      "100b18376b885f206ae9ad7e32c4139d",
      "1011e1c9812b84d2a9ed7bb5b55809f8",
      "10139657dfa9afe0c3bd24f986301745",
      "1013f70851210a618f2e765c4a8ed3d",
      "10155655850468db78d106ce0a280f87",
      "1015e71a0d21b127de03ab2a27ba7531",
      "1016f4debe988507589aae130c1f06fb",
      "1021a0914a7207aff927ed529ad90a11",
      "1026dd1b26120799107f68a9cb8e3c",
      "1028a9cbaa7a333230bbd4cddd04c77b",
      "1028b32dc1873c2afe26a3ac360dbd4",
      "102f0532f9f8bbcdcb503f63ed915ed2",
      "1033ee86cc8bac4390962e4fb7072b86",
      "1033f41fd2decfa938da3ea2c9e0e4f",
      "103a0a413d4c3353a723872ad91e4ed1",
      "103a60f3b09107df2da1314e036b435e",
      "103ad97126bc54f4fc5e9e325e1bd5b8",
      "103b75dfd146976563ed57e35c972b4b",
      "103c31671f8c0b1467bb14b25f99796e",
      "103c9e43cdf6501c62b600da24e0965",
      "103d77d63f0d68a044e6721e9db29c1b",
      "1040cd764facf6981190e285a2cbc9c",
      "104256e5bb73b0b719fb4103277a6b93",
      "1049953406c81b237eaeab1f0c9120b7",
      "104c5225ef0a288ff932326d9778e21b",
      "104c8e90ecf0e5351ed672982b7954af",
      "10506aab1adfe9f4eb7b988bf4f0d1ef",
      "105b9a03ddfaf5c5e7828dbf1991f6a4",
      "105f53a6471f3ceb4a420e3c1b966720",
      "105f7f51e4140ee4b6b87e72ead132ed",
      "1063d4fcd366de4060e37b3f76995f8b",
      "10657fcfce1d326b30bbd4cddd04c77b",
      "1066b65c30d153e04c3a35cee92bb95b",
      "106a0dbaead5066519fb4103277a6b93",
      "106c7f10c5bf5bd5f51f77a6d7299806",
      "106dfe858cb8fbc2afc6b80d80a265ab",
      "106e9487a1d47ff1a09cb462b3e723e2",
      "10709332176024ce9e47e7a22e24daa3",
      "10733a711fe254965d7786e1df78254f",
      "1079635b3da12a812cee4bf5d0f11ffe",
      "107caefdad02cf1c8ab8e68cb52baa6a",
      "107ed94869ed6f1be13496cd332ce78f",
      "108238b535eb293cd79b19c7c4f0e293",
      "1093d35c2ac73bb74ca84d60642ec7e8",
      "1096b4a30bd7717c4733824eae5cd9ae",
      "109738784a0a6129a02c88fe01f2b9c1",
      "10991b3b01cc6cc99982a4d6320875e",
      "109a8d453ce93a6fc21b51dd4113da62",
      "10a4e263f8087c4b8cf2bc41970d572a",
      "10aa040f470500c6a66ef8df4909ded9",
      "10af5de930178a161596c26b5af806fe",
      "10b0d655bf4938eae1ab19b3beff6716",
      "10b5723ea035cb047464e25da6d2e90",
      "10b6147009cbc17ec25cfdac7cd67ea3",
      "10bb44a54a12a74e4719088c8e42c6ab",
      "10c0eecb17d1bac64b3c42e318f3affc",
      "10c25bdfea5eccfd153555abe935e806",
      "10c7cdfdffe2243b88a89a28f04ce622",
      "10ca7bfe736d81b64b3c42e318f3affc",
      "10cc8c941fc8aeaa71a782a4379556c7",
      "10cd74fb0af8021fbf7cf6012a0af9fc",
      "10cfc2090a2ade124c3a35cee92bb95b",
      "10db820f0e20396a492c7ca609cb0182",
      "10e0a7255d279a419751c7a6f15617f4",
      "10e4331c34d610dacc14f1e6f4f4f49b",
      "10eeb119fd5508e0d6d949577c389a84",
      "110f6dbf0e6216e9f9a63e9a8c332e52",
      "112ca5420188df4bd90bfc986bc4c94d",
      "1169d987dbbce76775f4ea0b85a53249",
      "117830993cc5887726587cb13c78fb9b",
      "117861b9ebca4f17c69cb28fb4b4d257",
      "118e8142a8cb1fe19a4a28ef635593ce",
      "11b7c86fc42306ec7e7e25239e7b8f85",
      "11d2af04fad0a7e2ce19d55bc5e6a406",
      "11def84f9fe8ab0acd726e804e5d7a",
      "1203825bf97bc3524722e1824a086fad",
      "123bd9e948881939c38a1d3458dafa1b",
      "12877bdca58ccbea402991f646f01d6c",
      "13370c42b8ea45cf5e8172e6d9ae84ff",
      "1692563658149377630047043c6a0c50",
      "16f603525c5ce57b23f7198a00163bb6",
      "16fa03bfc61770652c5d34a902e568f9",
      "17883ea5a837f5731250f48219951972",
      "17c2d3e052dfe73f9cc1fc25372199f",
      "1804dd6f5c827c1a4bf8d5f43e57b138",
      "18806a80387734b754c7b6e11bf7148d",
      "18be1556eb4da5af7ccf848ce05c84be",
      "194fd39afab11888b84c578d4c100fe6",
      "196d35794f869816db6f03b6829a5891",
      "1998ee1bf3806b05818b286e41cc1a3f",
      "19a624cf1037fc75cda1835f53ae7d53",
      "19c8189116dd7cd3e95c611687989498",
      "1a00aa6b75362cc5b324368d54a7416f",
      "1a96d308eef57195efaa61516f88b67",
      "1ac6531a337de85f2f7628d6bf38bcc4",
      "1b78b8e14a21439afab04609f4609e83",
      "1c3310f4c05ce1f6a192483aa282f8e5",
      "1c45b266d3c879dab36dcc661f3905d",
      "1cb2fe52097b5304217ffa735084910f",
      "1cd6a00b71f02b06430c2c15987e4cd",
      "1ce5b9a79420e946bff7790df3158906",
      "1ee30d218c8c730ecb01bc908e8cea6",
      "1f3fd9b2ce99e4ed164ee3a88aef3755",
      "1f5537f4747ec847622c69c3abc6f80",
      "2066f1830765183544bb6b89d63deb6f",
      "20dbfa169424bb8ed7b90ecb4a11cd32",
      "22e4e0210f80fae813940713146922c1",
      "23acbdfee13b407ce42d6c2ea750090e",
      "240136d2ae7d2dec9fe69c7ccc27d2bf",
      "24445a532ce3e18f7b5f4d129cc2873d",
      "24fdf6e5090bc3442370db05a58bf9c6",
      "2581685a8aeff78b713decb1a0563b12",
      "2592e69aaa2344292463e74275a0e3c",
      "25ad35439836dd7c8fc307d246c19849",
      "260305219d81f745623cba1f26a8e885",
      "2718b1d46ca52df052bfb1d5ec273240",
      "2724c02bc7797bd1486150a9b7f2cf18"
    ],
    "min_reward": -1e+18,
    "model_type": "offline_rl_mlp",
    "num_meshes": 119,
    "pre_scale_max_abs_logit": 587.9356689453125,
    "records_seen": 10502,
    "records_used": 10502,
    "reward_mean": -0.0010264983445743684,
    "smoothing": 1.0,
    "source": "smart.action_prior.build_rl_mlp_action_prior_from_traces",
    "torch_version": "2.8.0",
    "trace_file_list": "runs/bench_exact/priors/all_available_trace_files_20260514.txt",
    "trace_files": [
      "runs/bench_exact/action_prior_generalization_expanded2_mlp_smoke/airplane_123bd9e948881939c38a1d3458dafa1b.trace.jsonl",
      "runs/bench_exact/action_prior_generalization_expanded2_mlp_smoke/airplane_12877bdca58ccbea402991f646f01d6c.trace.jsonl",
      "runs/bench_exact/action_prior_generalization_smoke3/airplane_1f5537f4747ec847622c69c3abc6f80.trace.jsonl",
      "runs/bench_exact/action_prior_generalization_smoke3/airplane_260305219d81f745623cba1f26a8e885.trace.jsonl",
      "runs/bench_exact/action_prior_generalization_smoke3/chair_11b7c86fc42306ec7e7e25239e7b8f85.trace.jsonl",
      "runs/bench_exact/action_prior_generalization_smoke3_smallw/airplane_1f5537f4747ec847622c69c3abc6f80.trace.jsonl",
      "runs/bench_exact/action_prior_generalization_smoke3_smallw/airplane_260305219d81f745623cba1f26a8e885.trace.jsonl",
      "runs/bench_exact/action_prior_generalization_smoke3_smallw/chair_11b7c86fc42306ec7e7e25239e7b8f85.trace.jsonl",
      "runs/bench_exact/action_prior_generalization_smoke5_w01/airplane_1f5537f4747ec847622c69c3abc6f80.trace.jsonl",
      "runs/bench_exact/action_prior_generalization_smoke5_w01/airplane_260305219d81f745623cba1f26a8e885.trace.jsonl",
      "runs/bench_exact/action_prior_generalization_smoke5_w01/chair_11b7c86fc42306ec7e7e25239e7b8f85.trace.jsonl",
      "runs/bench_exact/action_prior_generalization_smoke5_w01/chair_17883ea5a837f5731250f48219951972.trace.jsonl",
      "runs/bench_exact/action_prior_generalization_smoke5_w01/table_1692563658149377630047043c6a0c50.trace.jsonl",
      "runs/bench_exact/action_prior_linear_airplane2_mcts2/airplane_123bd9e948881939c38a1d3458dafa1b.trace.jsonl",
      "runs/bench_exact/action_prior_linear_airplane2_mcts2/airplane_12877bdca58ccbea402991f646f01d6c.trace.jsonl",
      "runs/bench_exact/action_prior_linear_smoke3_mcts5/airplane_123bd9e948881939c38a1d3458dafa1b.trace.jsonl",
      "runs/bench_exact/action_prior_linear_smoke3_mcts5/airplane_12877bdca58ccbea402991f646f01d6c.trace.jsonl",
      "runs/bench_exact/action_prior_linear_smoke3_mcts5/airplane_13370c42b8ea45cf5e8172e6d9ae84ff.trace.jsonl",
      "runs/bench_exact/action_prior_mlp_airplane2_mcts2/airplane_123bd9e948881939c38a1d3458dafa1b.trace.jsonl",
      "runs/bench_exact/action_prior_mlp_airplane2_mcts2/airplane_12877bdca58ccbea402991f646f01d6c.trace.jsonl",
      "runs/bench_exact/action_prior_puct_linear_airplane1_mcts2/airplane_123bd9e948881939c38a1d3458dafa1b.trace.jsonl",
      "runs/bench_exact/action_prior_puct_linear_airplane2_mcts2/airplane_123bd9e948881939c38a1d3458dafa1b.trace.jsonl",
      "runs/bench_exact/action_prior_puct_linear_airplane2_mcts2/airplane_12877bdca58ccbea402991f646f01d6c.trace.jsonl",
      "runs/bench_exact/airplane_mcts10_action_prior_sweep.trace.jsonl",
      "runs/bench_exact/airplane_mcts20_action_prior_actionlogits_sweep.trace.jsonl",
      "runs/bench_exact/airplane_mcts20_action_prior_sweep.trace.jsonl",
      "runs/bench_exact/airplane_mcts20_action_prior_tt_sweep.trace.jsonl",
      "runs/bench_exact/debug_unscored_base20_fresh.jsonl",
      "runs/bench_exact/debug_unscored_base5.jsonl",
      "runs/bench_exact/debug_unscored_opt20.jsonl",
      "runs/bench_exact/debug_unscored_opt5.jsonl",
      "runs/bench_exact/table_mcts_trace_for_prior.jsonl",
      "runs/bench_exact/trace_collection/expanded_full_cat20_20260514_airplane_batch001.jsonl",
      "runs/bench_exact/trace_collection/expanded_full_cat20_20260514_airplane_batch002.jsonl",
      "runs/bench_exact/trace_collection/expanded_full_cat20_20260514_airplane_batch003.jsonl",
      "runs/bench_exact/trace_collection/expanded_full_cat20_20260514_airplane_batch004.jsonl",
      "runs/bench_exact/trace_collection/expanded_full_cat20_20260514_chair_batch001.jsonl",
      "runs/bench_exact/trace_collection/expanded_full_cat20_20260514_chair_batch002.jsonl",
      "runs/bench_exact/trace_collection/expanded_full_cat20_20260514_chair_batch003.jsonl",
      "runs/bench_exact/trace_collection/expanded_full_cat20_20260514_chair_batch004.jsonl",
      "runs/bench_exact/trace_collection/expanded_full_cat20_20260514_chair_batch005.jsonl",
      "runs/bench_exact/trace_collection/expanded_full_cat20_20260514_table_batch001.jsonl",
      "runs/bench_exact/trace_collection/expanded_full_cat20_20260514_table_batch002.jsonl",
      "runs/bench_exact/trace_collection/expanded_full_cat20_20260514_table_batch003.jsonl",
      "runs/bench_exact/trace_collection/expanded_full_cat20_20260514_table_batch004.jsonl",
      "runs/bench_exact/trace_collection/expanded_full_cat20_20260514_table_batch005.jsonl",
      "runs/bench_exact/trace_collection/expanded_full_next_20260514_airplane_batch001.jsonl",
      "runs/bench_exact/trace_collection/expanded_full_next_20260514_chair_batch001.jsonl",
      "runs/bench_exact/trace_collection/expanded_full_next_20260514_table_batch001.jsonl",
      "runs/bench_exact/trace_collection/expanded_more_20260514_airplane_batch001.jsonl",
      "runs/bench_exact/trace_collection/expanded_more_20260514_chair_batch001.jsonl",
      "runs/bench_exact/trace_collection/expanded_more_20260514_table_batch001.jsonl",
      "runs/bench_exact/trace_collection/shapenet_v1_first_20260514_airplane_batch001.jsonl",
      "runs/bench_exact/trace_collection/shapenet_v1_first_20260514_chair_batch001.jsonl",
      "runs/bench_exact/trace_collection/shapenet_v1_first_20260514_table_batch001.jsonl",
      "runs/bench_exact/traces/airplane_mcts20_trace.jsonl",
      "runs/bench_exact/traces/mcts_airplane_1f5537f474_manifold.jsonl",
      "runs/bench_exact/traces/mcts_airplane_1f5537f474_manifold_stateful.jsonl",
      "runs/bench_exact/traces/mcts_airplane_260305219d_manifold.jsonl",
      "runs/bench_exact/traces/mcts_airplane_260305219d_manifold_stateful.jsonl",
      "runs/bench_exact/traces/mcts_chair_11b7c86fc4_manifold.jsonl",
      "runs/bench_exact/traces/mcts_chair_11b7c86fc4_manifold_stateful.jsonl",
      "runs/bench_exact/traces/mcts_chair_17883ea5a8_manifold.jsonl",
      "runs/bench_exact/traces/mcts_chair_17883ea5a8_manifold_stateful.jsonl",
      "runs/bench_exact/traces/mcts_table_1692563658_manifold.jsonl",
      "runs/bench_exact/traces/mcts_table_1692563658_manifold_stateful.jsonl",
      "runs/bench_exact/traces/trace_chair_11b7_baseline.jsonl",
      "runs/bench_exact/traces/trace_chair_11b7_stateful_python.jsonl",
      "runs/bench_exact/traces_expanded_batch2_airplane5_mcts20.jsonl",
      "runs/bench_exact/traces_expanded_batch2_chair5_mcts20.jsonl",
      "runs/bench_exact/traces_expanded_batch2_table5_mcts20.jsonl",
      "runs/bench_exact/traces_expanded_batch2_table_replacement_mcts20.jsonl",
      "runs/bench_exact/traces_expanded_batch_airplane5_mcts20.jsonl",
      "runs/bench_exact/traces_expanded_batch_chair5_mcts20.jsonl",
      "runs/bench_exact/traces_expanded_batch_table5_mcts20.jsonl",
      "runs/bench_exact/traces_properties/mcts_airplane_123bd9e948_manifold.jsonl",
      "runs/bench_exact/traces_properties/mcts_airplane_123bd9e948_manifold_stateful.jsonl",
      "runs/bench_exact/traces_properties/mcts_airplane_123bd9e948_manifold_stateful_properties.jsonl",
      "runs/bench_exact/traces_properties/schema_v2_probe.jsonl"
    ],
    "trainer_backend": "torch",
    "wall_time_sec": 4.076937913894653
  },
  "num_action_scale": 2,
  "output_bias": [
    0.0733436644077301,
    -0.14384542405605316,
    0.07199238240718842,
    -0.1439598798751831,
    0.07239052653312683,
    -0.14405886828899384,
    -0.14385926723480225,
    0.07271640002727509,
    -0.1440017968416214,
    0.08274553716182709,
    -0.14414015412330627,
    0.07130102813243866,
    -0.1438828557729721
  ],
  "output_weights": [
    [
      0.10861850529909134,
      -0.11423256993293762,
      0.09101936966180801,
      -0.11536519974470139,
      0.0935049057006836,
      -0.11543036997318268,
      -0.11481447517871857,
      0.11060692369937897,
      -0.11559461802244186,
      0.13258785009384155,
      -0.11691243946552277,
      0.09001179784536362,
      -0.11299893260002136
    ],
    [
      -0.10860736668109894,
      0.11406859755516052,
      -0.09093853086233139,
      0.11530562490224838,
      -0.09304703027009964,
      0.11575348675251007,
      0.1147322729229927,
      -0.110438771545887,
      0.11556337028741837,
      -0.13283522427082062,
      0.1169077530503273,
      -0.08896762877702713,
      0.11327680200338364
    ],
    [
      -0.11154084652662277,
      0.11256987601518631,
      -0.11017799377441406,
      0.11236762255430222,
      -0.11055389791727066,
      0.11149325966835022,
      0.11266158521175385,
      -0.11069926619529724,
      0.11234298348426819,
      -0.12119411677122116,
      0.1109451875090599,
      -0.10963575541973114,
      0.11266328394412994
    ],
    [
      -0.11177485436201096,
      0.11274389177560806,
      -0.11052896082401276,
      0.11259789764881134,
      -0.11104375123977661,
      0.11193469911813736,
      0.1124887764453888,
      -0.1108098030090332,
      0.11283262819051743,
      -0.12213967740535736,
      0.1114141196012497,
      -0.11044840514659882,
      0.11313404887914658
    ],
    [
      0.1114855408668518,
      -0.112635537981987,
      0.11031156033277512,
      -0.11226978152990341,
      0.11095381528139114,
      -0.11165331304073334,
      -0.11291330307722092,
      0.11084852367639542,
      -0.1123923808336258,
      0.12172304093837738,
      -0.1111401841044426,
      0.10989637672901154,
      -0.11305778473615646
    ],
    [
      -0.11143990606069565,
      0.1127682626247406,
      -0.11029765009880066,
      0.112557552754879,
      -0.11081201583147049,
      0.11170744150876999,
      0.11278367787599564,
      -0.11068061739206314,
      0.11249962449073792,
      -0.12159280478954315,
      0.11112553626298904,
      -0.11019597947597504,
      0.112764373421669
    ],
    [
      0.1115965023636818,
      -0.11248914897441864,
      0.11008573323488235,
      -0.11247430741786957,
      0.11042680591344833,
      -0.11162851750850677,
      -0.11274726688861847,
      0.11093824356794357,
      -0.11232853680849075,
      0.12136375904083252,
      -0.11116396635770798,
      0.10961218923330307,
      -0.11283112317323685
    ],
    [
      0.10849819332361221,
      -0.11424102634191513,
      0.09097915887832642,
      -0.11515626311302185,
      0.092331662774086,
      -0.11574529856443405,
      -0.11447571218013763,
      0.1102972999215126,
      -0.11553005874156952,
      0.13273687660694122,
      -0.1166151612997055,
      0.08880261331796646,
      -0.11333056539297104
    ],
    [
      -0.1117250993847847,
      0.11267630010843277,
      -0.11020953953266144,
      0.11240821331739426,
      -0.11027505993843079,
      0.11147703975439072,
      0.11301189661026001,
      -0.11114656925201416,
      0.11264120042324066,
      -0.12134583294391632,
      0.11111710965633392,
      -0.10943520069122314,
      0.11267218738794327
    ],
    [
      0.11135613918304443,
      -0.11245889216661453,
      0.11015006899833679,
      -0.11241137981414795,
      0.11066089570522308,
      -0.1115899384021759,
      -0.11244701594114304,
      0.11077878624200821,
      -0.11251787841320038,
      0.12141212075948715,
      -0.11110905557870865,
      0.10981711745262146,
      -0.11275087296962738
    ],
    [
      0.11163442581892014,
      -0.11285589635372162,
      0.11066826432943344,
      -0.11239395290613174,
      0.1110958531498909,
      -0.11206516623497009,
      -0.11295538395643234,
      0.11123819649219513,
      -0.11265401542186737,
      0.12139823287725449,
      -0.11143499612808228,
      0.11046402901411057,
      -0.11291757225990295
    ],
    [
      0.1088007390499115,
      -0.11421217769384384,
      0.09090633690357208,
      -0.11522302031517029,
      0.09258979558944702,
      -0.1157260313630104,
      -0.11489346623420715,
      0.11042102426290512,
      -0.11523330956697464,
      0.13266970217227936,
      -0.11669237166643143,
      0.08905167132616043,
      -0.11299653351306915
    ],
    [
      0.11162342131137848,
      -0.11249688267707825,
      0.11053378880023956,
      -0.1126846969127655,
      0.11083115637302399,
      -0.11182652413845062,
      -0.11291734874248505,
      0.11074022203683853,
      -0.11291351169347763,
      0.12163970619440079,
      -0.11112824827432632,
      0.11019308865070343,
      -0.11296524852514267
    ],
    [
      0.10856154561042786,
      -0.1142149567604065,
      0.09058456867933273,
      -0.11510924994945526,
      0.09191721677780151,
      -0.11564125120639801,
      -0.11462196707725525,
      0.11035984754562378,
      -0.1152288019657135,
      0.1322866976261139,
      -0.11644137650728226,
      0.08805108815431595,
      -0.1128150150179863
    ],
    [
      0.11191417276859283,
      -0.1126081570982933,
      0.11041896790266037,
      -0.11295522004365921,
      0.11082735657691956,
      -0.11221666634082794,
      -0.11311844736337662,
      0.1117711141705513,
      -0.11274269968271255,
      0.12123873829841614,
      -0.11195041239261627,
      0.10973775386810303,
      -0.11297067254781723
    ],
    [
      -0.1117103099822998,
      0.11264057457447052,
      -0.11024361848831177,
      0.11244281381368637,
      -0.11051928997039795,
      0.11168574541807175,
      0.11286702752113342,
      -0.11165803670883179,
      0.11260638386011124,
      -0.12130368500947952,
      0.11149986833333969,
      -0.1097659096121788,
      0.11281049251556396
    ],
    [
      -0.11179635673761368,
      0.11256131529808044,
      -0.11020985245704651,
      0.1126156747341156,
      -0.11043642461299896,
      0.11167135089635849,
      0.11306170374155045,
      -0.11153916269540787,
      0.11256261169910431,
      -0.1211540699005127,
      0.11134690046310425,
      -0.10954360663890839,
      0.11291200667619705
    ],
    [
      -0.11154751479625702,
      0.1126939058303833,
      -0.11053529381752014,
      0.1124456524848938,
      -0.11089266836643219,
      0.11171947419643402,
      0.11293274164199829,
      -0.11072862893342972,
      0.11273979395627975,
      -0.12168918550014496,
      0.11100325733423233,
      -0.11014242470264435,
      0.1129641979932785
    ],
    [
      0.11156883835792542,
      -0.1123332530260086,
      0.11019095778465271,
      -0.11216246336698532,
      0.11055620014667511,
      -0.11134151369333267,
      -0.11270151287317276,
      0.1111367866396904,
      -0.11237617582082748,
      0.12123387306928635,
      -0.1109749898314476,
      0.10958594083786011,
      -0.11270173639059067
    ],
    [
      0.11154989153146744,
      -0.11260493099689484,
      0.1099739521741867,
      -0.11234599351882935,
      0.1103220209479332,
      -0.11136731505393982,
      -0.1128569096326828,
      0.11106057465076447,
      -0.11254044622182846,
      0.12132115662097931,
      -0.11060599982738495,
      0.10940731316804886,
      -0.11278638243675232
    ],
    [
      0.11203621327877045,
      -0.11326517909765244,
      0.11097880452871323,
      -0.1131129115819931,
      0.11141873896121979,
      -0.11219938099384308,
      -0.1134113073348999,
      0.11133114993572235,
      -0.11306177079677582,
      0.12150056660175323,
      -0.11179982125759125,
      0.11090908199548721,
      -0.113527312874794
    ],
    [
      0.11170589923858643,
      -0.11264511942863464,
      0.10988324880599976,
      -0.11248140037059784,
      0.11007635295391083,
      -0.11141715198755264,
      -0.11321162432432175,
      0.11144620925188065,
      -0.11286037415266037,
      0.12122470885515213,
      -0.1112472265958786,
      0.10944884270429611,
      -0.11304756999015808
    ],
    [
      0.11140439659357071,
      -0.11256521940231323,
      0.11024986207485199,
      -0.1124042421579361,
      0.11045470833778381,
      -0.111339271068573,
      -0.11290620267391205,
      0.11111598461866379,
      -0.11232414096593857,
      0.12115709483623505,
      -0.11101538687944412,
      0.10979106277227402,
      -0.11280087381601334
    ],
    [
      -0.10898499190807343,
      0.11440721899271011,
      -0.09063899517059326,
      0.11539140343666077,
      -0.09193168580532074,
      0.11480212211608887,
      0.11516476422548294,
      -0.11145413666963577,
      0.11554794013500214,
      -0.13210466504096985,
      0.11570790410041809,
      -0.08928903937339783,
      0.1133897677063942
    ],
    [
      -0.11140847206115723,
      0.11269141733646393,
      -0.10997007042169571,
      0.11246727406978607,
      -0.11035711318254471,
      0.11156927049160004,
      0.11297356337308884,
      -0.11139129102230072,
      0.11253349483013153,
      -0.1211688220500946,
      0.11102721095085144,
      -0.10965533554553986,
      0.11267974972724915
    ],
    [
      0.11176904290914536,
      -0.11268635839223862,
      0.11016184091567993,
      -0.11263467371463776,
      0.11052757501602173,
      -0.1116790771484375,
      -0.11281733214855194,
      0.11145822703838348,
      -0.11261280626058578,
      0.12127017974853516,
      -0.11146562546491623,
      0.1096215471625328,
      -0.11280300468206406
    ],
    [
      -0.11176574230194092,
      0.11268219351768494,
      -0.11028601229190826,
      0.11263788491487503,
      -0.11119762808084488,
      0.11197338253259659,
      0.11320096999406815,
      -0.111432284116745,
      0.1126699149608612,
      -0.12169456481933594,
      0.11141303926706314,
      -0.1104009822010994,
      0.11305885016918182
    ],
    [
      -0.11150278896093369,
      0.11251875013113022,
      -0.11011961102485657,
      0.11228087544441223,
      -0.11044986546039581,
      0.11137666553258896,
      0.11273923516273499,
      -0.11078009754419327,
      0.11245520412921906,
      -0.12130497395992279,
      0.11106909811496735,
      -0.10972370952367783,
      0.1127152293920517
    ],
    [
      0.11153484135866165,
      -0.11268219351768494,
      0.11064242571592331,
      -0.11261942237615585,
      0.11108508706092834,
      -0.11190087348222733,
      -0.11304256319999695,
      0.11138436198234558,
      -0.11303479224443436,
      0.12180646508932114,
      -0.11135202646255493,
      0.11007354408502579,
      -0.11274257302284241
    ],
    [
      0.111478790640831,
      -0.1126398965716362,
      0.11036999523639679,
      -0.11221060901880264,
      0.11093350499868393,
      -0.11183938384056091,
      -0.11290053278207779,
      0.1110754981637001,
      -0.11232078075408936,
      0.12157371640205383,
      -0.11142220348119736,
      0.10999550670385361,
      -0.11285475641489029
    ],
    [
      0.1088818684220314,
      -0.11424217373132706,
      0.09101784229278564,
      -0.11520834267139435,
      0.09270138293504715,
      -0.1157543957233429,
      -0.11499769240617752,
      0.1103999987244606,
      -0.11545061320066452,
      0.13249659538269043,
      -0.1169261559844017,
      0.08914005011320114,
      -0.11304077506065369
    ],
    [
      0.11133706569671631,
      -0.11222490668296814,
      0.1101691722869873,
      -0.11246470361948013,
      0.11047029495239258,
      -0.11162929981946945,
      -0.11259184777736664,
      0.11067918688058853,
      -0.11243485659360886,
      0.12148546427488327,
      -0.1108570247888565,
      0.10988690704107285,
      -0.11271741986274719
    ],
    [
      0.10843633860349655,
      -0.11419270187616348,
      0.09085935354232788,
      -0.11509186029434204,
      0.09277261048555374,
      -0.11570075154304504,
      -0.11456763744354248,
      0.11029568314552307,
      -0.11538500338792801,
      0.13267406821250916,
      -0.11697479337453842,
      0.08905505388975143,
      -0.1131306067109108
    ],
    [
      -0.11205342411994934,
      0.11291872709989548,
      -0.11031080037355423,
      0.11265848577022552,
      -0.11020084470510483,
      0.11177759617567062,
      0.11293746531009674,
      -0.11139874160289764,
      0.11277715116739273,
      -0.12131836265325546,
      0.11121226847171783,
      -0.1092492863535881,
      0.11296432465314865
    ],
    [
      0.11166965216398239,
      -0.11274651437997818,
      0.11112121492624283,
      -0.11306513100862503,
      0.1116674467921257,
      -0.11236518621444702,
      -0.11213187873363495,
      0.11049432307481766,
      -0.11299069225788116,
      0.12223051488399506,
      -0.11156285554170609,
      0.11097068339586258,
      -0.11358873546123505
    ],
    [
      0.1119258925318718,
      -0.11310325562953949,
      0.11149600148200989,
      -0.11296005547046661,
      0.11223471909761429,
      -0.1126803383231163,
      -0.1122899204492569,
      0.11128121614456177,
      -0.11310422420501709,
      0.12102954834699631,
      -0.11207015067338943,
      0.11171354353427887,
      -0.11359508335590363
    ],
    [
      -0.11144774407148361,
      0.11266440153121948,
      -0.11091091483831406,
      0.11258171498775482,
      -0.11144167929887772,
      0.11196494847536087,
      0.11243623495101929,
      -0.11033349484205246,
      0.11293293535709381,
      -0.12185088545084,
      0.11148463189601898,
      -0.11065880209207535,
      0.1129767969250679
    ],
    [
      0.11156363785266876,
      -0.11236539483070374,
      0.11017576605081558,
      -0.1122390627861023,
      0.11049804836511612,
      -0.11145023256540298,
      -0.11283399164676666,
      0.11064695566892624,
      -0.11254530400037766,
      0.12112368643283844,
      -0.11107020080089569,
      0.10954029858112335,
      -0.11275933682918549
    ],
    [
      0.1120380088686943,
      -0.11298572272062302,
      0.1102566346526146,
      -0.11275862157344818,
      0.11097472161054611,
      -0.11228784173727036,
      -0.1131458729505539,
      0.11154387146234512,
      -0.1127639040350914,
      0.12116116285324097,
      -0.11218936741352081,
      0.10988526791334152,
      -0.11285766959190369
    ],
    [
      0.10846510529518127,
      -0.11407557874917984,
      0.09014369547367096,
      -0.11531223356723785,
      0.09143150597810745,
      -0.1146187111735344,
      -0.11456036567687988,
      0.11046390980482101,
      -0.1153385117650032,
      0.13216261565685272,
      -0.11564338207244873,
      0.08764895051717758,
      -0.11322835087776184
    ],
    [
      -0.11184718459844589,
      0.1128598153591156,
      -0.11045654118061066,
      0.11266050487756729,
      -0.11080093681812286,
      0.11180300265550613,
      0.11297503113746643,
      -0.11165516823530197,
      0.1126527488231659,
      -0.12143146991729736,
      0.11130363494157791,
      -0.10993965715169907,
      0.11297617852687836
    ],
    [
      0.11133728176355362,
      -0.11253010481595993,
      0.1106070950627327,
      -0.1123778373003006,
      0.11078488081693649,
      -0.1116286963224411,
      -0.1123993769288063,
      0.11055886000394821,
      -0.11243540048599243,
      0.12172998487949371,
      -0.11132468283176422,
      0.11016322672367096,
      -0.11271776258945465
    ],
    [
      -0.11138349771499634,
      0.1124359741806984,
      -0.11022160947322845,
      0.11220639199018478,
      -0.11044389754533768,
      0.11157270520925522,
      0.11290553212165833,
      -0.11112760752439499,
      0.11231784522533417,
      -0.1213676780462265,
      0.11096338927745819,
      -0.10953744500875473,
      0.11278573423624039
    ],
    [
      0.1116504892706871,
      -0.11241147667169571,
      0.11029694974422455,
      -0.11222602427005768,
      0.11068572103977203,
      -0.11138375103473663,
      -0.11271534860134125,
      0.11130458116531372,
      -0.1123584732413292,
      0.12144540250301361,
      -0.1109127402305603,
      0.10984969884157181,
      -0.11259137094020844
    ],
    [
      0.11155155301094055,
      -0.11256439238786697,
      0.10996763408184052,
      -0.11237210035324097,
      0.11056720465421677,
      -0.11134170740842819,
      -0.11268074065446854,
      0.11105160415172577,
      -0.11258997768163681,
      0.12115634232759476,
      -0.1109742745757103,
      0.10983891785144806,
      -0.1126164123415947
    ],
    [
      -0.10861486196517944,
      0.11408048123121262,
      -0.09095630794763565,
      0.11530596762895584,
      -0.09307572990655899,
      0.11577501893043518,
      0.11472144722938538,
      -0.11043036729097366,
      0.11558746546506882,
      -0.13286460936069489,
      0.11692612618207932,
      -0.08902951329946518,
      0.11326044052839279
    ],
    [
      -0.11155317723751068,
      0.11258365958929062,
      -0.11019184440374374,
      0.11238432675600052,
      -0.11057183146476746,
      0.11151285469532013,
      0.11266151815652847,
      -0.11069837957620621,
      0.11233510822057724,
      -0.12118225544691086,
      0.11092615872621536,
      -0.10961834341287613,
      0.1126445084810257
    ],
    [
      -0.111831434071064,
      0.11280244588851929,
      -0.11060807853937149,
      0.11266431212425232,
      -0.11114402115345001,
      0.11201725900173187,
      0.11249831318855286,
      -0.11085245013237,
      0.1129239946603775,
      -0.12222960591316223,
      0.11147286742925644,
      -0.11052314937114716,
      0.11317719519138336
    ],
    [
      0.11171839386224747,
      -0.11287909746170044,
      0.11055461317300797,
      -0.11251899600028992,
      0.11120078712701797,
      -0.11183169484138489,
      -0.1131228655576706,
      0.11097738891839981,
      -0.1126587837934494,
      0.12197230756282806,
      -0.11127512902021408,
      0.11018230766057968,
      -0.11307001858949661
    ],
    [
      -0.1114107221364975,
      0.11272980272769928,
      -0.11021676659584045,
      0.1125163659453392,
      -0.11071129143238068,
      0.11165719479322433,
      0.11278729885816574,
      -0.11064942181110382,
      0.11246675252914429,
      -0.12151793390512466,
      0.11106964200735092,
      -0.1101004108786583,
      0.11269252002239227
    ],
    [
      0.11160104721784592,
      -0.11249733716249466,
      0.11008068174123764,
      -0.11247996240854263,
      0.11043131351470947,
      -0.11162067949771881,
      -0.11273697763681412,
      0.1109648197889328,
      -0.11233698576688766,
      0.12134180963039398,
      -0.11120044440031052,
      0.10959120839834213,
      -0.11283189058303833
    ],
    [
      0.10852114856243134,
      -0.11429236084222794,
      0.09109632670879364,
      -0.11522314697504044,
      0.09263739734888077,
      -0.11573559045791626,
      -0.11456593871116638,
      0.1102931872010231,
      -0.11560503393411636,
      0.13286620378494263,
      -0.11693032085895538,
      0.08912055194377899,
      -0.11333179473876953
    ],
    [
      -0.11163147538900375,
      0.11259816586971283,
      -0.11020222306251526,
      0.1123342365026474,
      -0.11047583073377609,
      0.11149589717388153,
      0.11292161047458649,
      -0.11102583259344101,
      0.11257553845643997,
      -0.12132805585861206,
      0.11124012619256973,
      -0.10966648161411285,
      0.11261023581027985
    ],
    [
      0.11134451627731323,
      -0.11244805157184601,
      0.11014249175786972,
      -0.11240659654140472,
      0.11064839363098145,
      -0.11157247424125671,
      -0.11244718730449677,
      0.11079239845275879,
      -0.11252199113368988,
      0.12140662968158722,
      -0.11109936982393265,
      0.10978083312511444,
      -0.1127067431807518
    ],
    [
      0.11153344810009003,
      -0.11273621022701263,
      0.11053167283535004,
      -0.11227567493915558,
      0.11097323894500732,
      -0.11196547001600266,
      -0.11287334561347961,
      0.11119184643030167,
      -0.11251366138458252,
      0.12154192477464676,
      -0.11138348281383514,
      0.11030873656272888,
      -0.11276458203792572
    ],
    [
      0.10880882292985916,
      -0.11421407759189606,
      0.09092459082603455,
      -0.1152225211262703,
      0.09260781109333038,
      -0.1157415509223938,
      -0.11490998417139053,
      0.11040865629911423,
      -0.11526072770357132,
      0.13266238570213318,
      -0.11672110855579376,
      0.08908097445964813,
      -0.11297906935214996
    ],
    [
      0.11161425709724426,
      -0.11249159276485443,
      0.11052273213863373,
      -0.11268819868564606,
      0.11081783473491669,
      -0.11183054000139236,
      -0.11289896070957184,
      0.11072734743356705,
      -0.11289069801568985,
      0.1216578558087349,
      -0.1111006960272789,
      0.1102135106921196,
      -0.11294407397508621
    ],
    [
      0.10855375975370407,
      -0.1142158955335617,
      0.09060990065336227,
      -0.11510587483644485,
      0.09195290505886078,
      -0.11566968262195587,
      -0.11461532115936279,
      0.11036606878042221,
      -0.1152394488453865,
      0.13228100538253784,
      -0.11646758764982224,
      0.08811838924884796,
      -0.11280909925699234
    ],
    [
      0.11200230568647385,
      -0.11269546300172806,
      0.11047477275133133,
      -0.11302974075078964,
      0.11086023598909378,
      -0.11226677149534225,
      -0.11319901049137115,
      0.1118580773472786,
      -0.11283182352781296,
      0.12133350968360901,
      -0.11199227720499039,
      0.109786257147789,
      -0.11279910802841187
    ],
    [
      -0.111881785094738,
      0.11275417357683182,
      -0.11041920632123947,
      0.11260247230529785,
      -0.11071109771728516,
      0.11206822842359543,
      0.11292684823274612,
      -0.11180473864078522,
      0.11274616420269012,
      -0.12131015956401825,
      0.11200564354658127,
      -0.10994912683963776,
      0.11292120814323425
    ],
    [
      -0.11172198504209518,
      0.11251619458198547,
      -0.11014653742313385,
      0.11255872994661331,
      -0.11037718504667282,
      0.11177564412355423,
      0.11305003613233566,
      -0.11146111786365509,
      0.11249659955501556,
      -0.1211639940738678,
      0.11117515712976456,
      -0.10950718075037003,
      0.11283763498067856
    ],
    [
      -0.11155679821968079,
      0.11270920932292938,
      -0.11054384708404541,
      0.11245599389076233,
      -0.1109163761138916,
      0.11171431839466095,
      0.11291823536157608,
      -0.11070969700813293,
      0.11277426034212112,
      -0.12168285995721817,
      0.1110125184059143,
      -0.11017529666423798,
      0.11294759809970856
    ],
    [
      0.11156122386455536,
      -0.11232821643352509,
      0.11018108576536179,
      -0.11216136068105698,
      0.11054155975580215,
      -0.11134546995162964,
      -0.11270932108163834,
      0.11110806465148926,
      -0.11239109933376312,
      0.12120414525270462,
      -0.11099231243133545,
      0.10955289751291275,
      -0.1127224713563919
    ],
    [
      0.11162763833999634,
      -0.11266320198774338,
      0.10977724194526672,
      -0.11240987479686737,
      0.11038857698440552,
      -0.11124125868082047,
      -0.11291825771331787,
      0.1111377701163292,
      -0.11258493363857269,
      0.12137219309806824,
      -0.11079421639442444,
      0.10942722111940384,
      -0.11285803467035294
    ]
  ],
  "policy_type": "coord_scale_mlp_prior",
  "schema_version": 2
}