{
  "action_hidden_bias": [
    -0.09047862887382507,
    0.08723372220993042,
    0.08927539736032486,
    0.09083264321088791,
    -0.08515628427267075,
    -0.09054094552993774,
    -0.09012963622808456,
    0.07430358231067657,
    0.09347093850374222,
    0.09375117719173431,
    -0.08224188536405563,
    -0.08997245132923126,
    -0.09402964264154434,
    -0.07955068349838257,
    0.09353897720575333,
    0.09011679887771606,
    0.08064890652894974,
    -0.08251484483480453,
    -0.09253627061843872,
    -0.09777799993753433,
    0.090831458568573,
    0.09040094912052155,
    0.08811763674020767,
    -0.08518066257238388,
    -0.08132917433977127,
    -0.09254162758588791,
    0.08527054637670517,
    0.08791489154100418,
    0.09064564853906631,
    -0.09260500222444534,
    -0.08718644827604294,
    -0.08903947472572327,
    0.08179794251918793,
    0.0886157751083374,
    0.08792459219694138,
    0.09860867261886597,
    -0.09151051193475723,
    -0.08936590701341629,
    -0.09526529908180237,
    0.08461502939462662,
    0.09049449861049652,
    0.09136718511581421,
    -0.08411005884408951,
    -0.09409791231155396,
    -0.08869057148694992,
    0.08424463123083115,
    0.09343510121107101,
    0.08928190916776657
  ],
  "action_input_weights": [
    [
      -0.08224936574697495,
      0.0958513617515564,
      0.0906502902507782,
      0.08325789868831635,
      -0.09436586499214172,
      -0.09328702092170715,
      -0.08356501162052155,
      0.08345744758844376,
      0.09755712747573853,
      0.08830578625202179,
      -0.09140507876873016,
      -0.09527222812175751,
      -0.08983106166124344,
      -0.0702623724937439,
      0.09990313649177551,
      0.08723513782024384,
      0.07167035341262817,
      -0.08998902142047882,
      -0.09101235121488571,
      -0.08866234868764877,
      0.09908436983823776,
      0.09029297530651093,
      0.08075429499149323,
      -0.09402020275592804,
      -0.0826241672039032,
      -0.08494400978088379,
      0.09441453963518143,
      0.09053447097539902,
      0.08403673022985458,
      -0.10219968855381012,
      -0.09115390479564667,
      -0.08346015959978104,
      0.09101876616477966,
      0.09372464567422867,
      0.08359833061695099,
      0.08884978294372559,
      -0.097784124314785,
      -0.08633250743150711,
      -0.08564823865890503,
      0.09196754544973373,
      0.08886898308992386,
      0.08225864171981812,
      -0.09232348203659058,
      -0.09386022388935089,
      -0.0803522989153862,
      0.0924687385559082,
      0.09462150931358337,
      0.08158981800079346
    ],
    [
      -0.029610158875584602,
      0.007687631528824568,
      0.021675806492567062,
      0.02860146015882492,
      -0.02126554772257805,
      -0.022891396656632423,
      -0.010654447600245476,
      0.013840359635651112,
      0.013411403633654118,
      0.027536295354366302,
      -0.012903298251330853,
      -0.027272140607237816,
      -0.018792729824781418,
      -0.007956007495522499,
      -0.0016519983764737844,
      0.03394037485122681,
      0.0362081304192543,
      -0.036266859620809555,
      -0.030723676085472107,
      -0.009643749333918095,
      0.010056944563984871,
      0.031353168189525604,
      0.027244122698903084,
      -0.017929289489984512,
      -0.02185346931219101,
      -0.019905971363186836,
      0.01268761232495308,
      0.02311616763472557,
      0.02746393159031868,
      -0.01963946223258972,
      -0.03219655901193619,
      -0.016976380720734596,
      0.015944767743349075,
      0.014697849750518799,
      0.023597383871674538,
      0.01723906770348549,
      -0.024071820080280304,
      -0.01188537199050188,
      -0.006763863377273083,
      0.023739038035273552,
      0.018691036850214005,
      0.023884594440460205,
      -0.03562606871128082,
      -0.03774731606245041,
      -0.02576216496527195,
      0.014620511792600155,
      0.019477885216474533,
      0.026723261922597885
    ],
    [
      0.020389573648571968,
      -0.014659027568995953,
      -0.009012658149003983,
      -0.020212339237332344,
      0.01413976214826107,
      0.015194885432720184,
      0.01220721285790205,
      -0.022267093881964684,
      -0.006057399790734053,
      -0.0319698303937912,
      0.012318217195570469,
      0.014344952069222927,
      0.014962137676775455,
      0.007498634979128838,
      0.000842975452542305,
      -0.02780253253877163,
      -0.00634140707552433,
      0.012087536044418812,
      0.016070887446403503,
      0.010815851390361786,
      -0.009691125713288784,
      -0.013328316621482372,
      -0.016222456470131874,
      0.014440178871154785,
      0.012643798254430294,
      0.018855009227991104,
      -0.020650984719395638,
      0.0002723670331761241,
      -0.01756025291979313,
      0.011673354543745518,
      0.010337970219552517,
      0.01035606861114502,
      -0.014588437974452972,
      0.004042189568281174,
      -0.020365307107567787,
      -0.008351055905222893,
      0.01204585563391447,
      0.006352289114147425,
      0.010557493194937706,
      -0.009863756597042084,
      -0.02031325362622738,
      -0.00912161823362112,
      0.013160687871277332,
      0.013647631742060184,
      0.021395549178123474,
      -0.01647080108523369,
      -0.009279098361730576,
      -0.01756325736641884
    ],
    [
      0.04810372367501259,
      -0.030979372560977936,
      -0.04745819792151451,
      -0.047441933304071426,
      0.043065350502729416,
      0.04432937875390053,
      0.0349390022456646,
      -0.018174150958657265,
      -0.04489927366375923,
      -0.03336319699883461,
      0.03707517683506012,
      0.04811164364218712,
      0.04113113507628441,
      0.033698756247758865,
      -0.0375516414642334,
      -0.04501115530729294,
      -0.06224348768591881,
      0.060027990490198135,
      0.05175309628248215,
      0.03524519130587578,
      -0.03928525745868683,
      -0.053769584745168686,
      -0.04602354019880295,
      0.03901633247733116,
      0.04638025537133217,
      0.03761560842394829,
      -0.027295568957924843,
      -0.06029937416315079,
      -0.04857621341943741,
      0.045488324016332626,
      0.059147704392671585,
      0.04590108245611191,
      -0.03862101584672928,
      -0.05497748404741287,
      -0.0402376763522625,
      -0.04586784169077873,
      0.04990509897470474,
      0.04299502074718475,
      0.03178205341100693,
      -0.048442643135786057,
      -0.03767283260822296,
      -0.053510695695877075,
      0.06050238758325577,
      0.06162886321544647,
      0.043191391974687576,
      -0.033928897231817245,
      -0.048780329525470734,
      -0.04554508626461029
    ],
    [
      -0.0823574960231781,
      0.08802009373903275,
      0.10159686952829361,
      0.06651926785707474,
      -0.06073567643761635,
      -0.07902652025222778,
      -0.12263952195644379,
      0.01945841684937477,
      0.08506869524717331,
      0.06722604483366013,
      -0.11369303613901138,
      -0.06423766165971756,
      -0.046463944017887115,
      -0.04217243194580078,
      0.12053821980953217,
      0.045550793409347534,
      0.040217410773038864,
      -0.05285925045609474,
      -0.060643021017313004,
      -0.06739397346973419,
      0.04971427842974663,
      0.06602078676223755,
      0.07847005128860474,
      -0.046820156276226044,
      -0.09161581099033356,
      -0.07605525851249695,
      0.06138915568590164,
      0.09330279380083084,
      0.10918688029050827,
      -0.12833327054977417,
      -0.07344677299261093,
      -0.12038581818342209,
      0.11191872507333755,
      0.06548187136650085,
      0.07171767204999924,
      0.04271354526281357,
      -0.06165272742509842,
      -0.11338324099779129,
      -0.03843913972377777,
      0.07379420101642609,
      0.04903315007686615,
      0.0963628962635994,
      -0.04131131246685982,
      -0.07299835979938507,
      -0.07842779159545898,
      0.09065918624401093,
      0.08094023913145065,
      0.06829246878623962
    ],
    [
      -0.07959888130426407,
      0.11201375722885132,
      0.0838451087474823,
      0.10718315094709396,
      -0.10616685450077057,
      -0.10725551098585129,
      -0.1115143746137619,
      0.06385526806116104,
      0.10082026571035385,
      0.09908469766378403,
      -0.11924954503774643,
      -0.10086119174957275,
      -0.09098970144987106,
      -0.07966329902410507,
      0.12879876792430878,
      0.11994627863168716,
      0.10364660620689392,
      -0.10213609039783478,
      -0.09976182878017426,
      -0.11618209630250931,
      0.09082890301942825,
      0.11417318135499954,
      0.11092669516801834,
      -0.08623115718364716,
      -0.10780838131904602,
      -0.09586378186941147,
      0.0791744664311409,
      0.10279244184494019,
      0.09294696897268295,
      -0.11499563604593277,
      -0.13576222956180573,
      -0.11081702262163162,
      0.1201382502913475,
      0.09873830527067184,
      0.1160789281129837,
      0.12133190035820007,
      -0.09519428014755249,
      -0.10056205838918686,
      -0.10001217573881149,
      0.10097892582416534,
      0.12353427708148956,
      0.0893796905875206,
      -0.12361261248588562,
      -0.10413762927055359,
      -0.08458364009857178,
      0.107779860496521,
      0.09445066750049591,
      0.10321789234876633
    ],
    [
      -0.15960632264614105,
      0.17197830975055695,
      0.16726122796535492,
      0.164107084274292,
      -0.16303978860378265,
      -0.1659144014120102,
      -0.17984923720359802,
      0.10512454062700272,
      0.15879452228546143,
      0.15587764978408813,
      -0.16026772558689117,
      -0.14910534024238586,
      -0.16002127528190613,
      -0.1507953554391861,
      0.1625502109527588,
      0.14794781804084778,
      0.150977224111557,
      -0.15471655130386353,
      -0.15704792737960815,
      -0.16638679802417755,
      0.1714104861021042,
      0.16451208293437958,
      0.14784514904022217,
      -0.15390938520431519,
      -0.1670154333114624,
      -0.15950936079025269,
      0.16097904741764069,
      0.17388300597667694,
      0.18368661403656006,
      -0.16779492795467377,
      -0.17356188595294952,
      -0.18115019798278809,
      0.15992482006549835,
      0.15822668373584747,
      0.17358867824077606,
      0.175416961312294,
      -0.1617068499326706,
      -0.16131815314292908,
      -0.15518227219581604,
      0.1534930020570755,
      0.15997520089149475,
      0.1543332040309906,
      -0.1670786589384079,
      -0.16635575890541077,
      -0.1562909632921219,
      0.17043247818946838,
      0.16903935372829437,
      0.16265960037708282
    ],
    [
      -0.08080831915140152,
      0.08432062715291977,
      0.08027693629264832,
      0.0962861180305481,
      -0.0777343213558197,
      -0.09814706444740295,
      -0.09524954110383987,
      0.08281034976243973,
      0.09597804397344589,
      0.08383067697286606,
      -0.08180098980665207,
      -0.08016395568847656,
      -0.09717807173728943,
      -0.08783264458179474,
      0.0992126539349556,
      0.09721357375383377,
      0.07327352464199066,
      -0.08739832788705826,
      -0.08320771157741547,
      -0.09552934765815735,
      0.08085782825946808,
      0.09105437248945236,
      0.09685173630714417,
      -0.08859417587518692,
      -0.08996523171663284,
      -0.08646684885025024,
      0.0919579267501831,
      0.07983481138944626,
      0.08603918552398682,
      -0.08314083516597748,
      -0.08532097935676575,
      -0.09888313710689545,
      0.08268816024065018,
      0.09804269671440125,
      0.08399992436170578,
      0.0901857540011406,
      -0.08517950028181076,
      -0.08261080086231232,
      -0.1034979447722435,
      0.08053560554981232,
      0.09998011589050293,
      0.09276438504457474,
      -0.09398777782917023,
      -0.09263159334659576,
      -0.07929486036300659,
      0.08028429746627808,
      0.08510859310626984,
      0.09583739936351776
    ],
    [
      -0.08643375337123871,
      0.0798589363694191,
      0.09872977435588837,
      0.0809178501367569,
      -0.07670174539089203,
      -0.09606455266475677,
      -0.08841869235038757,
      0.07657376676797867,
      0.08716262876987457,
      0.10261035710573196,
      -0.09139776974916458,
      -0.08072814345359802,
      -0.10082357376813889,
      -0.07646362483501434,
      0.09433414041996002,
      0.08522621542215347,
      0.08825837820768356,
      -0.09225583076477051,
      -0.08277664333581924,
      -0.10563481599092484,
      0.09557220339775085,
      0.08961653709411621,
      0.08522895723581314,
      -0.07823682576417923,
      -0.09052799642086029,
      -0.08260003477334976,
      0.07705706357955933,
      0.09401314705610275,
      0.0881476029753685,
      -0.09419811517000198,
      -0.0815431997179985,
      -0.09745384752750397,
      0.0909527912735939,
      0.0791488066315651,
      0.09526952356100082,
      0.09460969269275665,
      -0.09153532236814499,
      -0.08510031551122665,
      -0.10275229066610336,
      0.0940512865781784,
      0.08057821542024612,
      0.09962062537670135,
      -0.08955024927854538,
      -0.09245741367340088,
      -0.08611524105072021,
      0.07827488332986832,
      0.10229279100894928,
      0.0792887732386589
    ],
    [
      0.10977070778608322,
      -0.11013801395893097,
      -0.10866107046604156,
      -0.11060059070587158,
      0.1160607784986496,
      0.11276306211948395,
      0.11369353532791138,
      -0.06618632376194,
      -0.10850054025650024,
      -0.08990297466516495,
      0.09920334815979004,
      0.10309160500764847,
      0.11023490875959396,
      0.09812705963850021,
      -0.09792758524417877,
      -0.11931504309177399,
      -0.11167465895414352,
      0.12124496698379517,
      0.11208279430866241,
      0.1232670396566391,
      -0.10781416296958923,
      -0.12368779629468918,
      -0.11461123824119568,
      0.10814850777387619,
      0.10866003483533859,
      0.09172520786523819,
      -0.10787995904684067,
      -0.11579949408769608,
      -0.1158149391412735,
      0.10353469848632812,
      0.1305665820837021,
      0.10729888826608658,
      -0.09663348644971848,
      -0.1226273700594902,
      -0.1180376261472702,
      -0.12062473595142365,
      0.11062503606081009,
      0.09921549260616302,
      0.11279872059822083,
      -0.1034599095582962,
      -0.10842383652925491,
      -0.11424817144870758,
      0.12643665075302124,
      0.11851461976766586,
      0.11191822588443756,
      -0.10620413720607758,
      -0.12096070498228073,
      -0.10942286252975464
    ],
    [
      -0.14392881095409393,
      0.14150874316692352,
      0.131643608212471,
      0.13941112160682678,
      -0.13769564032554626,
      -0.13111066818237305,
      -0.13834425806999207,
      0.11604353040456772,
      0.1401699036359787,
      0.12675872445106506,
      -0.14015531539916992,
      -0.13426010310649872,
      -0.1400424838066101,
      -0.13253065943717957,
      0.14008833467960358,
      0.13317039608955383,
      0.12202649563550949,
      -0.12642458081245422,
      -0.1351911872625351,
      -0.13779515027999878,
      0.14221248030662537,
      0.12769553065299988,
      0.11859222501516342,
      -0.12572216987609863,
      -0.14307066798210144,
      -0.1429910510778427,
      0.1330532431602478,
      0.13304643332958221,
      0.14032968878746033,
      -0.13069404661655426,
      -0.12547998130321503,
      -0.1403045952320099,
      0.14319440722465515,
      0.1388026922941208,
      0.13722191751003265,
      0.13201488554477692,
      -0.1460162103176117,
      -0.1462889164686203,
      -0.1139432042837143,
      0.13219426572322845,
      0.1434757560491562,
      0.13281573355197906,
      -0.12583419680595398,
      -0.1283387541770935,
      -0.14366286993026733,
      0.14039456844329834,
      0.13154691457748413,
      0.13811811804771423
    ],
    [
      -0.16216374933719635,
      0.15695799887180328,
      0.1367955058813095,
      0.14358550310134888,
      -0.1535215973854065,
      -0.13673759996891022,
      -0.14816103875637054,
      0.11331252753734589,
      0.14722950756549835,
      0.12648773193359375,
      -0.1588478833436966,
      -0.1382167488336563,
      -0.14920306205749512,
      -0.139064759016037,
      0.15197494626045227,
      0.1402236670255661,
      0.12755654752254486,
      -0.13284043967723846,
      -0.13866771757602692,
      -0.14624227583408356,
      0.15440519154071808,
      0.13645273447036743,
      0.12336862832307816,
      -0.13262364268302917,
      -0.15547719597816467,
      -0.14863340556621552,
      0.14360380172729492,
      0.14284013211727142,
      0.16224265098571777,
      -0.14301276206970215,
      -0.13353197276592255,
      -0.16017396748065948,
      0.1611325442790985,
      0.1520182341337204,
      0.14882917702198029,
      0.1389622986316681,
      -0.16154314577579498,
      -0.16695134341716766,
      -0.11743977665901184,
      0.1424345076084137,
      0.15653955936431885,
      0.147414430975914,
      -0.129233717918396,
      -0.1387610137462616,
      -0.15959274768829346,
      0.15609288215637207,
      0.13728547096252441,
      0.14428749680519104
    ],
    [
      0.16393209993839264,
      -0.1520119309425354,
      -0.15038377046585083,
      -0.15353083610534668,
      0.16168123483657837,
      0.1658758521080017,
      0.1613214761018753,
      -0.14192147552967072,
      -0.16733886301517487,
      -0.16866247355937958,
      0.1512468308210373,
      0.15354245901107788,
      0.15747469663619995,
      0.14261843264102936,
      -0.1605454534292221,
      -0.15601667761802673,
      -0.14374612271785736,
      0.16816170513629913,
      0.1698175072669983,
      0.16852356493473053,
      -0.15805664658546448,
      -0.163481205701828,
      -0.16325293481349945,
      0.14867858588695526,
      0.15292130410671234,
      0.15135988593101501,
      -0.16022546589374542,
      -0.1656341254711151,
      -0.16081486642360687,
      0.1647433042526245,
      0.16962212324142456,
      0.170212984085083,
      -0.1516590416431427,
      -0.15443094074726105,
      -0.15690159797668457,
      -0.16083268821239471,
      0.16058428585529327,
      0.15490511059761047,
      0.15116624534130096,
      -0.16725127398967743,
      -0.1709042191505432,
      -0.16516730189323425,
      0.1609926074743271,
      0.16228802502155304,
      0.16456541419029236,
      -0.1492316871881485,
      -0.15217116475105286,
      -0.15433864295482635
    ],
    [
      0.16692794859409332,
      -0.15414024889469147,
      -0.16595374047756195,
      -0.16560934484004974,
      0.15793778002262115,
      0.16499750316143036,
      0.1512506604194641,
      -0.14394611120224,
      -0.15471982955932617,
      -0.14636850357055664,
      0.1580245941877365,
      0.14895011484622955,
      0.15847142040729523,
      0.15100809931755066,
      -0.15510432422161102,
      -0.1671636551618576,
      -0.15671725571155548,
      0.16174763441085815,
      0.16635146737098694,
      0.1546042412519455,
      -0.16733217239379883,
      -0.1580970287322998,
      -0.1450349986553192,
      0.1558299958705902,
      0.1502978354692459,
      0.15366047620773315,
      -0.14124782383441925,
      -0.15237541496753693,
      -0.16473673284053802,
      0.1490810066461563,
      0.1636175811290741,
      0.16716061532497406,
      -0.16089220345020294,
      -0.16964876651763916,
      -0.15990905463695526,
      -0.14959755539894104,
      0.16478773951530457,
      0.1498897522687912,
      0.15158280730247498,
      -0.1472635120153427,
      -0.15163826942443848,
      -0.16147267818450928,
      0.15079371631145477,
      0.15985147655010223,
      0.16593371331691742,
      -0.15521231293678284,
      -0.16875892877578735,
      -0.16348177194595337
    ],
    [
      -0.1468004435300827,
      0.14303246140480042,
      0.16038082540035248,
      0.15319332480430603,
      -0.1494998186826706,
      -0.14423102140426636,
      -0.16220209002494812,
      0.13462108373641968,
      0.15517644584178925,
      0.14411520957946777,
      -0.14520496129989624,
      -0.16187699139118195,
      -0.15430709719657898,
      -0.13240958750247955,
      0.14651335775852203,
      0.16403570771217346,
      0.14082251489162445,
      -0.15348750352859497,
      -0.14567965269088745,
      -0.16405251622200012,
      0.1603468358516693,
      0.15388593077659607,
      0.14500287175178528,
      -0.1409684121608734,
      -0.16503427922725677,
      -0.14869683980941772,
      0.14818474650382996,
      0.1469133198261261,
      0.16412055492401123,
      -0.16004011034965515,
      -0.1549481898546219,
      -0.1476948857307434,
      0.1459254026412964,
      0.16426417231559753,
      0.15160255134105682,
      0.15238551795482635,
      -0.14881418645381927,
      -0.16417190432548523,
      -0.14729095995426178,
      0.15059329569339752,
      0.14917297661304474,
      0.1627582162618637,
      -0.16426682472229004,
      -0.15122069418430328,
      -0.1482997089624405,
      0.1425217241048813,
      0.16386139392852783,
      0.1509055495262146
    ],
    [
      -0.19054578244686127,
      0.1893182098865509,
      0.1833849549293518,
      0.19912545382976532,
      -0.18781423568725586,
      -0.18150830268859863,
      -0.19986896216869354,
      0.1721930056810379,
      0.18538451194763184,
      0.1928621381521225,
      -0.18690483272075653,
      -0.19430461525917053,
      -0.18509791791439056,
      -0.17584693431854248,
      0.20027707517147064,
      0.1813075840473175,
      0.18769264221191406,
      -0.1993449628353119,
      -0.18472814559936523,
      -0.19438038766384125,
      0.19123999774456024,
      0.1928175538778305,
      0.17889602482318878,
      -0.17668943107128143,
      -0.1990186721086502,
      -0.17949333786964417,
      0.16836601495742798,
      0.19986967742443085,
      0.1824299842119217,
      -0.1830746829509735,
      -0.1940663754940033,
      -0.18984858691692352,
      0.189726322889328,
      0.18621280789375305,
      0.1979168802499771,
      0.17967581748962402,
      -0.18022984266281128,
      -0.2004127949476242,
      -0.18069837987422943,
      0.18110208213329315,
      0.19533388316631317,
      0.1874845325946808,
      -0.1903873085975647,
      -0.18781262636184692,
      -0.19261540472507477,
      0.19108077883720398,
      0.18214714527130127,
      0.20012281835079193
    ],
    [
      0.180539071559906,
      -0.1809329092502594,
      -0.18654537200927734,
      -0.2028314471244812,
      0.1784810572862625,
      0.20423386991024017,
      0.19049368798732758,
      -0.17419369518756866,
      -0.18627028167247772,
      -0.19022177159786224,
      0.1806231141090393,
      0.1957239955663681,
      0.20287656784057617,
      0.1623879373073578,
      -0.19927963614463806,
      -0.18458306789398193,
      -0.1803252100944519,
      0.18453668057918549,
      0.19989392161369324,
      0.20009984076023102,
      -0.20258507132530212,
      -0.195768341422081,
      -0.1753832846879959,
      0.18155395984649658,
      0.1864716112613678,
      0.2001979947090149,
      -0.1774221956729889,
      -0.2038523405790329,
      -0.1917731612920761,
      0.2009088546037674,
      0.18709489703178406,
      0.18923495709896088,
      -0.18096919357776642,
      -0.19418136775493622,
      -0.2036590874195099,
      -0.18625156581401825,
      0.19942320883274078,
      0.18476495146751404,
      0.19174760580062866,
      -0.1810886412858963,
      -0.19807730615139008,
      -0.20111845433712006,
      0.20236659049987793,
      0.19698886573314667,
      0.1797245591878891,
      -0.1831732541322708,
      -0.18519684672355652,
      -0.20118853449821472
    ],
    [
      -0.19767232239246368,
      0.17632144689559937,
      0.18763892352581024,
      0.19633282721042633,
      -0.17128947377204895,
      -0.1848621368408203,
      -0.19086530804634094,
      0.16118113696575165,
      0.1844182014465332,
      0.18543589115142822,
      -0.1913927048444748,
      -0.18658094108104706,
      -0.18400102853775024,
      -0.16301625967025757,
      0.19244864583015442,
      0.18561092019081116,
      0.17050355672836304,
      -0.19801509380340576,
      -0.19010195136070251,
      -0.18396331369876862,
      0.2019260674715042,
      0.19580420851707458,
      0.17880457639694214,
      -0.1954314410686493,
      -0.2010023295879364,
      -0.19092941284179688,
      0.1887311041355133,
      0.20356018841266632,
      0.198795348405838,
      -0.19564343988895416,
      -0.20346581935882568,
      -0.2029176503419876,
      0.1883537620306015,
      0.1993657797574997,
      0.20412059128284454,
      0.19930432736873627,
      -0.1932869255542755,
      -0.20157776772975922,
      -0.20280399918556213,
      0.18544583022594452,
      0.19653825461864471,
      0.20254482328891754,
      -0.18473778665065765,
      -0.1908443421125412,
      -0.19477787613868713,
      0.17591214179992676,
      0.18585723638534546,
      0.1932467818260193
    ],
    [
      0.185648575425148,
      -0.17756377160549164,
      -0.18367192149162292,
      -0.17968808114528656,
      0.18145795166492462,
      0.19600163400173187,
      0.1963861882686615,
      -0.15419939160346985,
      -0.17625972628593445,
      -0.17805272340774536,
      0.1939668357372284,
      0.197217658162117,
      0.19677197933197021,
      0.17414012551307678,
      -0.1795821487903595,
      -0.18073464930057526,
      -0.1702403724193573,
      0.19199520349502563,
      0.19060644507408142,
      0.18747873604297638,
      -0.18537341058254242,
      -0.1897985190153122,
      -0.18363918364048004,
      0.17607609927654266,
      0.1806793063879013,
      0.17866936326026917,
      -0.18322575092315674,
      -0.1957886517047882,
      -0.1961386352777481,
      0.1760917752981186,
      0.17652109265327454,
      0.17710529267787933,
      -0.1934204399585724,
      -0.19673088192939758,
      -0.1956651508808136,
      -0.19211609661579132,
      0.17922845482826233,
      0.18156291544437408,
      0.1828496903181076,
      -0.18890723586082458,
      -0.18627792596817017,
      -0.18662700057029724,
      0.18851803243160248,
      0.19062022864818573,
      0.18821415305137634,
      -0.17443770170211792,
      -0.1809031069278717,
      -0.1778598129749298
    ],
    [
      0.20115631818771362,
      -0.18051671981811523,
      -0.19801689684391022,
      -0.20637567341327667,
      0.17689919471740723,
      0.20207332074642181,
      0.20637059211730957,
      -0.1652144491672516,
      -0.20491397380828857,
      -0.20436079800128937,
      0.19354970753192902,
      0.2051091343164444,
      0.20281727612018585,
      0.16674013435840607,
      -0.20666243135929108,
      -0.2005159556865692,
      -0.17516982555389404,
      0.20593863725662231,
      0.1976957470178604,
      0.18740268051624298,
      -0.20434518158435822,
      -0.19456200301647186,
      -0.17706409096717834,
      0.19335398077964783,
      0.19211353361606598,
      0.183961883187294,
      -0.18584178388118744,
      -0.1892145723104477,
      -0.1871940642595291,
      0.1948627084493637,
      0.1877635270357132,
      0.1888081431388855,
      -0.1902712881565094,
      -0.18565431237220764,
      -0.19120843708515167,
      -0.19967344403266907,
      0.18531663715839386,
      0.19385696947574615,
      0.20294524729251862,
      -0.1836245059967041,
      -0.197041854262352,
      -0.2051595002412796,
      0.1892128884792328,
      0.19997236132621765,
      0.20156355202198029,
      -0.18269719183444977,
      -0.2017594873905182,
      -0.2061498761177063
    ],
    [
      -0.17537839710712433,
      0.16722148656845093,
      0.1865665316581726,
      0.19597838819026947,
      -0.17434518039226532,
      -0.18296748399734497,
      -0.17737311124801636,
      0.14278776943683624,
      0.19282858073711395,
      0.19145727157592773,
      -0.1897287517786026,
      -0.17953479290008545,
      -0.18538135290145874,
      -0.16226454079151154,
      0.1965760588645935,
      0.18942242860794067,
      0.16054163873195648,
      -0.17423295974731445,
      -0.18626095354557037,
      -0.18887966871261597,
      0.1978977471590042,
      0.18362997472286224,
      0.1641128659248352,
      -0.1707104593515396,
      -0.18939648568630219,
      -0.19157196581363678,
      0.1850585639476776,
      0.17880547046661377,
      0.1766553670167923,
      -0.17861051857471466,
      -0.1894289255142212,
      -0.1872633844614029,
      0.19123443961143494,
      0.1758185625076294,
      0.17926965653896332,
      0.19269812107086182,
      -0.19493770599365234,
      -0.18244072794914246,
      -0.18021242320537567,
      0.168226957321167,
      0.1883874088525772,
      0.19503849744796753,
      -0.19574078917503357,
      -0.181814506649971,
      -0.17815712094306946,
      0.1656997948884964,
      0.1925765872001648,
      0.19278724491596222
    ],
    [
      0.19006435573101044,
      -0.18604649603366852,
      -0.19351311028003693,
      -0.19349819421768188,
      0.17979930341243744,
      0.1948164701461792,
      0.1935885101556778,
      -0.16558271646499634,
      -0.19513005018234253,
      -0.1928042471408844,
      0.1896224021911621,
      0.1947629600763321,
      0.19286908209323883,
      0.17052006721496582,
      -0.19553953409194946,
      -0.1928550750017166,
      -0.1815589815378189,
      0.1956608146429062,
      0.19270609319210052,
      0.1953577846288681,
      -0.1953403502702713,
      -0.19233424961566925,
      -0.18732236325740814,
      0.18762105703353882,
      0.1920158863067627,
      0.19426117837429047,
      -0.18300554156303406,
      -0.1914111226797104,
      -0.19659219682216644,
      0.1947999745607376,
      0.1914716362953186,
      0.19686315953731537,
      -0.19359496235847473,
      -0.1906869113445282,
      -0.19725319743156433,
      -0.188851997256279,
      0.18990711867809296,
      0.19726546108722687,
      0.18960006535053253,
      -0.18750189244747162,
      -0.19742612540721893,
      -0.18991754949092865,
      0.19028548896312714,
      0.19782152771949768,
      0.1858433037996292,
      -0.18175089359283447,
      -0.19783897697925568,
      -0.18979552388191223
    ],
    [
      0.18275152146816254,
      -0.1782127022743225,
      -0.195761576294899,
      -0.20330560207366943,
      0.19113481044769287,
      0.1935635656118393,
      0.18962888419628143,
      -0.15770775079727173,
      -0.1996345818042755,
      -0.20144116878509521,
      0.2020595371723175,
      0.19072379171848297,
      0.18977251648902893,
      0.18069860339164734,
      -0.20131981372833252,
      -0.19964997470378876,
      -0.17149291932582855,
      0.19010747969150543,
      0.19268828630447388,
      0.2054319977760315,
      -0.20227918028831482,
      -0.19793733954429626,
      -0.17697684466838837,
      0.1786154806613922,
      0.19562505185604095,
      0.20214742422103882,
      -0.1903863549232483,
      -0.19619053602218628,
      -0.18819954991340637,
      0.18432658910751343,
      0.19811898469924927,
      0.20412389934062958,
      -0.20187290012836456,
      -0.19242924451828003,
      -0.1900259405374527,
      -0.20347841084003448,
      0.19786906242370605,
      0.2025226205587387,
      0.18464435636997223,
      -0.18759019672870636,
      -0.19099605083465576,
      -0.20525933802127838,
      0.20161297917366028,
      0.20048025250434875,
      0.18079473078250885,
      -0.18006552755832672,
      -0.19193768501281738,
      -0.20529375970363617
    ],
    [
      0.1702219396829605,
      -0.18353503942489624,
      -0.18192264437675476,
      -0.16639521718025208,
      0.1760820597410202,
      0.17799684405326843,
      0.17190594971179962,
      -0.16630807518959045,
      -0.1704060286283493,
      -0.1735888123512268,
      0.1794457733631134,
      0.17359712719917297,
      0.1733810305595398,
      0.16498731076717377,
      -0.17103314399719238,
      -0.17476582527160645,
      -0.17654410004615784,
      0.17188774049282074,
      0.17747516930103302,
      0.18513379991054535,
      -0.1671641767024994,
      -0.1807716190814972,
      -0.18503960967063904,
      0.16810756921768188,
      0.17936590313911438,
      0.18947331607341766,
      -0.16384635865688324,
      -0.1834070086479187,
      -0.19006310403347015,
      0.17503024637699127,
      0.18407945334911346,
      0.19047944247722626,
      -0.1744631826877594,
      -0.18983091413974762,
      -0.18979290127754211,
      -0.1776207685470581,
      0.18773095309734344,
      0.18846556544303894,
      0.1793477088212967,
      -0.19289351999759674,
      -0.18191996216773987,
      -0.17677755653858185,
      0.18947727978229523,
      0.18506795167922974,
      0.1719050407409668,
      -0.1858399510383606,
      -0.18488502502441406,
      -0.16943958401679993
    ],
    [
      0.19054532051086426,
      -0.19031737744808197,
      -0.19881823658943176,
      -0.20177245140075684,
      0.17569461464881897,
      0.18915729224681854,
      0.18893234431743622,
      -0.17618530988693237,
      -0.2065383344888687,
      -0.20538201928138733,
      0.1827419251203537,
      0.18565213680267334,
      0.18596532940864563,
      0.16104747354984283,
      -0.20605435967445374,
      -0.20466934144496918,
      -0.1893114596605301,
      0.1898881494998932,
      0.1905549168586731,
      0.19138656556606293,
      -0.19980889558792114,
      -0.19857178628444672,
      -0.18742455542087555,
      0.18751822412014008,
      0.1989794820547104,
      0.19695299863815308,
      -0.1779922991991043,
      -0.1914561539888382,
      -0.19030345976352692,
      0.20198971033096313,
      0.20537890493869781,
      0.205868661403656,
      -0.18347741663455963,
      -0.1856025606393814,
      -0.18710120022296906,
      -0.1843671053647995,
      0.20485959947109222,
      0.20635411143302917,
      0.20438215136528015,
      -0.1841379553079605,
      -0.1895739585161209,
      -0.1895684003829956,
      0.20202116668224335,
      0.20130588114261627,
      0.19445346295833588,
      -0.185309499502182,
      -0.19501520693302155,
      -0.19762733578681946
    ],
    [
      0.20030079782009125,
      -0.17924043536186218,
      -0.1871909648180008,
      -0.20207259058952332,
      0.17208363115787506,
      0.18667052686214447,
      0.1959550678730011,
      -0.15320506691932678,
      -0.18924888968467712,
      -0.18680527806282043,
      0.1922823190689087,
      0.1859217882156372,
      0.18791474401950836,
      0.16293662786483765,
      -0.19479849934577942,
      -0.1854320913553238,
      -0.17548732459545135,
      0.1993750035762787,
      0.1891207993030548,
      0.18799921870231628,
      -0.20451326668262482,
      -0.19504402577877045,
      -0.17496857047080994,
      0.1965140402317047,
      0.20261822640895844,
      0.18854555487632751,
      -0.1923268884420395,
      -0.20712444186210632,
      -0.19916865229606628,
      0.20419509708881378,
      0.20846246182918549,
      0.2035437673330307,
      -0.19769975543022156,
      -0.20602142810821533,
      -0.20816917717456818,
      -0.19769829511642456,
      0.20309273898601532,
      0.20852304995059967,
      0.20381325483322144,
      -0.19225944578647614,
      -0.20792128145694733,
      -0.208111971616745,
      0.19468270242214203,
      0.2042599320411682,
      0.20188887417316437,
      -0.18034540116786957,
      -0.19474627077579498,
      -0.20594754815101624
    ],
    [
      0.19129729270935059,
      -0.1835690289735794,
      -0.19262444972991943,
      -0.17224854230880737,
      0.1732150912284851,
      0.17578580975532532,
      0.1896323561668396,
      -0.15624283254146576,
      -0.1911429464817047,
      -0.187228724360466,
      0.19103655219078064,
      0.1808566451072693,
      0.177146315574646,
      0.1727491170167923,
      -0.18134786188602448,
      -0.19467639923095703,
      -0.1705113798379898,
      0.1928616613149643,
      0.17710603773593903,
      0.17935864627361298,
      -0.17170172929763794,
      -0.18786172568798065,
      -0.18712139129638672,
      0.18595534563064575,
      0.18737217783927917,
      0.17321951687335968,
      -0.17158499360084534,
      -0.17481105029582977,
      -0.19031429290771484,
      0.17799344658851624,
      0.19264978170394897,
      0.18321755528450012,
      -0.19003808498382568,
      -0.17897823452949524,
      -0.17814496159553528,
      -0.1904892474412918,
      0.1824416071176529,
      0.19333653151988983,
      0.17863546311855316,
      -0.19097308814525604,
      -0.1718943864107132,
      -0.18291588127613068,
      0.1733834147453308,
      0.1887708455324173,
      0.188161700963974,
      -0.1867503821849823,
      -0.18773016333580017,
      -0.17238929867744446
    ],
    [
      0.01113039068877697,
      -0.00617585564032197,
      -0.018019357696175575,
      -0.005635043140500784,
      0.015288345515727997,
      0.007558640092611313,
      0.024037178605794907,
      -0.12141247093677521,
      0.0024055908434093,
      -0.02568133734166622,
      0.006997941993176937,
      0.014767051674425602,
      0.006585108581930399,
      0.058906883001327515,
      -0.009014515206217766,
      0.0027596112340688705,
      -0.05258198827505112,
      0.03485142067074776,
      0.0036163562908768654,
      0.010378601029515266,
      -0.0048443228006362915,
      -0.017068635672330856,
      -0.018389737233519554,
      0.02503269910812378,
      0.013468684628605843,
      0.0049062734469771385,
      -0.010642684996128082,
      -0.029369359835982323,
      -0.0016428269445896149,
      -0.0014886907301843166,
      0.013964010402560234,
      0.000240313820540905,
      0.0006196699105203152,
      -0.016838787123560905,
      -0.019787171855568886,
      -0.000557782594114542,
      -0.005173710640519857,
      0.013116862624883652,
      0.018591582775115967,
      -0.027808168902993202,
      -0.006349284201860428,
      -0.007729693781584501,
      0.0037850113585591316,
      0.02820660173892975,
      0.004830503836274147,
      -0.0041121141985058784,
      -0.010965495370328426,
      -0.007680159527808428
    ],
    [
      -0.18785640597343445,
      0.18564960360527039,
      0.17635981738567352,
      0.18909326195716858,
      -0.16562673449516296,
      -0.19309493899345398,
      -0.1731407642364502,
      0.13146866858005524,
      0.18378141522407532,
      0.1882636398077011,
      -0.1881854087114334,
      -0.1776280701160431,
      -0.18577277660369873,
      -0.1540413200855255,
      0.19235116243362427,
      0.17971503734588623,
      0.1635199338197708,
      -0.17490988969802856,
      -0.19482165575027466,
      -0.175850510597229,
      0.1824580579996109,
      0.18138620257377625,
      0.17980369925498962,
      -0.18127460777759552,
      -0.17871786653995514,
      -0.18365949392318726,
      0.16299515962600708,
      0.19110116362571716,
      0.17608898878097534,
      -0.17924922704696655,
      -0.17931166291236877,
      -0.19183175265789032,
      0.18977008759975433,
      0.1805770844221115,
      0.17990098893642426,
      0.19063785672187805,
      -0.19658984243869781,
      -0.1760091930627823,
      -0.179141566157341,
      0.17037513852119446,
      0.195278137922287,
      0.1746288686990738,
      -0.1818690001964569,
      -0.1761777549982071,
      -0.19069691002368927,
      0.1826837658882141,
      0.18093901872634888,
      0.1831822395324707
    ],
    [
      0.18209992349147797,
      -0.1908031851053238,
      -0.18621914088726044,
      -0.19079551100730896,
      0.17484818398952484,
      0.1883443295955658,
      0.2014169991016388,
      -0.15837395191192627,
      -0.19884924590587616,
      -0.20566672086715698,
      0.19128957390785217,
      0.20531894266605377,
      0.2001688927412033,
      0.16259096562862396,
      -0.20350885391235352,
      -0.1901330202817917,
      -0.172799214720726,
      0.19301936030387878,
      0.18664272129535675,
      0.19640037417411804,
      -0.18630239367485046,
      -0.19373154640197754,
      -0.19583816826343536,
      0.18175652623176575,
      0.20448078215122223,
      0.20175142586231232,
      -0.18744619190692902,
      -0.2059118151664734,
      -0.19439935684204102,
      0.2043725699186325,
      0.19779817759990692,
      0.1869819015264511,
      -0.19673897325992584,
      -0.18696659803390503,
      -0.19035065174102783,
      -0.20078644156455994,
      0.18660138547420502,
      0.2004939168691635,
      0.2050045132637024,
      -0.19342471659183502,
      -0.20682376623153687,
      -0.19811706244945526,
      0.20572751760482788,
      0.20179370045661926,
      0.18378956615924835,
      -0.1945885866880417,
      -0.19016514718532562,
      -0.18750008940696716
    ],
    [
      0.18390077352523804,
      -0.18800444900989532,
      -0.18249014019966125,
      -0.20648416876792908,
      0.1641264408826828,
      0.16838796436786652,
      0.16691748797893524,
      -0.09157566726207733,
      -0.18781359493732452,
      -0.1330183893442154,
      0.1950550079345703,
      0.17039810121059418,
      0.18872098624706268,
      0.14840275049209595,
      -0.1709277331829071,
      -0.18728123605251312,
      -0.18660110235214233,
      0.17643137276172638,
      0.17476123571395874,
      0.18470896780490875,
      -0.20286862552165985,
      -0.19242119789123535,
      -0.14061973989009857,
      0.18586760759353638,
      0.20539787411689758,
      0.19447824358940125,
      -0.16692174971103668,
      -0.18972204625606537,
      -0.19129601120948792,
      0.17676471173763275,
      0.17900057137012482,
      0.1671159267425537,
      -0.19662103056907654,
      -0.20356202125549316,
      -0.20666572451591492,
      -0.19811469316482544,
      0.18970942497253418,
      0.16690564155578613,
      0.19193758070468903,
      -0.15292677283287048,
      -0.18771657347679138,
      -0.18558233976364136,
      0.20261001586914062,
      0.202599436044693,
      0.18920393288135529,
      -0.18165498971939087,
      -0.19494935870170593,
      -0.2055470496416092
    ],
    [
      0.19820094108581543,
      -0.17993707954883575,
      -0.18385398387908936,
      -0.19137626886367798,
      0.18402647972106934,
      0.1926477700471878,
      0.18991881608963013,
      -0.17285531759262085,
      -0.20758511126041412,
      -0.19945426285266876,
      0.19443294405937195,
      0.20181617140769958,
      0.2071111798286438,
      0.17794127762317657,
      -0.19282400608062744,
      -0.19510528445243835,
      -0.18801294267177582,
      0.1893768459558487,
      0.18672309815883636,
      0.19003091752529144,
      -0.2011192888021469,
      -0.19459731876850128,
      -0.17770536243915558,
      0.19735285639762878,
      0.207952082157135,
      0.19927892088890076,
      -0.18323957920074463,
      -0.20485404133796692,
      -0.20820146799087524,
      0.18656176328659058,
      0.19175240397453308,
      0.19683191180229187,
      -0.1899331510066986,
      -0.18808868527412415,
      -0.1888318806886673,
      -0.1875353753566742,
      0.20042026042938232,
      0.19642888009548187,
      0.18990589678287506,
      -0.20165134966373444,
      -0.20823980867862701,
      -0.2036440223455429,
      0.19828766584396362,
      0.20443838834762573,
      0.2013615369796753,
      -0.17863880097866058,
      -0.18860909342765808,
      -0.19613128900527954
    ],
    [
      -0.1801636964082718,
      0.1859733611345291,
      0.1832347959280014,
      0.19432543218135834,
      -0.1702515333890915,
      -0.19492606818675995,
      -0.20412206649780273,
      0.16715091466903687,
      0.2041313648223877,
      0.19212356209754944,
      -0.20049013197422028,
      -0.19195495545864105,
      -0.18413777649402618,
      -0.17109385132789612,
      0.18440674245357513,
      0.1962743103504181,
      0.18978625535964966,
      -0.1963416188955307,
      -0.20398680865764618,
      -0.19092810153961182,
      0.203077495098114,
      0.19133806228637695,
      0.17563453316688538,
      -0.18230397999286652,
      -0.18471533060073853,
      -0.19528475403785706,
      0.1712520569562912,
      0.19744619727134705,
      0.20330742001533508,
      -0.19605614244937897,
      -0.2032977044582367,
      -0.189936101436615,
      0.19977615773677826,
      0.18927006423473358,
      0.1852421909570694,
      0.19651196897029877,
      -0.18429313600063324,
      -0.19878655672073364,
      -0.2015993893146515,
      0.19595104455947876,
      0.2023843675851822,
      0.18823540210723877,
      -0.20235231518745422,
      -0.18846191465854645,
      -0.18144744634628296,
      0.1799965500831604,
      0.18564660847187042,
      0.19981688261032104
    ],
    [
      0.19430382549762726,
      -0.1938040405511856,
      -0.18190708756446838,
      -0.20056888461112976,
      0.18175604939460754,
      0.1948513239622116,
      0.1852920651435852,
      -0.1550479382276535,
      -0.20246292650699615,
      -0.1858007162809372,
      0.18727640807628632,
      0.1883285641670227,
      0.20118533074855804,
      0.15739010274410248,
      -0.18432778120040894,
      -0.19792290031909943,
      -0.17898540198802948,
      0.19772936403751373,
      0.18373294174671173,
      0.20135699212551117,
      -0.19994375109672546,
      -0.18973377346992493,
      -0.181134432554245,
      0.17725133895874023,
      0.2022823840379715,
      0.18140478432178497,
      -0.17347058653831482,
      -0.19282099604606628,
      -0.19625921547412872,
      0.19981937110424042,
      0.18209068477153778,
      0.2006235420703888,
      -0.19345392286777496,
      -0.19313950836658478,
      -0.1856750100851059,
      -0.1998385488986969,
      0.20169907808303833,
      0.18464939296245575,
      0.19433268904685974,
      -0.18618923425674438,
      -0.1999138742685318,
      -0.18240897357463837,
      0.18323083221912384,
      0.19786150753498077,
      0.18823407590389252,
      -0.18924911320209503,
      -0.18389666080474854,
      -0.2026551514863968
    ],
    [
      0.18693149089813232,
      -0.17949141561985016,
      -0.20431873202323914,
      -0.1857086718082428,
      0.17367422580718994,
      0.20052114129066467,
      0.19621077179908752,
      -0.17134560644626617,
      -0.18880027532577515,
      -0.20486976206302643,
      0.20199158787727356,
      0.18689663708209991,
      0.20005138218402863,
      0.1698199361562729,
      -0.1993466466665268,
      -0.18829913437366486,
      -0.19085969030857086,
      0.20641331374645233,
      0.1873122602701187,
      0.20116637647151947,
      -0.1963919997215271,
      -0.1989642083644867,
      -0.1795080155134201,
      0.17727234959602356,
      0.206487238407135,
      0.18451552093029022,
      -0.17598475515842438,
      -0.1982153356075287,
      -0.19914217293262482,
      0.19995874166488647,
      0.18757860362529755,
      0.20649544894695282,
      -0.20127519965171814,
      -0.18880732357501984,
      -0.1990523487329483,
      -0.19585475325584412,
      0.20039916038513184,
      0.18763235211372375,
      0.20461313426494598,
      -0.201394721865654,
      -0.18948200345039368,
      -0.19788998365402222,
      0.19419080018997192,
      0.20232725143432617,
      0.18194134533405304,
      -0.17665733397006989,
      -0.20411768555641174,
      -0.18882420659065247
    ]
  ],
  "action_output_bias": -0.0014124491717666388,
  "action_output_weights": [
    0.12487239390611649,
    -0.1238689050078392,
    -0.122398242354393,
    -0.13479579985141754,
    0.12420261651277542,
    0.1271931529045105,
    0.13436821103096008,
    -0.11161190271377563,
    -0.13549895584583282,
    -0.1274012178182602,
    0.1302863508462906,
    0.12664508819580078,
    0.12616650760173798,
    0.11788090318441391,
    -0.13433921337127686,
    -0.12575870752334595,
    -0.1245950311422348,
    0.13417580723762512,
    0.1267021745443344,
    0.13266821205615997,
    -0.13466721773147583,
    -0.12859408557415009,
    -0.12069956213235855,
    0.12295350432395935,
    0.1360912322998047,
    0.12639327347278595,
    -0.1241692379117012,
    -0.13701285421848297,
    -0.1349969506263733,
    0.13128560781478882,
    0.13586921989917755,
    0.13551828265190125,
    -0.1305989921092987,
    -0.12539491057395935,
    -0.13557597994804382,
    -0.1314847469329834,
    0.12733343243598938,
    0.1366136521100998,
    0.13169972598552704,
    -0.12271871417760849,
    -0.13734598457813263,
    -0.13243848085403442,
    0.1332688182592392,
    0.13670483231544495,
    0.12449859827756882,
    -0.12285494804382324,
    -0.12342368066310883,
    -0.13439787924289703
  ],
  "action_value_output_bias": -0.004360337276011705,
  "action_value_output_weights": [
    0.001714516431093216,
    -0.0025771346408873796,
    -0.0003777928068302572,
    -0.002010018564760685,
    0.0014876669738441706,
    0.0008484136778861284,
    0.0007017944008111954,
    0.0015600200276821852,
    -0.002078687772154808,
    -0.001934211584739387,
    0.0005217272555455565,
    0.0006583304493688047,
    0.001606855308637023,
    0.00047922582598403096,
    -0.0020121887791901827,
    -0.002535998122766614,
    0.0003591245040297508,
    0.00027442225837148726,
    0.0012231128057464957,
    0.0011719008907675743,
    -0.00132097362075001,
    -0.0006538375746458769,
    -0.0017452200409024954,
    0.0010008597746491432,
    0.0010157793294638395,
    0.001040841918438673,
    -0.0013435415457934141,
    -6.740332173649222e-05,
    -0.0005987891927361488,
    0.0013426264049485326,
    0.0013131534215062857,
    0.001272846246138215,
    -0.0009701286908239126,
    -0.00022711986093781888,
    -0.00013676940579898655,
    -0.0018445488531142473,
    0.0016812009271234274,
    0.0008181612938642502,
    0.0010276766261085868,
    0.00016146809502970427,
    -0.001988958567380905,
    -0.0008497002418152988,
    0.0017237226711586118,
    0.0005265334038995206,
    0.0018825100269168615,
    -0.0020676706917583942,
    -0.0018272652523592114,
    -0.0008777804905548692
  ],
  "activation": "tanh",
  "categories": [
    "airplane",
    "chair",
    "table"
  ],
  "default_logit": -9.128479345495862,
  "fallback_coord_scale_logits": {
    "0:0": -2.9039209162205024,
    "0:1": -3.183058736889287,
    "1:0": -3.296596868212345,
    "1:1": -2.753454525667766,
    "2:0": -3.1147641894530604,
    "2:1": -1.955287603009264,
    "3:0": -3.154669733626601,
    "3:1": -2.9929144544141235,
    "4:0": -2.8131213439735276,
    "4:1": -3.250743563716223,
    "5:0": -1.7407701064148215,
    "5:1": -3.081107166449584,
    "6:0": -1.5883890253505373
  },
  "feature_names": [
    "bias_context",
    "bvs",
    "bvs_minus_one",
    "abs_bvs_minus_one",
    "step_fraction",
    "action_unit",
    "num_bbox_scaled",
    "cover_penalty_scaled",
    "pen_rate",
    "category=airplane",
    "category=chair",
    "category=table",
    "bbox_idx_norm",
    "bbox_centered",
    "bbox_reverse_norm",
    "local_action_norm",
    "is_axis_action",
    "is_recenter_action",
    "is_lower_coord",
    "is_upper_coord",
    "signed_scale_norm",
    "abs_scale_norm",
    "scale_idx_norm",
    "axis=x",
    "axis=y",
    "axis=z",
    "coord=0",
    "coord=1",
    "coord=2",
    "coord=3",
    "coord=4",
    "coord=5",
    "coord=6",
    "scale_idx=0",
    "scale_idx=1"
  ],
  "hidden_size": 48,
  "metadata": {
    "accepted_weight": 0.4,
    "advantage_baseline": "category",
    "advantage_clip": 5.0,
    "advantage_mean": -0.07473727569193443,
    "advantage_std": 7.25361665234508,
    "candidate_actions_seen": 1219439,
    "candidate_records_used": 2937,
    "candidate_weight": 1.0,
    "categories": [
      "airplane",
      "chair",
      "table"
    ],
    "category_balance": true,
    "device": "cpu",
    "entropy_coef": 0.005,
    "epochs": 35,
    "fallback_min_reward": 0.0,
    "hidden_size": 48,
    "l2": 0.0001,
    "learning_rate": 0.005,
    "logit_scale": 0.672036157218786,
    "max_logit_abs": 6.0,
    "mean_example_weight": 0.5825954098702151,
    "meshes": [
      "1006be65e7bc937e9141f9b58470d646",
      "1007e20d5e811b308351982a6e40cf41",
      "100b18376b885f206ae9ad7e32c4139d",
      "1011e1c9812b84d2a9ed7bb5b55809f8",
      "10139657dfa9afe0c3bd24f986301745",
      "1013f70851210a618f2e765c4a8ed3d",
      "10155655850468db78d106ce0a280f87",
      "1015e71a0d21b127de03ab2a27ba7531",
      "1016f4debe988507589aae130c1f06fb",
      "1021a0914a7207aff927ed529ad90a11",
      "1026dd1b26120799107f68a9cb8e3c",
      "1028a9cbaa7a333230bbd4cddd04c77b",
      "1028b32dc1873c2afe26a3ac360dbd4",
      "102f0532f9f8bbcdcb503f63ed915ed2",
      "1033ee86cc8bac4390962e4fb7072b86",
      "1033f41fd2decfa938da3ea2c9e0e4f",
      "103a0a413d4c3353a723872ad91e4ed1",
      "103a60f3b09107df2da1314e036b435e",
      "103ad97126bc54f4fc5e9e325e1bd5b8",
      "103b75dfd146976563ed57e35c972b4b",
      "103c31671f8c0b1467bb14b25f99796e",
      "103c9e43cdf6501c62b600da24e0965",
      "103d77d63f0d68a044e6721e9db29c1b",
      "1040cd764facf6981190e285a2cbc9c",
      "104256e5bb73b0b719fb4103277a6b93",
      "1049953406c81b237eaeab1f0c9120b7",
      "104c5225ef0a288ff932326d9778e21b",
      "104c8e90ecf0e5351ed672982b7954af",
      "10506aab1adfe9f4eb7b988bf4f0d1ef",
      "105b9a03ddfaf5c5e7828dbf1991f6a4",
      "105f53a6471f3ceb4a420e3c1b966720",
      "105f7f51e4140ee4b6b87e72ead132ed",
      "1063d4fcd366de4060e37b3f76995f8b",
      "10657fcfce1d326b30bbd4cddd04c77b",
      "1066b65c30d153e04c3a35cee92bb95b",
      "106a0dbaead5066519fb4103277a6b93",
      "106c7f10c5bf5bd5f51f77a6d7299806",
      "106dfe858cb8fbc2afc6b80d80a265ab",
      "106e9487a1d47ff1a09cb462b3e723e2",
      "10709332176024ce9e47e7a22e24daa3",
      "10733a711fe254965d7786e1df78254f",
      "1079635b3da12a812cee4bf5d0f11ffe",
      "107caefdad02cf1c8ab8e68cb52baa6a",
      "107ed94869ed6f1be13496cd332ce78f",
      "108238b535eb293cd79b19c7c4f0e293",
      "1093d35c2ac73bb74ca84d60642ec7e8",
      "1096b4a30bd7717c4733824eae5cd9ae",
      "109738784a0a6129a02c88fe01f2b9c1",
      "10991b3b01cc6cc99982a4d6320875e",
      "109a8d453ce93a6fc21b51dd4113da62",
      "10a4e263f8087c4b8cf2bc41970d572a",
      "10aa040f470500c6a66ef8df4909ded9",
      "10af5de930178a161596c26b5af806fe",
      "10b0d655bf4938eae1ab19b3beff6716",
      "10b5723ea035cb047464e25da6d2e90",
      "10b6147009cbc17ec25cfdac7cd67ea3",
      "10bb44a54a12a74e4719088c8e42c6ab",
      "10c0eecb17d1bac64b3c42e318f3affc",
      "10c25bdfea5eccfd153555abe935e806",
      "10c7cdfdffe2243b88a89a28f04ce622",
      "10ca7bfe736d81b64b3c42e318f3affc",
      "10cc8c941fc8aeaa71a782a4379556c7",
      "10cd74fb0af8021fbf7cf6012a0af9fc",
      "10cfc2090a2ade124c3a35cee92bb95b",
      "10db820f0e20396a492c7ca609cb0182",
      "10e0a7255d279a419751c7a6f15617f4",
      "10e4331c34d610dacc14f1e6f4f4f49b",
      "10eeb119fd5508e0d6d949577c389a84",
      "110f6dbf0e6216e9f9a63e9a8c332e52",
      "112ca5420188df4bd90bfc986bc4c94d",
      "1169d987dbbce76775f4ea0b85a53249",
      "117830993cc5887726587cb13c78fb9b",
      "117861b9ebca4f17c69cb28fb4b4d257",
      "118e8142a8cb1fe19a4a28ef635593ce",
      "11b7c86fc42306ec7e7e25239e7b8f85",
      "11d2af04fad0a7e2ce19d55bc5e6a406",
      "11def84f9fe8ab0acd726e804e5d7a",
      "1203825bf97bc3524722e1824a086fad",
      "123bd9e948881939c38a1d3458dafa1b",
      "12877bdca58ccbea402991f646f01d6c",
      "13370c42b8ea45cf5e8172e6d9ae84ff",
      "1692563658149377630047043c6a0c50",
      "16f603525c5ce57b23f7198a00163bb6",
      "16fa03bfc61770652c5d34a902e568f9",
      "17883ea5a837f5731250f48219951972",
      "17c2d3e052dfe73f9cc1fc25372199f",
      "1804dd6f5c827c1a4bf8d5f43e57b138",
      "18806a80387734b754c7b6e11bf7148d",
      "18be1556eb4da5af7ccf848ce05c84be",
      "194fd39afab11888b84c578d4c100fe6",
      "196d35794f869816db6f03b6829a5891",
      "1998ee1bf3806b05818b286e41cc1a3f",
      "19a624cf1037fc75cda1835f53ae7d53",
      "19c8189116dd7cd3e95c611687989498",
      "1a00aa6b75362cc5b324368d54a7416f",
      "1a96d308eef57195efaa61516f88b67",
      "1ac6531a337de85f2f7628d6bf38bcc4",
      "1b78b8e14a21439afab04609f4609e83",
      "1c3310f4c05ce1f6a192483aa282f8e5",
      "1c45b266d3c879dab36dcc661f3905d",
      "1cb2fe52097b5304217ffa735084910f",
      "1cd6a00b71f02b06430c2c15987e4cd",
      "1ce5b9a79420e946bff7790df3158906",
      "1ee30d218c8c730ecb01bc908e8cea6",
      "1f3fd9b2ce99e4ed164ee3a88aef3755",
      "1f5537f4747ec847622c69c3abc6f80",
      "2066f1830765183544bb6b89d63deb6f",
      "20dbfa169424bb8ed7b90ecb4a11cd32",
      "22e4e0210f80fae813940713146922c1",
      "23acbdfee13b407ce42d6c2ea750090e",
      "240136d2ae7d2dec9fe69c7ccc27d2bf",
      "24445a532ce3e18f7b5f4d129cc2873d",
      "24fdf6e5090bc3442370db05a58bf9c6",
      "2581685a8aeff78b713decb1a0563b12",
      "2592e69aaa2344292463e74275a0e3c",
      "25ad35439836dd7c8fc307d246c19849",
      "260305219d81f745623cba1f26a8e885",
      "2718b1d46ca52df052bfb1d5ec273240",
      "2724c02bc7797bd1486150a9b7f2cf18"
    ],
    "min_reward": -1000.0,
    "model_type": "policy_value_agent",
    "num_meshes": 119,
    "pre_scale_max_abs_logit": 8.928091049194336,
    "records_seen": 13439,
    "records_used": 13439,
    "reward_mean": 0.10445155873436228,
    "reward_weighted": false,
    "selected_candidate_weight": 1.5,
    "smoothing": 1.0,
    "source": "smart.action_prior.build_policy_value_action_prior_from_traces",
    "torch_version": "2.8.0",
    "trace_files": [
      "runs/bench_exact/action_prior_generalization_expanded2_mlp_smoke/airplane_123bd9e948881939c38a1d3458dafa1b.trace.jsonl",
      "runs/bench_exact/action_prior_generalization_expanded2_mlp_smoke/airplane_12877bdca58ccbea402991f646f01d6c.trace.jsonl",
      "runs/bench_exact/action_prior_generalization_smoke3/airplane_1f5537f4747ec847622c69c3abc6f80.trace.jsonl",
      "runs/bench_exact/action_prior_generalization_smoke3/airplane_260305219d81f745623cba1f26a8e885.trace.jsonl",
      "runs/bench_exact/action_prior_generalization_smoke3/chair_11b7c86fc42306ec7e7e25239e7b8f85.trace.jsonl",
      "runs/bench_exact/action_prior_generalization_smoke3_smallw/airplane_1f5537f4747ec847622c69c3abc6f80.trace.jsonl",
      "runs/bench_exact/action_prior_generalization_smoke3_smallw/airplane_260305219d81f745623cba1f26a8e885.trace.jsonl",
      "runs/bench_exact/action_prior_generalization_smoke3_smallw/chair_11b7c86fc42306ec7e7e25239e7b8f85.trace.jsonl",
      "runs/bench_exact/action_prior_generalization_smoke5_w01/airplane_1f5537f4747ec847622c69c3abc6f80.trace.jsonl",
      "runs/bench_exact/action_prior_generalization_smoke5_w01/airplane_260305219d81f745623cba1f26a8e885.trace.jsonl",
      "runs/bench_exact/action_prior_generalization_smoke5_w01/chair_11b7c86fc42306ec7e7e25239e7b8f85.trace.jsonl",
      "runs/bench_exact/action_prior_generalization_smoke5_w01/chair_17883ea5a837f5731250f48219951972.trace.jsonl",
      "runs/bench_exact/action_prior_generalization_smoke5_w01/table_1692563658149377630047043c6a0c50.trace.jsonl",
      "runs/bench_exact/action_prior_linear_airplane2_mcts2/airplane_123bd9e948881939c38a1d3458dafa1b.trace.jsonl",
      "runs/bench_exact/action_prior_linear_airplane2_mcts2/airplane_12877bdca58ccbea402991f646f01d6c.trace.jsonl",
      "runs/bench_exact/action_prior_linear_smoke3_mcts5/airplane_123bd9e948881939c38a1d3458dafa1b.trace.jsonl",
      "runs/bench_exact/action_prior_linear_smoke3_mcts5/airplane_12877bdca58ccbea402991f646f01d6c.trace.jsonl",
      "runs/bench_exact/action_prior_linear_smoke3_mcts5/airplane_13370c42b8ea45cf5e8172e6d9ae84ff.trace.jsonl",
      "runs/bench_exact/action_prior_mlp_airplane2_mcts2/airplane_123bd9e948881939c38a1d3458dafa1b.trace.jsonl",
      "runs/bench_exact/action_prior_mlp_airplane2_mcts2/airplane_12877bdca58ccbea402991f646f01d6c.trace.jsonl",
      "runs/bench_exact/action_prior_puct_linear_airplane1_mcts2/airplane_123bd9e948881939c38a1d3458dafa1b.trace.jsonl",
      "runs/bench_exact/action_prior_puct_linear_airplane2_mcts2/airplane_123bd9e948881939c38a1d3458dafa1b.trace.jsonl",
      "runs/bench_exact/action_prior_puct_linear_airplane2_mcts2/airplane_12877bdca58ccbea402991f646f01d6c.trace.jsonl",
      "runs/bench_exact/airplane_mcts10_action_prior_sweep.trace.jsonl",
      "runs/bench_exact/airplane_mcts20_action_prior_actionlogits_sweep.trace.jsonl",
      "runs/bench_exact/airplane_mcts20_action_prior_sweep.trace.jsonl",
      "runs/bench_exact/airplane_mcts20_action_prior_tt_sweep.trace.jsonl",
      "runs/bench_exact/debug_unscored_base20_fresh.jsonl",
      "runs/bench_exact/debug_unscored_base5.jsonl",
      "runs/bench_exact/debug_unscored_opt20.jsonl",
      "runs/bench_exact/debug_unscored_opt5.jsonl",
      "runs/bench_exact/table_mcts_trace_for_prior.jsonl",
      "runs/bench_exact/trace_collection/expanded_full_cat20_20260514_airplane_batch001.jsonl",
      "runs/bench_exact/trace_collection/expanded_full_cat20_20260514_airplane_batch002.jsonl",
      "runs/bench_exact/trace_collection/expanded_full_cat20_20260514_airplane_batch003.jsonl",
      "runs/bench_exact/trace_collection/expanded_full_cat20_20260514_airplane_batch004.jsonl",
      "runs/bench_exact/trace_collection/expanded_full_cat20_20260514_chair_batch001.jsonl",
      "runs/bench_exact/trace_collection/expanded_full_cat20_20260514_chair_batch002.jsonl",
      "runs/bench_exact/trace_collection/expanded_full_cat20_20260514_chair_batch003.jsonl",
      "runs/bench_exact/trace_collection/expanded_full_cat20_20260514_chair_batch004.jsonl",
      "runs/bench_exact/trace_collection/expanded_full_cat20_20260514_chair_batch005.jsonl",
      "runs/bench_exact/trace_collection/expanded_full_cat20_20260514_table_batch001.jsonl",
      "runs/bench_exact/trace_collection/expanded_full_cat20_20260514_table_batch002.jsonl",
      "runs/bench_exact/trace_collection/expanded_full_cat20_20260514_table_batch003.jsonl",
      "runs/bench_exact/trace_collection/expanded_full_cat20_20260514_table_batch004.jsonl",
      "runs/bench_exact/trace_collection/expanded_full_cat20_20260514_table_batch005.jsonl",
      "runs/bench_exact/trace_collection/expanded_full_next_20260514_airplane_batch001.jsonl",
      "runs/bench_exact/trace_collection/expanded_full_next_20260514_chair_batch001.jsonl",
      "runs/bench_exact/trace_collection/expanded_full_next_20260514_table_batch001.jsonl",
      "runs/bench_exact/trace_collection/expanded_more_20260514_airplane_batch001.jsonl",
      "runs/bench_exact/trace_collection/expanded_more_20260514_chair_batch001.jsonl",
      "runs/bench_exact/trace_collection/expanded_more_20260514_table_batch001.jsonl",
      "runs/bench_exact/trace_collection/shapenet_v1_first_20260514_airplane_batch001.jsonl",
      "runs/bench_exact/trace_collection/shapenet_v1_first_20260514_chair_batch001.jsonl",
      "runs/bench_exact/trace_collection/shapenet_v1_first_20260514_table_batch001.jsonl",
      "runs/bench_exact/traces/airplane_mcts20_trace.jsonl",
      "runs/bench_exact/traces/mcts_airplane_1f5537f474_manifold.jsonl",
      "runs/bench_exact/traces/mcts_airplane_1f5537f474_manifold_stateful.jsonl",
      "runs/bench_exact/traces/mcts_airplane_260305219d_manifold.jsonl",
      "runs/bench_exact/traces/mcts_airplane_260305219d_manifold_stateful.jsonl",
      "runs/bench_exact/traces/mcts_chair_11b7c86fc4_manifold.jsonl",
      "runs/bench_exact/traces/mcts_chair_11b7c86fc4_manifold_stateful.jsonl",
      "runs/bench_exact/traces/mcts_chair_17883ea5a8_manifold.jsonl",
      "runs/bench_exact/traces/mcts_chair_17883ea5a8_manifold_stateful.jsonl",
      "runs/bench_exact/traces/mcts_table_1692563658_manifold.jsonl",
      "runs/bench_exact/traces/mcts_table_1692563658_manifold_stateful.jsonl",
      "runs/bench_exact/traces/trace_chair_11b7_baseline.jsonl",
      "runs/bench_exact/traces/trace_chair_11b7_stateful_python.jsonl",
      "runs/bench_exact/traces_expanded_batch2_airplane5_mcts20.jsonl",
      "runs/bench_exact/traces_expanded_batch2_chair5_mcts20.jsonl",
      "runs/bench_exact/traces_expanded_batch2_table5_mcts20.jsonl",
      "runs/bench_exact/traces_expanded_batch2_table_replacement_mcts20.jsonl",
      "runs/bench_exact/traces_expanded_batch_airplane5_mcts20.jsonl",
      "runs/bench_exact/traces_expanded_batch_chair5_mcts20.jsonl",
      "runs/bench_exact/traces_expanded_batch_table5_mcts20.jsonl",
      "runs/bench_exact/traces_properties/mcts_airplane_123bd9e948_manifold.jsonl",
      "runs/bench_exact/traces_properties/mcts_airplane_123bd9e948_manifold_stateful.jsonl",
      "runs/bench_exact/traces_properties/mcts_airplane_123bd9e948_manifold_stateful_properties.jsonl",
      "runs/bench_exact/traces_properties/schema_v2_probe.jsonl",
      "runs/bench_exact/candidate_traces/candidate_pg_cat10_mcts10_airplane_candidates.jsonl",
      "runs/bench_exact/candidate_traces/candidate_pg_cat10_mcts10_chair_candidates.jsonl",
      "runs/bench_exact/candidate_traces/candidate_pg_cat10_mcts10_table_candidates.jsonl",
      "runs/bench_exact/candidate_traces/candidate_pg_cat3_mcts10_airplane_candidates.jsonl",
      "runs/bench_exact/candidate_traces/candidate_pg_cat3_mcts10_chair_candidates.jsonl",
      "runs/bench_exact/candidate_traces/candidate_pg_cat3_mcts10_table_candidates.jsonl",
      "runs/bench_exact/candidate_traces/candidate_pg_pilot_cat1_mcts10_airplane_candidates.jsonl",
      "runs/bench_exact/candidate_traces/candidate_pg_pilot_cat1_mcts10_chair_candidates.jsonl",
      "runs/bench_exact/candidate_traces/candidate_pg_pilot_cat1_mcts10_table_candidates.jsonl",
      "runs/bench_exact/candidate_trace_probe.jsonl"
    ],
    "trainer": "scripts/train_action_prior_from_traces.py",
    "trainer_backend": "torch",
    "value_candidate_records_used": 2937,
    "value_clip": 5.0,
    "value_epochs": 35,
    "value_learning_rate": 0.005,
    "value_records_used": 13439,
    "value_target_mean": -0.07473727569193443,
    "value_target_std": 7.25361665234508
  },
  "num_action_scale": 2,
  "policy_type": "action_policy_value_prior",
  "schema_version": 2
}