{
  "activation": "tanh",
  "categories": [
    "chair"
  ],
  "classes": [
    "0:0",
    "0:1",
    "1:0",
    "1:1",
    "2:0",
    "2:1",
    "3:0",
    "3:1",
    "4:0",
    "4:1",
    "5:0",
    "5:1",
    "6:0"
  ],
  "default_logit": -7.861341795599989,
  "fallback_coord_scale_logits": {
    "0:0": -2.6038464235722074,
    "0:1": -2.8309038742075536,
    "1:0": -3.296993604132153,
    "1:1": -1.9478387899617189,
    "2:0": -3.3840049811217825,
    "2:1": -1.8187089619176076,
    "3:0": -2.523803715898671,
    "3:1": -2.9340881104427843,
    "4:0": -2.7314430806769154,
    "4:1": -2.9938073451444067,
    "5:0": -2.5730747649054537,
    "5:1": -3.2462212787587297,
    "6:0": -2.059223420222926
  },
  "feature_names": [
    "bias_context",
    "bvs",
    "bvs_minus_one",
    "abs_bvs_minus_one",
    "step_fraction",
    "action_unit",
    "num_bbox_scaled",
    "cover_penalty_scaled",
    "pen_rate",
    "category=chair"
  ],
  "hidden_bias": [
    0.9761236310005188,
    -0.9904133677482605,
    -0.9840718507766724,
    2.8509161472320557,
    0.9909607768058777,
    -0.9897758364677429,
    0.9838807582855225,
    2.918583869934082,
    -0.9893267750740051,
    0.9897042512893677,
    0.9805600643157959,
    2.9991118907928467,
    0.9905881881713867,
    0.9781641364097595,
    -0.9926603436470032,
    -0.9879778623580933,
    -0.9822995662689209,
    -0.9806070923805237,
    0.9798616170883179,
    2.924234390258789,
    0.9830846786499023,
    2.8573129177093506,
    0.9838823080062866,
    0.9723802208900452,
    -0.9827424883842468,
    0.9781897664070129,
    -0.9911795258522034,
    -0.985857367515564,
    0.986935555934906,
    0.9780516028404236,
    2.9458789825439453,
    0.9932010173797607,
    0.9796356558799744,
    0.9731994867324829,
    -3.003124952316284,
    0.977714478969574,
    -0.9810543060302734,
    0.9824687242507935,
    3.0098719596862793,
    -0.9937898516654968,
    -0.9743921160697937,
    -2.997339963912964,
    -0.9783355593681335,
    0.9825388193130493,
    0.977637767791748,
    -2.9146053791046143,
    -0.9841731190681458,
    2.87347412109375
  ],
  "hidden_size": 48,
  "input_weights": [
    [
      0.983366847038269,
      -0.9801174998283386,
      -0.9815161228179932,
      2.8419485092163086,
      0.9801810383796692,
      -0.9912459850311279,
      0.9892868399620056,
      2.9269609451293945,
      -0.9840298891067505,
      0.9830272793769836,
      0.9693660736083984,
      2.992117166519165,
      0.99350905418396,
      0.9869669079780579,
      -0.9847762584686279,
      -0.9896987080574036,
      -0.9907663464546204,
      -0.9869123697280884,
      0.9802113771438599,
      2.931847333908081,
      0.9902939796447754,
      2.85581636428833,
      0.9742697477340698,
      0.9622705578804016,
      -0.9828568696975708,
      0.9846843481063843,
      -0.980370819568634,
      -0.9819782972335815,
      0.9791617393493652,
      0.9670017957687378,
      2.9402987957000732,
      0.9974484443664551,
      0.9884810447692871,
      0.9774830341339111,
      -3.0057742595672607,
      0.9667146801948547,
      -0.9861552119255066,
      0.9842549562454224,
      3.017867088317871,
      -0.9849626421928406,
      -0.9749293327331543,
      -3.0048794746398926,
      -0.9855514764785767,
      0.9815831184387207,
      0.9849558472633362,
      -2.904094696044922,
      -0.9817896485328674,
      2.864382266998291
    ],
    [
      0.9119098782539368,
      -0.8870992064476013,
      -0.8866161704063416,
      2.504714250564575,
      0.8723605275154114,
      -0.911451518535614,
      0.8875921964645386,
      2.5735902786254883,
      -0.8801141381263733,
      0.9069850444793701,
      0.9477734565734863,
      2.5218911170959473,
      0.9157249331474304,
      0.887374997138977,
      -0.9505211710929871,
      -0.8730216026306152,
      -0.8833982944488525,
      -0.9001474380493164,
      0.884231448173523,
      2.6140079498291016,
      0.8889598250389099,
      2.51175594329834,
      0.8993873000144958,
      0.9131056070327759,
      -0.897996723651886,
      0.8804692029953003,
      -0.9053155779838562,
      -0.8898864984512329,
      0.8852422833442688,
      0.9360442161560059,
      2.5430102348327637,
      0.9027596712112427,
      0.8869233131408691,
      0.869690477848053,
      -2.5124335289001465,
      0.9165644645690918,
      -0.9659132957458496,
      0.892361581325531,
      2.49084210395813,
      -0.9425369501113892,
      -0.8929542899131775,
      -2.4883484840393066,
      -0.8697975873947144,
      0.8858652114868164,
      0.9143829345703125,
      -2.569162607192993,
      -0.8873441219329834,
      2.336911201477051
    ],
    [
      0.4026546776294708,
      -0.40703967213630676,
      -0.3789917826652527,
      -2.636779546737671,
      0.4029449224472046,
      -0.42191603779792786,
      0.3711928129196167,
      -2.7066450119018555,
      -0.3847850263118744,
      0.37617257237434387,
      0.4492264688014984,
      -2.700451374053955,
      0.41074061393737793,
      0.36261066794395447,
      -0.412922203540802,
      -0.39083677530288696,
      -0.3868037164211273,
      -0.40954816341400146,
      0.3883940279483795,
      -2.7144696712493896,
      0.4235486686229706,
      -2.6401147842407227,
      0.39357316493988037,
      0.4092271029949188,
      -0.42238113284111023,
      0.3694387972354889,
      -0.40191829204559326,
      -0.37179625034332275,
      0.39560747146606445,
      0.4352760314941406,
      -2.6856541633605957,
      0.3776068389415741,
      0.3897698223590851,
      0.41423678398132324,
      2.68705415725708,
      0.40112975239753723,
      -0.446980357170105,
      0.391408771276474,
      -2.6842682361602783,
      -0.40127527713775635,
      -0.43342161178588867,
      2.6869819164276123,
      -0.39239516854286194,
      0.3933011591434479,
      0.4045657515525818,
      2.685145378112793,
      -0.3812605142593384,
      -2.5571067333221436
    ],
    [
      0.4480041265487671,
      -0.4478992521762848,
      -0.4381657540798187,
      -2.67769193649292,
      0.45727264881134033,
      -0.4803244173526764,
      0.41409042477607727,
      -2.746464729309082,
      -0.45555824041366577,
      0.44442060589790344,
      0.4992019236087799,
      -2.762176513671875,
      0.46670109033584595,
      0.4191867709159851,
      -0.4834626019001007,
      -0.42400887608528137,
      -0.4554206132888794,
      -0.45529240369796753,
      0.4402098059654236,
      -2.7865471839904785,
      0.4837215542793274,
      -2.684904098510742,
      0.43971726298332214,
      0.4714975655078888,
      -0.47888535261154175,
      0.4085761308670044,
      -0.43966710567474365,
      -0.4376590847969055,
      0.45826956629753113,
      0.4899330735206604,
      -2.7569262981414795,
      0.42518478631973267,
      0.4529166519641876,
      0.44722938537597656,
      2.7684316635131836,
      0.44019484519958496,
      -0.498849481344223,
      0.4445805251598358,
      -2.7492690086364746,
      -0.4601615071296692,
      -0.4783647656440735,
      2.735645055770874,
      -0.4334498643875122,
      0.44473618268966675,
      0.45053181052207947,
      2.756822109222412,
      -0.4396529793739319,
      -2.585167407989502
    ],
    [
      0.3631293773651123,
      -0.3885425925254822,
      -0.372343510389328,
      -7.687546253204346,
      0.3644852340221405,
      -0.34958240389823914,
      0.37660786509513855,
      -7.604527473449707,
      -0.3778384327888489,
      0.3660725951194763,
      0.3553450107574463,
      -7.664942741394043,
      0.34613415598869324,
      0.39872974157333374,
      -0.3106542229652405,
      -0.40220093727111816,
      -0.39238330721855164,
      -0.35132211446762085,
      0.37934428453445435,
      -7.692237377166748,
      0.3548528552055359,
      -7.641697883605957,
      0.3848592936992645,
      0.36410966515541077,
      -0.3772067129611969,
      0.3795435428619385,
      -0.36422085762023926,
      -0.3670370280742645,
      0.38465791940689087,
      0.34234189987182617,
      -7.68969202041626,
      0.3659627437591553,
      0.392143577337265,
      0.42153400182724,
      7.595287799835205,
      0.3895317018032074,
      -0.22694005072116852,
      0.3741241991519928,
      -7.654693603515625,
      -0.32796162366867065,
      -0.3996904194355011,
      7.5926642417907715,
      -0.3889990746974945,
      0.3834524154663086,
      0.35989028215408325,
      7.530332565307617,
      -0.37197235226631165,
      -7.662755966186523
    ],
    [
      0.7074459195137024,
      -0.7243494391441345,
      -0.7196532487869263,
      3.0810422897338867,
      0.7092689275741577,
      -0.71857750415802,
      0.7052397131919861,
      3.1666171550750732,
      -0.724098265171051,
      0.7135498523712158,
      0.7125330567359924,
      3.278489351272583,
      0.7218930125236511,
      0.7177494764328003,
      -0.6998594403266907,
      -0.707783043384552,
      -0.7063058018684387,
      -0.7002657651901245,
      0.7170336246490479,
      3.1887097358703613,
      0.7154510021209717,
      3.0750577449798584,
      0.7138621807098389,
      0.7040084600448608,
      -0.7129789590835571,
      0.7023201584815979,
      -0.7242055535316467,
      -0.7239270806312561,
      0.7053471207618713,
      0.7085089683532715,
      3.196704864501953,
      0.7150492668151855,
      0.7118501663208008,
      0.7149062752723694,
      -3.2868776321411133,
      0.7169824838638306,
      -0.710092306137085,
      0.7218209505081177,
      3.3077096939086914,
      -0.7008680701255798,
      -0.7066448330879211,
      -3.279676675796509,
      -0.7107383608818054,
      0.7125735282897949,
      0.7089468836784363,
      -3.1719472408294678,
      -0.7189013361930847,
      3.1098697185516357
    ],
    [
      0.6865415573120117,
      -0.6772424578666687,
      -0.6740102171897888,
      3.8996164798736572,
      0.6856629848480225,
      -0.6945323944091797,
      0.6753694415092468,
      3.9402294158935547,
      -0.686392605304718,
      0.6971347332000732,
      0.6770851016044617,
      3.9447290897369385,
      0.6696616411209106,
      0.6692604422569275,
      -0.696723997592926,
      -0.6945152878761292,
      -0.6828478574752808,
      -0.6781994700431824,
      0.6864666938781738,
      3.9394969940185547,
      0.6828773617744446,
      3.894341468811035,
      0.6789782047271729,
      0.6612295508384705,
      -0.683047354221344,
      0.6768656373023987,
      -0.6863662600517273,
      -0.6761384010314941,
      0.6913727521896362,
      0.6724559664726257,
      3.916903257369995,
      0.6879937648773193,
      0.667621910572052,
      0.6456254720687866,
      -3.9265549182891846,
      0.6808602213859558,
      -0.6185060143470764,
      0.69188392162323,
      3.912458658218384,
      -0.69279545545578,
      -0.6850324273109436,
      -3.9349730014801025,
      -0.6839877963066101,
      0.6823903918266296,
      0.6887062788009644,
      -3.9708046913146973,
      -0.6750032901763916,
      3.917039632797241
    ],
    [
      0.9848439693450928,
      -0.9920738935470581,
      -0.99196857213974,
      2.8550217151641846,
      0.997197687625885,
      -0.9961268305778503,
      0.977517306804657,
      2.9262681007385254,
      -0.9856107234954834,
      0.9785356521606445,
      0.9797050952911377,
      3.007308006286621,
      0.9861022233963013,
      0.9681846499443054,
      -0.985471785068512,
      -0.9796240329742432,
      -0.9890583753585815,
      -0.9843158721923828,
      0.9880356788635254,
      2.9249160289764404,
      0.9719818830490112,
      2.856611728668213,
      0.9924737811088562,
      0.9677700400352478,
      -0.9902552962303162,
      0.9831514954566956,
      -0.9829692244529724,
      -0.9927886724472046,
      0.9811962246894836,
      0.9863092303276062,
      2.9461829662323,
      0.9819647669792175,
      0.9795544743537903,
      0.981870710849762,
      -3.005370616912842,
      0.9680755734443665,
      -0.9733740091323853,
      0.9879873991012573,
      2.9999260902404785,
      -0.9966754913330078,
      -0.9637928009033203,
      -2.9942245483398438,
      -0.9872314929962158,
      0.9828161001205444,
      0.9860343933105469,
      -2.9173052310943604,
      -0.9913800954818726,
      2.878689765930176
    ],
    [
      0.9790793061256409,
      -0.9966972470283508,
      -0.9733747839927673,
      2.839601516723633,
      0.9982540011405945,
      -0.9940354824066162,
      0.9843963384628296,
      2.919611692428589,
      -0.9944348931312561,
      0.997386634349823,
      0.969373881816864,
      3.0067405700683594,
      0.9824270606040955,
      0.9803696870803833,
      -0.9903861284255981,
      -0.991727352142334,
      -0.9731113910675049,
      -0.9891834259033203,
      0.9884675741195679,
      2.9147186279296875,
      0.9867658019065857,
      2.855109930038452,
      0.9793421030044556,
      0.9782665967941284,
      -0.9908223748207092,
      0.9870439767837524,
      -0.9988070130348206,
      -0.9784619212150574,
      0.9833397269248962,
      0.975110650062561,
      2.949993371963501,
      0.9833998680114746,
      0.9884107112884521,
      0.9626725316047668,
      -2.994051456451416,
      0.9725848436355591,
      -0.9798205494880676,
      0.9854905605316162,
      3.0006749629974365,
      -0.9828275442123413,
      -0.9832385778427124,
      -2.987264394760132,
      -0.9827512502670288,
      0.9829908609390259,
      0.9790788888931274,
      -2.919468641281128,
      -0.9740567803382874,
      2.8620707988739014
    ],
    [
      0.7630606889724731,
      -0.7724523544311523,
      -0.780534029006958,
      3.1802783012390137,
      0.7768791913986206,
      -0.7792797684669495,
      0.7798414826393127,
      3.25378680229187,
      -0.769743025302887,
      0.7744200825691223,
      0.7747833132743835,
      3.379542589187622,
      0.7732057571411133,
      0.7753607630729675,
      -0.7863830924034119,
      -0.7724932432174683,
      -0.7694443464279175,
      -0.7770739197731018,
      0.7780047059059143,
      3.264387845993042,
      0.7750857472419739,
      3.1577892303466797,
      0.7686159610748291,
      0.7718678116798401,
      -0.7765864729881287,
      0.7735421657562256,
      -0.7813605070114136,
      -0.7781392931938171,
      0.7797379493713379,
      0.766745388507843,
      3.3027193546295166,
      0.7779685854911804,
      0.7688925862312317,
      0.7697263360023499,
      -3.3990323543548584,
      0.7755693197250366,
      -0.7947359085083008,
      0.7741079330444336,
      3.4008853435516357,
      -0.7887057662010193,
      -0.7571529150009155,
      -3.391507387161255,
      -0.765474796295166,
      0.7726077437400818,
      0.763229250907898,
      -3.2472050189971924,
      -0.780144989490509,
      3.208247661590576
    ]
  ],
  "metadata": {
    "advantage_baseline": "mesh",
    "advantage_clip": 4.0,
    "advantage_mean": 1.307623947463378e-17,
    "advantage_std": 9.08682338242543,
    "categories": [
      "chair"
    ],
    "device": "cpu",
    "entropy_coef": 0.02,
    "epochs": 600,
    "fallback_min_reward": 0.0,
    "hidden_size": 48,
    "l2": 0.0001,
    "learning_rate": 0.01,
    "logit_scale": 0.01623898049121991,
    "max_logit_abs": 6.0,
    "meshes": [
      "1006be65e7bc937e9141f9b58470d646",
      "1007e20d5e811b308351982a6e40cf41",
      "100b18376b885f206ae9ad7e32c4139d",
      "1013f70851210a618f2e765c4a8ed3d",
      "1015e71a0d21b127de03ab2a27ba7531",
      "1016f4debe988507589aae130c1f06fb",
      "1028b32dc1873c2afe26a3ac360dbd4",
      "1033ee86cc8bac4390962e4fb7072b86",
      "103a0a413d4c3353a723872ad91e4ed1",
      "103a60f3b09107df2da1314e036b435e",
      "103b75dfd146976563ed57e35c972b4b",
      "103c31671f8c0b1467bb14b25f99796e",
      "103d77d63f0d68a044e6721e9db29c1b",
      "104256e5bb73b0b719fb4103277a6b93",
      "1049953406c81b237eaeab1f0c9120b7",
      "1063d4fcd366de4060e37b3f76995f8b",
      "106a0dbaead5066519fb4103277a6b93",
      "106c7f10c5bf5bd5f51f77a6d7299806",
      "106e9487a1d47ff1a09cb462b3e723e2",
      "10709332176024ce9e47e7a22e24daa3",
      "1079635b3da12a812cee4bf5d0f11ffe",
      "107caefdad02cf1c8ab8e68cb52baa6a",
      "107ed94869ed6f1be13496cd332ce78f",
      "108238b535eb293cd79b19c7c4f0e293",
      "1093d35c2ac73bb74ca84d60642ec7e8",
      "10991b3b01cc6cc99982a4d6320875e",
      "11b7c86fc42306ec7e7e25239e7b8f85",
      "17883ea5a837f5731250f48219951972",
      "19c8189116dd7cd3e95c611687989498",
      "1ac6531a337de85f2f7628d6bf38bcc4",
      "1c45b266d3c879dab36dcc661f3905d",
      "1ee30d218c8c730ecb01bc908e8cea6",
      "23acbdfee13b407ce42d6c2ea750090e",
      "24445a532ce3e18f7b5f4d129cc2873d",
      "24fdf6e5090bc3442370db05a58bf9c6",
      "2581685a8aeff78b713decb1a0563b12",
      "2592e69aaa2344292463e74275a0e3c",
      "25ad35439836dd7c8fc307d246c19849",
      "2718b1d46ca52df052bfb1d5ec273240",
      "2724c02bc7797bd1486150a9b7f2cf18"
    ],
    "min_reward": -1e+18,
    "model_type": "offline_rl_mlp",
    "num_meshes": 40,
    "pre_scale_max_abs_logit": 369.4813232421875,
    "records_seen": 3532,
    "records_used": 3532,
    "reward_mean": 0.0015162839786798284,
    "smoothing": 1.0,
    "source": "smart.action_prior.build_rl_mlp_action_prior_from_traces",
    "torch_version": "2.8.0",
    "trace_files": [
      "runs/bench_exact/action_prior_generalization_smoke3/chair_11b7c86fc42306ec7e7e25239e7b8f85.trace.jsonl",
      "runs/bench_exact/action_prior_generalization_smoke3_smallw/chair_11b7c86fc42306ec7e7e25239e7b8f85.trace.jsonl",
      "runs/bench_exact/action_prior_generalization_smoke5_w01/chair_11b7c86fc42306ec7e7e25239e7b8f85.trace.jsonl",
      "runs/bench_exact/action_prior_generalization_smoke5_w01/chair_17883ea5a837f5731250f48219951972.trace.jsonl",
      "runs/bench_exact/trace_collection/expanded_full_cat20_20260514_chair_batch001.jsonl",
      "runs/bench_exact/trace_collection/expanded_full_cat20_20260514_chair_batch002.jsonl",
      "runs/bench_exact/trace_collection/expanded_full_cat20_20260514_chair_batch003.jsonl",
      "runs/bench_exact/trace_collection/expanded_full_cat20_20260514_chair_batch004.jsonl",
      "runs/bench_exact/trace_collection/expanded_full_cat20_20260514_chair_batch005.jsonl",
      "runs/bench_exact/trace_collection/expanded_full_next_20260514_chair_batch001.jsonl",
      "runs/bench_exact/trace_collection/expanded_more_20260514_chair_batch001.jsonl",
      "runs/bench_exact/trace_collection/shapenet_v1_first_20260514_chair_batch001.jsonl",
      "runs/bench_exact/traces/mcts_chair_11b7c86fc4_manifold.jsonl",
      "runs/bench_exact/traces/mcts_chair_11b7c86fc4_manifold_stateful.jsonl",
      "runs/bench_exact/traces/mcts_chair_17883ea5a8_manifold.jsonl",
      "runs/bench_exact/traces/mcts_chair_17883ea5a8_manifold_stateful.jsonl",
      "runs/bench_exact/traces/trace_chair_11b7_baseline.jsonl",
      "runs/bench_exact/traces/trace_chair_11b7_stateful_python.jsonl",
      "runs/bench_exact/traces_expanded_batch2_chair5_mcts20.jsonl",
      "runs/bench_exact/traces_expanded_batch_chair5_mcts20.jsonl"
    ],
    "trainer_backend": "torch"
  },
  "num_action_scale": 2,
  "output_bias": [
    0.056666746735572815,
    -0.13929349184036255,
    0.05611570551991463,
    -0.13946856558322906,
    0.07364118099212646,
    -0.13991644978523254,
    -0.13936758041381836,
    0.05235901474952698,
    -0.13970285654067993,
    0.04648661985993385,
    -0.1397220492362976,
    0.05348251760005951,
    -0.13929496705532074
  ],
  "output_weights": [
    [
      0.10279213637113571,
      -0.10214431583881378,
      0.10137665271759033,
      -0.10164301097393036,
      0.11867377161979675,
      -0.10006257146596909,
      -0.10200916975736618,
      0.09724821895360947,
      -0.10203047096729279,
      0.0905817449092865,
      -0.09996181726455688,
      0.10082066059112549,
      -0.10193204134702682
    ],
    [
      -0.10268360376358032,
      0.10157556086778641,
      -0.10096275806427002,
      0.10121419280767441,
      -0.11815474927425385,
      0.10003833472728729,
      0.10221035033464432,
      -0.09765893965959549,
      0.1018383800983429,
      -0.09132751077413559,
      0.09949781000614166,
      -0.09988393634557724,
      0.10206328332424164
    ],
    [
      -0.10252195596694946,
      0.1019570529460907,
      -0.10129481554031372,
      0.10141066461801529,
      -0.11844107508659363,
      0.10008180886507034,
      0.10220077633857727,
      -0.09741870313882828,
      0.10173738747835159,
      -0.09127382189035416,
      0.0997229591012001,
      -0.1001163050532341,
      0.1017860472202301
    ],
    [
      0.09583450108766556,
      -0.10277426987886429,
      0.08503445237874985,
      -0.10534758865833282,
      0.14146001636981964,
      -0.10623150318861008,
      -0.10354273021221161,
      0.09422580152750015,
      -0.10473594069480896,
      0.08625169098377228,
      -0.10658250004053116,
      0.08272770792245865,
      -0.10224389284849167
    ],
    [
      0.10261479765176773,
      -0.10178228467702866,
      0.10123959928750992,
      -0.10142258554697037,
      0.11844844371080399,
      -0.10003454983234406,
      -0.10227227210998535,
      0.09726116806268692,
      -0.10155966132879257,
      0.09138381481170654,
      -0.0998060405254364,
      0.10008329898118973,
      -0.1020171046257019
    ],
    [
      -0.10234002023935318,
      0.10201964527368546,
      -0.1012306958436966,
      0.10141748189926147,
      -0.11836542934179306,
      0.10013271868228912,
      0.10213873535394669,
      -0.09742763638496399,
      0.10160823911428452,
      -0.09076444059610367,
      0.09976739436388016,
      -0.10085786134004593,
      0.10171277821063995
    ],
    [
      0.10256131738424301,
      -0.1018231064081192,
      0.10120836645364761,
      -0.1015273928642273,
      0.11829951405525208,
      -0.10028321295976639,
      -0.10225217044353485,
      0.09734698385000229,
      -0.10169216990470886,
      0.09110485017299652,
      -0.09998302906751633,
      0.10019531100988388,
      -0.1019681841135025
    ],
    [
      0.09596657752990723,
      -0.10292849689722061,
      0.08478376269340515,
      -0.10497380048036575,
      0.14024527370929718,
      -0.10489629209041595,
      -0.10300880670547485,
      0.0942009910941124,
      -0.10461843758821487,
      0.08635487407445908,
      -0.10487259179353714,
      0.08523561805486679,
      -0.10246263444423676
    ],
    [
      -0.10265572369098663,
      0.10200445353984833,
      -0.1013341024518013,
      0.1014181524515152,
      -0.11808319389820099,
      0.09985652565956116,
      0.10221433639526367,
      -0.09749263525009155,
      0.10172164440155029,
      -0.09127141535282135,
      0.0997515618801117,
      -0.10001807659864426,
      0.10174195468425751
    ],
    [
      0.10231301933526993,
      -0.10182709991931915,
      0.10125113278627396,
      -0.10145968943834305,
      0.11853921413421631,
      -0.10016519576311111,
      -0.10192760080099106,
      0.09717021137475967,
      -0.10160074383020401,
      0.09097210317850113,
      -0.09992070496082306,
      0.1003587618470192,
      -0.10188374668359756
    ],
    [
      0.10311493277549744,
      -0.10267768800258636,
      0.10179267078638077,
      -0.10170263797044754,
      0.1187826618552208,
      -0.10063484311103821,
      -0.10098525136709213,
      0.09755291044712067,
      -0.10191874206066132,
      0.09015948325395584,
      -0.1002020314335823,
      0.10163935273885727,
      -0.10247142612934113
    ],
    [
      0.09610069543123245,
      -0.10289788246154785,
      0.08322162926197052,
      -0.10524139553308487,
      0.1392565667629242,
      -0.10359637439250946,
      -0.10304072499275208,
      0.0948513075709343,
      -0.10409754514694214,
      0.08736708015203476,
      -0.10368499904870987,
      0.07394468039274216,
      -0.10220547020435333
    ],
    [
      0.10268347710371017,
      -0.10155265033245087,
      0.10133615881204605,
      -0.10144009441137314,
      0.11837253719568253,
      -0.10014756768941879,
      -0.10212994366884232,
      0.09692954272031784,
      -0.1016826331615448,
      0.09046992659568787,
      -0.09974435716867447,
      0.10037251561880112,
      -0.10178637504577637
    ],
    [
      0.10262639075517654,
      -0.10210326313972473,
      0.10108684003353119,
      -0.10143737494945526,
      0.11824893206357956,
      -0.10033748298883438,
      -0.10253611952066422,
      0.0978894904255867,
      -0.10187564790248871,
      0.09166193008422852,
      -0.10019189119338989,
      0.10011502355337143,
      -0.10177916288375854
    ],
    [
      -0.1026473417878151,
      0.10187762975692749,
      -0.10155081003904343,
      0.10118464380502701,
      -0.11855041235685349,
      0.10017961263656616,
      0.10165079683065414,
      -0.09657709300518036,
      0.10142534971237183,
      -0.09012019634246826,
      0.09998198598623276,
      -0.1010010838508606,
      0.10205530375242233
    ],
    [
      -0.10248728096485138,
      0.10183951258659363,
      -0.1012795940041542,
      0.10133936256170273,
      -0.11823483556509018,
      0.10012167692184448,
      0.10225198417901993,
      -0.09793499112129211,
      0.10188975930213928,
      -0.09186574071645737,
      0.10009943693876266,
      -0.10039888322353363,
      0.10180123895406723
    ],
    [
      -0.10257960110902786,
      0.10178517550230026,
      -0.10094530880451202,
      0.1012297049164772,
      -0.11829685419797897,
      0.10004337877035141,
      0.10254951566457748,
      -0.09778940677642822,
      0.10186122357845306,
      -0.09139640629291534,
      0.09981377422809601,
      -0.1002405434846878,
      0.10195860266685486
    ],
    [
      -0.10256437212228775,
      0.1020202785730362,
      -0.10171152651309967,
      0.10135605186223984,
      -0.11876748502254486,
      0.10036615282297134,
      0.10224970430135727,
      -0.0970735177397728,
      0.10185689479112625,
      -0.09076765924692154,
      0.09989422559738159,
      -0.10094218701124191,
      0.10205351561307907
    ],
    [
      0.10254030674695969,
      -0.10166621208190918,
      0.10130060464143753,
      -0.10116448253393173,
      0.11845061182975769,
      -0.09989066421985626,
      -0.10223736613988876,
      0.09757715463638306,
      -0.10177525132894516,
      0.09135473519563675,
      -0.09975410997867584,
      0.10001732409000397,
      -0.10182146728038788
    ],
    [
      0.09609933942556381,
      -0.10288418084383011,
      0.08455057442188263,
      -0.10506343096494675,
      0.1402110457420349,
      -0.10468558967113495,
      -0.10305386781692505,
      0.09413564950227737,
      -0.1043892502784729,
      0.086639404296875,
      -0.10501925647258759,
      0.08177924156188965,
      -0.10247378051280975
    ],
    [
      0.10295363515615463,
      -0.10248803347349167,
      0.1019437164068222,
      -0.1019437164068222,
      0.11882662773132324,
      -0.10043682157993317,
      -0.10262148082256317,
      0.09765667468309402,
      -0.10173202306032181,
      0.09108572453260422,
      -0.1003725677728653,
      0.10163675248622894,
      -0.10254158824682236
    ],
    [
      0.09582317620515823,
      -0.10265212506055832,
      0.084524966776371,
      -0.10508298128843307,
      0.1410510092973709,
      -0.1060710996389389,
      -0.10361026972532272,
      0.09430744498968124,
      -0.10492592304944992,
      0.08659187704324722,
      -0.10690561681985855,
      0.085434190928936,
      -0.10242629796266556
    ],
    [
      0.10232637077569962,
      -0.10192431509494781,
      0.10136227309703827,
      -0.10142838209867477,
      0.1182883158326149,
      -0.09985477477312088,
      -0.102459616959095,
      0.09750377386808395,
      -0.10167912393808365,
      0.0908990129828453,
      -0.09977985918521881,
      0.10032860189676285,
      -0.10192251205444336
    ],
    [
      0.10293497890233994,
      -0.10240758210420609,
      0.10179063677787781,
      -0.10173137485980988,
      0.11908169090747833,
      -0.10040928423404694,
      -0.10255469381809235,
      0.0975259318947792,
      -0.10218548029661179,
      0.09129654616117477,
      -0.10013853758573532,
      0.10144058614969254,
      -0.10231874138116837
    ],
    [
      -0.10228651016950607,
      0.10204242914915085,
      -0.10103153437376022,
      0.10149599611759186,
      -0.11803605407476425,
      0.10006742924451828,
      0.10254404693841934,
      -0.09763595461845398,
      0.10193067044019699,
      -0.09176059812307358,
      0.09974350780248642,
      -0.10037195682525635,
      0.10176718980073929
    ],
    [
      0.10254590213298798,
      -0.10187596827745438,
      0.101155586540699,
      -0.10154009610414505,
      0.11837414652109146,
      -0.10015485435724258,
      -0.10217436403036118,
      0.09772741049528122,
      -0.10187077522277832,
      0.09132662415504456,
      -0.10015349090099335,
      0.10019619017839432,
      -0.10175985097885132
    ],
    [
      -0.10245770215988159,
      0.10139207541942596,
      -0.10107094794511795,
      0.10138245671987534,
      -0.11850875616073608,
      0.10004281997680664,
      0.10214371234178543,
      -0.09730469435453415,
      0.10142625123262405,
      -0.0907755196094513,
      0.09974031895399094,
      -0.1003335565328598,
      0.10188672691583633
    ],
    [
      -0.10247132927179337,
      0.10189059376716614,
      -0.101223424077034,
      0.10130780190229416,
      -0.11832768470048904,
      0.09994518756866455,
      0.10228189826011658,
      -0.09719515591859818,
      0.10186292976140976,
      -0.09100297838449478,
      0.09986978024244308,
      -0.10021224617958069,
      0.10184241086244583
    ],
    [
      0.10248394310474396,
      -0.10198462009429932,
      0.10142175853252411,
      -0.10169444233179092,
      0.11829650402069092,
      -0.10001280903816223,
      -0.1025577113032341,
      0.09760241210460663,
      -0.1021873876452446,
      0.09141700714826584,
      -0.09968164563179016,
      0.09993762522935867,
      -0.10179565101861954
    ],
    [
      0.10305885225534439,
      -0.10260151326656342,
      0.10197516530752182,
      -0.10166832059621811,
      0.1189078614115715,
      -0.10055256634950638,
      -0.10145401209592819,
      0.09745204448699951,
      -0.10186304897069931,
      0.09029817581176758,
      -0.10034210979938507,
      0.10132217407226562,
      -0.10225775837898254
    ],
    [
      0.09616583585739136,
      -0.10302756726741791,
      0.08343368768692017,
      -0.10534950345754623,
      0.14005380868911743,
      -0.10400901734828949,
      -0.10412242263555527,
      0.09526624530553818,
      -0.1052296832203865,
      0.08784938603639603,
      -0.10404229909181595,
      0.0849418044090271,
      -0.10226944088935852
    ],
    [
      0.10262471437454224,
      -0.10150378197431564,
      0.10132352262735367,
      -0.10150907933712006,
      0.11834756284952164,
      -0.1003667563199997,
      -0.10203325003385544,
      0.09708898514509201,
      -0.10142794996500015,
      0.0909242108464241,
      -0.09980972856283188,
      0.10054630041122437,
      -0.10181520134210587
    ],
    [
      0.10241276770830154,
      -0.10200010240077972,
      0.10123100876808167,
      -0.10119998455047607,
      0.11798064410686493,
      -0.0999545231461525,
      -0.10233462601900101,
      0.09777577221393585,
      -0.10189124941825867,
      0.09131824225187302,
      -0.09952565282583237,
      0.09998856484889984,
      -0.10180291533470154
    ],
    [
      0.10270803421735764,
      -0.10218654572963715,
      0.10161497443914413,
      -0.10214845091104507,
      0.11878857761621475,
      -0.10053599625825882,
      -0.1029365211725235,
      0.0981784537434578,
      -0.10256531834602356,
      0.09205537289381027,
      -0.10031644999980927,
      0.10107246786355972,
      -0.10228892415761948
    ],
    [
      -0.09627391397953033,
      0.10290871560573578,
      -0.08260013908147812,
      0.10526964068412781,
      -0.1392783671617508,
      0.10292234271764755,
      0.10317400842905045,
      -0.09530940651893616,
      0.10434482246637344,
      -0.08761968463659286,
      0.10329890251159668,
      -0.0724412128329277,
      0.10229175537824631
    ],
    [
      0.10271239280700684,
      -0.10232879966497421,
      0.10189337283372879,
      -0.1014457419514656,
      0.1187848150730133,
      -0.10061175376176834,
      -0.10240064561367035,
      0.09772150963544846,
      -0.10218149423599243,
      0.09124215692281723,
      -0.10008729249238968,
      0.10120504349470139,
      -0.10225497931241989
    ],
    [
      -0.1034218892455101,
      0.10261401534080505,
      -0.10270026326179504,
      0.10201232135295868,
      -0.11921977251768112,
      0.10080667585134506,
      0.10042089968919754,
      -0.09697303920984268,
      0.10082145035266876,
      -0.09047435969114304,
      0.10061105340719223,
      -0.10237352550029755,
      0.10278420895338058
    ],
    [
      0.1025410145521164,
      -0.10170074552297592,
      0.10125258564949036,
      -0.10123854130506516,
      0.11835622042417526,
      -0.09998876601457596,
      -0.10238566994667053,
      0.09735030680894852,
      -0.10194789618253708,
      0.09066474437713623,
      -0.09985888749361038,
      0.09991370886564255,
      -0.10188282281160355
    ],
    [
      0.09614165872335434,
      -0.10318387299776077,
      0.08255166560411453,
      -0.10514013469219208,
      0.1394471675157547,
      -0.10317269712686539,
      -0.10299712419509888,
      0.09508897364139557,
      -0.10397270321846008,
      0.08774244785308838,
      -0.1034407988190651,
      0.07005328685045242,
      -0.10245352238416672
    ],
    [
      -0.10255617648363113,
      0.1017647236585617,
      -0.10143545269966125,
      0.10112078487873077,
      -0.11855288594961166,
      0.1002536490559578,
      0.10150399804115295,
      -0.0968518853187561,
      0.10148860514163971,
      -0.09060865640640259,
      0.10010368376970291,
      -0.1009395644068718,
      0.10182999074459076
    ],
    [
      -0.10305334627628326,
      0.10248345136642456,
      -0.10175850987434387,
      0.10185332596302032,
      -0.11866781115531921,
      0.1003403440117836,
      0.10265819728374481,
      -0.0978156104683876,
      0.10215289890766144,
      -0.09110129624605179,
      0.10002703219652176,
      -0.1009896844625473,
      0.10233033448457718
    ],
    [
      -0.09612756967544556,
      0.10292042791843414,
      -0.08276763558387756,
      0.10519445687532425,
      -0.1396058350801468,
      0.10356736928224564,
      0.10295560956001282,
      -0.09514383971691132,
      0.104232057929039,
      -0.08727598190307617,
      0.10362882912158966,
      -0.07306940853595734,
      0.10250849276781082
    ],
    [
      -0.10246674716472626,
      0.10189760476350784,
      -0.10153494030237198,
      0.10138966143131256,
      -0.11830080300569534,
      0.10027410089969635,
      0.10258594900369644,
      -0.09773100912570953,
      0.10185910016298294,
      -0.0917419046163559,
      0.09982308745384216,
      -0.10002369433641434,
      0.10206705331802368
    ],
    [
      0.10263621807098389,
      -0.10174977034330368,
      0.1014212965965271,
      -0.10122348368167877,
      0.11855287849903107,
      -0.09990935772657394,
      -0.10224375128746033,
      0.09775756299495697,
      -0.10173375904560089,
      0.09158079326152802,
      -0.09966188669204712,
      0.10040657222270966,
      -0.10168880224227905
    ],
    [
      0.10276827961206436,
      -0.10211154073476791,
      0.10137161612510681,
      -0.10159721225500107,
      0.11867900937795639,
      -0.10005489736795425,
      -0.10196756571531296,
      0.09718668460845947,
      -0.10198977589607239,
      0.09057562053203583,
      -0.09992697089910507,
      0.10083834826946259,
      -0.10193267464637756
    ],
    [
      -0.09644795209169388,
      0.10282531380653381,
      -0.08407940715551376,
      0.10530806332826614,
      -0.1401720643043518,
      0.10514470934867859,
      0.10346222668886185,
      -0.09427129477262497,
      0.10492601245641708,
      -0.08635961264371872,
      0.10493387281894684,
      -0.09063644707202911,
      0.10281900316476822
    ],
    [
      -0.10253474861383438,
      0.10197147727012634,
      -0.10130934417247772,
      0.10142819583415985,
      -0.11845695227384567,
      0.10010133683681488,
      0.10219866037368774,
      -0.09741116315126419,
      0.10172531008720398,
      -0.09126091748476028,
      0.09969869256019592,
      -0.10009807348251343,
      0.10176105797290802
    ],
    [
      0.09586934000253677,
      -0.10281005501747131,
      0.08505266159772873,
      -0.10546795278787613,
      0.14153151214122772,
      -0.10601677745580673,
      -0.10372712463140488,
      0.09427914023399353,
      -0.1049320176243782,
      0.08631204068660736,
      -0.106133833527565,
      0.07694704830646515,
      -0.10226794332265854
    ]
  ],
  "policy_type": "coord_scale_mlp_prior",
  "schema_version": 2
}