{
  "action_hidden_bias": [
    0.04890275374054909,
    -0.04431114345788956,
    -0.04633816331624985,
    -0.04470117762684822,
    0.04111791402101517,
    0.049431342631578445,
    0.04191767796874046,
    0.03777636960148811,
    -0.042986102402210236,
    -0.04220175743103027,
    0.0526932068169117,
    0.045807164162397385,
    0.050568435341119766,
    0.0433359369635582,
    -0.04552300646901131,
    -0.04511863738298416,
    -0.04066724702715874,
    0.04794493317604065,
    0.04173266142606735,
    0.03321990743279457,
    -0.04240816459059715,
    -0.04494526982307434,
    -0.04531010985374451,
    0.058045122772455215,
    0.05517520755529404,
    0.04109805449843407,
    -0.04794108122587204,
    -0.047702569514513016,
    -0.044777411967515945,
    0.044996608048677444,
    0.046172983944416046,
    0.04732714593410492,
    -0.05268941819667816,
    -0.05162723362445831,
    -0.050188954919576645,
    -0.04373526573181152,
    0.047960635274648666,
    0.04240007326006889,
    0.04651128128170967,
    -0.0439378060400486,
    -0.04813119396567345,
    -0.047560252249240875,
    0.04973386228084564,
    0.039882853627204895,
    0.05074534937739372,
    -0.04625922068953514,
    -0.04934050515294075,
    -0.04803645238280296,
    0.03825916722416878,
    0.04888521507382393,
    0.040997449308633804,
    0.040740687400102615,
    -0.0420965775847435,
    -0.04580140858888626,
    0.0453665629029274,
    0.04499165713787079,
    0.05115764960646629,
    0.048452846705913544,
    -0.04325580969452858,
    -0.0452258475124836,
    0.045813921838998795,
    0.04733477905392647,
    0.045847903937101364,
    0.036225445568561554
  ],
  "action_input_weights": [
    [
      0.05721621960401535,
      -0.035230621695518494,
      -0.044871170073747635,
      -0.05221395939588547,
      0.03156699240207672,
      0.04658454656600952,
      0.04842530936002731,
      0.047500744462013245,
      -0.038818150758743286,
      -0.047572582960128784,
      0.04287442937493324,
      0.04039416462182999,
      0.05471748113632202,
      0.05313143506646156,
      -0.03897771239280701,
      -0.04793057218194008,
      -0.050158776342868805,
      0.040387365967035294,
      0.04317859560251236,
      0.042226262390613556,
      -0.03400271385908127,
      -0.04496767744421959,
      -0.05369013175368309,
      0.04893530532717705,
      0.05378460884094238,
      0.04856562614440918,
      -0.038365237414836884,
      -0.04494020342826843,
      -0.05132991448044777,
      0.03510948270559311,
      0.042075783014297485,
      0.05277156084775925,
      -0.042837515473365784,
      -0.04629305377602577,
      -0.05439845100045204,
      -0.05356886610388756,
      0.04147396981716156,
      0.04529505595564842,
      0.056002721190452576,
      -0.036459244787693024,
      -0.04965812340378761,
      -0.05663742497563362,
      0.0413665808737278,
      0.04000182822346687,
      0.05915675684809685,
      -0.03731498122215271,
      -0.04804844781756401,
      -0.05562512204051018,
      0.028730694204568863,
      0.04620825871825218,
      0.04764117673039436,
      0.050514090806245804,
      -0.038085274398326874,
      -0.05132320150732994,
      0.03547831252217293,
      0.03972826898097992,
      0.05546393245458603,
      0.05822780728340149,
      -0.036857686936855316,
      -0.04820903763175011,
      0.036225855350494385,
      0.0398990623652935,
      0.047469042241573334,
      0.045269567519426346
    ],
    [
      -0.08168457448482513,
      0.07685870677232742,
      0.08807729184627533,
      0.09251020848751068,
      -0.09524987637996674,
      -0.09310328960418701,
      -0.08615288138389587,
      -0.08366120606660843,
      0.08322461694478989,
      0.094325490295887,
      -0.0767175704240799,
      -0.09411310404539108,
      -0.095901258289814,
      -0.08229444921016693,
      0.07888168841600418,
      0.09369903802871704,
      0.11136867105960846,
      -0.09416758269071579,
      -0.09044097363948822,
      -0.07624806463718414,
      0.08001051843166351,
      0.08670684695243835,
      0.09513013064861298,
      -0.09454334527254105,
      -0.08637501299381256,
      -0.08390364050865173,
      0.08352306485176086,
      0.08282677829265594,
      0.09618537873029709,
      -0.09214136749505997,
      -0.08762592077255249,
      -0.085914246737957,
      0.08642881363630295,
      0.07699062675237656,
      0.09015757590532303,
      0.08649836480617523,
      -0.09094768762588501,
      -0.0893886536359787,
      -0.08166108280420303,
      0.07686030864715576,
      0.09046541899442673,
      0.09574662148952484,
      -0.09336188435554504,
      -0.08711688220500946,
      -0.08025877177715302,
      0.07757191359996796,
      0.08444151282310486,
      0.09595595300197601,
      -0.09323882311582565,
      -0.09348388761281967,
      -0.08659852296113968,
      -0.0992700532078743,
      0.08388864248991013,
      0.09802380949258804,
      -0.10935407876968384,
      -0.09193838387727737,
      -0.09361404925584793,
      -0.07794216275215149,
      0.08083265274763107,
      0.0935983657836914,
      -0.10036260634660721,
      -0.09329718351364136,
      -0.09178468585014343,
      -0.07797544449567795
    ],
    [
      -0.1422097384929657,
      0.1455598920583725,
      0.1492464393377304,
      0.14198525249958038,
      -0.14169515669345856,
      -0.14180299639701843,
      -0.1417669653892517,
      -0.15586934983730316,
      0.1559721678495407,
      0.1322098970413208,
      -0.14691194891929626,
      -0.14517907798290253,
      -0.1392587274312973,
      -0.15008117258548737,
      0.1538180112838745,
      0.13351933658123016,
      0.1429787129163742,
      -0.14381442964076996,
      -0.14284957945346832,
      -0.14757901430130005,
      0.14530573785305023,
      0.14469636976718903,
      0.14444118738174438,
      -0.14395634829998016,
      -0.14521272480487823,
      -0.14345479011535645,
      0.13780906796455383,
      0.15449823439121246,
      0.1359892636537552,
      -0.1397397220134735,
      -0.14450351893901825,
      -0.14153403043746948,
      0.14064599573612213,
      0.16065478324890137,
      0.13361035287380219,
      0.15396109223365784,
      -0.14557377994060516,
      -0.14384879171848297,
      -0.14797981083393097,
      0.15048876404762268,
      0.13798411190509796,
      0.14559513330459595,
      -0.14724674820899963,
      -0.14424940943717957,
      -0.14277121424674988,
      0.14504674077033997,
      0.1503211259841919,
      0.13998395204544067,
      -0.143325075507164,
      -0.14166268706321716,
      -0.14205795526504517,
      -0.14984004199504852,
      0.1558150202035904,
      0.13114024698734283,
      -0.12955917418003082,
      -0.14590701460838318,
      -0.14003141224384308,
      -0.15226657688617706,
      0.1533929854631424,
      0.1329059600830078,
      -0.13155363500118256,
      -0.1437782347202301,
      -0.14212675392627716,
      -0.14719004929065704
    ],
    [
      -0.15111421048641205,
      0.15819355845451355,
      0.13976818323135376,
      0.14446952939033508,
      -0.1390869915485382,
      -0.14334799349308014,
      -0.14742040634155273,
      -0.14160357415676117,
      0.13651233911514282,
      0.14952479302883148,
      -0.15660196542739868,
      -0.14294518530368805,
      -0.13903048634529114,
      -0.1461704969406128,
      0.14227214455604553,
      0.15038834512233734,
      0.12736153602600098,
      -0.13569408655166626,
      -0.14155098795890808,
      -0.15445198118686676,
      0.15095846354961395,
      0.14531485736370087,
      0.13780415058135986,
      -0.13666555285453796,
      -0.14639762043952942,
      -0.1517980545759201,
      0.15334562957286835,
      0.1382802128791809,
      0.14655931293964386,
      -0.14286361634731293,
      -0.14497722685337067,
      -0.14415724575519562,
      0.15111972391605377,
      0.14285172522068024,
      0.15309838950634003,
      0.13981473445892334,
      -0.14031662046909332,
      -0.1423669457435608,
      -0.1498965322971344,
      0.1468835026025772,
      0.1485253870487213,
      0.13233983516693115,
      -0.13823862373828888,
      -0.14407292008399963,
      -0.15165211260318756,
      0.15702734887599945,
      0.14194558560848236,
      0.14134375751018524,
      -0.14003129303455353,
      -0.14324595034122467,
      -0.14809665083885193,
      -0.13505733013153076,
      0.13645370304584503,
      0.14787060022354126,
      -0.1385992020368576,
      -0.1440526396036148,
      -0.1400710642337799,
      -0.14751148223876953,
      0.14091387391090393,
      0.15035808086395264,
      -0.14718614518642426,
      -0.1359158307313919,
      -0.14073054492473602,
      -0.1536140739917755
    ],
    [
      0.5906022787094116,
      -0.6390189528465271,
      -0.6160272359848022,
      -0.6237584948539734,
      0.6084744930267334,
      0.5984141826629639,
      0.6232206225395203,
      0.6356292963027954,
      -0.6265141367912292,
      -0.6345877647399902,
      0.613787829875946,
      0.6040525436401367,
      0.6279430389404297,
      0.635303258895874,
      -0.6427239775657654,
      -0.6278660893440247,
      -0.6295833587646484,
      0.6345831751823425,
      0.6207225322723389,
      0.6060747504234314,
      -0.6232079863548279,
      -0.6274141669273376,
      -0.6166428923606873,
      0.6205877661705017,
      0.6281978487968445,
      0.6216570734977722,
      -0.6078552603721619,
      -0.6242594122886658,
      -0.5979655385017395,
      0.6283846497535706,
      0.6143924593925476,
      0.6129529476165771,
      -0.6266552805900574,
      -0.6159918904304504,
      -0.6337301731109619,
      -0.6300188899040222,
      0.6160857081413269,
      0.6474730372428894,
      0.6320751309394836,
      -0.6274266242980957,
      -0.6280210614204407,
      -0.5989577770233154,
      0.6391540169715881,
      0.6129809021949768,
      0.5945405960083008,
      -0.637810230255127,
      -0.6237316131591797,
      -0.6185073256492615,
      0.6110818982124329,
      0.6019548177719116,
      0.6196653246879578,
      0.6199515461921692,
      -0.6221144199371338,
      -0.6233542561531067,
      0.626309335231781,
      0.6034210324287415,
      0.6256391406059265,
      0.6291120648384094,
      -0.6415505409240723,
      -0.6278845071792603,
      0.6099409461021423,
      0.6361470818519592,
      0.6228802800178528,
      0.6037509441375732
    ],
    [
      0.027689093723893166,
      -0.025675661861896515,
      -0.0362357422709465,
      -0.03759346157312393,
      0.013074460439383984,
      0.02826385200023651,
      0.02305557392537594,
      0.01872570440173149,
      -0.03136349096894264,
      -0.028713418170809746,
      0.027383625507354736,
      0.03435851261019707,
      0.043321337550878525,
      0.034221768379211426,
      -0.02208881452679634,
      -0.02226981334388256,
      -0.02696208469569683,
      0.03867363929748535,
      0.03656145930290222,
      0.022401515394449234,
      -0.024641087278723717,
      -0.02500201389193535,
      -0.030061613768339157,
      0.03278713300824165,
      0.02793048694729805,
      0.024982305243611336,
      -0.036206699907779694,
      -0.03871316462755203,
      -0.0307912714779377,
      0.025537695735692978,
      0.022566193714737892,
      0.029305987060070038,
      -0.028984960168600082,
      -0.027754008769989014,
      -0.029335925355553627,
      -0.02539195492863655,
      0.03548384830355644,
      0.03261956945061684,
      0.03468101844191551,
      -0.020906219258904457,
      -0.025284789502620697,
      -0.026104530319571495,
      0.03094434179365635,
      0.025714408606290817,
      0.03251616656780243,
      -0.025236723944544792,
      -0.03493700549006462,
      -0.03684106096625328,
      0.011497527360916138,
      0.02719135954976082,
      0.022259404882788658,
      0.0209742970764637,
      -0.03124867007136345,
      -0.03476087749004364,
      0.03860274702310562,
      0.03226250782608986,
      0.04240155220031738,
      0.03174225240945816,
      -0.02296755649149418,
      -0.022809071466326714,
      0.045951951295137405,
      0.038879916071891785,
      0.04058361053466797,
      0.025038575753569603
    ],
    [
      0.6305016279220581,
      -0.6303519606590271,
      -0.6208290457725525,
      -0.6286855340003967,
      0.6296526193618774,
      0.6095304489135742,
      0.6230464577674866,
      0.6229757070541382,
      -0.6253789663314819,
      -0.6197925806045532,
      0.6443392038345337,
      0.6257569789886475,
      0.6306971311569214,
      0.6337528228759766,
      -0.6408983469009399,
      -0.6321849822998047,
      -0.6350597739219666,
      0.6378546357154846,
      0.6301188468933105,
      0.624448299407959,
      -0.6206644177436829,
      -0.6321521401405334,
      -0.6379427313804626,
      0.6295101642608643,
      0.6365532875061035,
      0.6282148361206055,
      -0.6252453923225403,
      -0.6270988583564758,
      -0.6248096823692322,
      0.6387473940849304,
      0.6209854483604431,
      0.6229681372642517,
      -0.65298992395401,
      -0.6375039219856262,
      -0.635765016078949,
      -0.6242650747299194,
      0.6354579329490662,
      0.6540241241455078,
      0.6332093477249146,
      -0.6406731009483337,
      -0.639211893081665,
      -0.6320465207099915,
      0.6306118369102478,
      0.6178777813911438,
      0.6325224041938782,
      -0.6282000541687012,
      -0.6274138689041138,
      -0.6301671862602234,
      0.6244828104972839,
      0.6120725274085999,
      0.6226286888122559,
      0.613811731338501,
      -0.6243858933448792,
      -0.6176241636276245,
      0.6398510336875916,
      0.624699592590332,
      0.6291327476501465,
      0.6281741857528687,
      -0.6368213295936584,
      -0.6317862868309021,
      0.6211161017417908,
      0.638434112071991,
      0.6320787072181702,
      0.628929078578949
    ],
    [
      0.058688316494226456,
      -0.0471055842936039,
      -0.05531687289476395,
      -0.039151545614004135,
      0.04844086989760399,
      0.041702236980199814,
      0.036659445613622665,
      0.04681429639458656,
      -0.040397852659225464,
      -0.052061036229133606,
      0.052961528301239014,
      0.05557478591799736,
      0.047306858003139496,
      0.03443998843431473,
      -0.039672765880823135,
      -0.037859540432691574,
      -0.04846636950969696,
      0.042982812970876694,
      0.05100281536579132,
      0.03535481542348862,
      -0.052294597029685974,
      -0.04417433962225914,
      -0.0355236791074276,
      0.054427776485681534,
      0.04638878256082535,
      0.047052692621946335,
      -0.040954627096652985,
      -0.05574328079819679,
      -0.049299076199531555,
      0.054376471787691116,
      0.04795385152101517,
      0.03729401156306267,
      -0.051577623933553696,
      -0.04191708564758301,
      -0.0539960078895092,
      -0.05221009626984596,
      0.05425237491726875,
      0.04902425780892372,
      0.038200102746486664,
      -0.048147525638341904,
      -0.038525089621543884,
      -0.04600252956151962,
      0.03968887776136398,
      0.041232116520404816,
      0.060231953859329224,
      -0.05033455789089203,
      -0.057622164487838745,
      -0.04137089103460312,
      0.04459776356816292,
      0.040330953896045685,
      0.036995772272348404,
      0.05030987039208412,
      -0.040891751646995544,
      -0.055721741169691086,
      0.047080524265766144,
      0.05440505966544151,
      0.0465908981859684,
      0.04029617831110954,
      -0.03632922098040581,
      -0.039016902446746826,
      0.03718714043498039,
      0.04365305230021477,
      0.05553305894136429,
      0.03696463257074356
    ],
    [
      0.05294244363903999,
      -0.0516989529132843,
      -0.03673512488603592,
      -0.05456011742353439,
      0.049488648772239685,
      0.043794289231300354,
      0.04353715106844902,
      0.040218107402324677,
      -0.04921656847000122,
      -0.03322512283921242,
      0.042882051318883896,
      0.05500784516334534,
      0.0436297170817852,
      0.04656510800123215,
      -0.044582873582839966,
      -0.049958132207393646,
      -0.03266479820013046,
      0.038116492331027985,
      0.051434945315122604,
      0.025243939831852913,
      -0.037527140229940414,
      -0.04567251354455948,
      -0.04862810671329498,
      0.06491130590438843,
      0.045821819454431534,
      0.05089500918984413,
      -0.0567326545715332,
      -0.04142638295888901,
      -0.04716014862060547,
      0.04320068657398224,
      0.051760800182819366,
      0.038728367537260056,
      -0.0429062582552433,
      -0.06106475368142128,
      -0.042703770101070404,
      -0.04770878702402115,
      0.047808971256017685,
      0.04652969539165497,
      0.0389440581202507,
      -0.03432933986186981,
      -0.05796528607606888,
      -0.039057567715644836,
      0.044162455946207047,
      0.041406579315662384,
      0.053298406302928925,
      -0.05246703699231148,
      -0.04032802954316139,
      -0.05792692303657532,
      0.047378867864608765,
      0.04200498387217522,
      0.04416055232286453,
      0.04165378957986832,
      -0.04701462388038635,
      -0.03764669969677925,
      0.03567076101899147,
      0.05466848984360695,
      0.043156642466783524,
      0.053100764751434326,
      -0.043914686888456345,
      -0.048626091331243515,
      0.05274108424782753,
      0.03796116262674332,
      0.055769726634025574,
      0.027425015345215797
    ],
    [
      -0.21763619780540466,
      0.19248495995998383,
      0.19875763356685638,
      0.19884492456912994,
      -0.19553954899311066,
      -0.19626566767692566,
      -0.1852220594882965,
      -0.18840628862380981,
      0.1976308971643448,
      0.19872400164604187,
      -0.19842012226581573,
      -0.19139885902404785,
      -0.2032366842031479,
      -0.17871907353401184,
      0.1979876607656479,
      0.19355906546115875,
      0.1628548502922058,
      -0.1912771612405777,
      -0.19213345646858215,
      -0.197454035282135,
      0.2081291824579239,
      0.2040407657623291,
      0.1897212564945221,
      -0.2009555697441101,
      -0.19873742759227753,
      -0.1994917094707489,
      0.2143649160861969,
      0.19848185777664185,
      0.20431016385555267,
      -0.20782588422298431,
      -0.18124894797801971,
      -0.19676081836223602,
      0.19727776944637299,
      0.20281778275966644,
      0.19748826324939728,
      0.2052469402551651,
      -0.20861117541790009,
      -0.1962100714445114,
      -0.20222721993923187,
      0.19805143773555756,
      0.2010129690170288,
      0.20348043739795685,
      -0.1864112764596939,
      -0.20435652136802673,
      -0.22004325687885284,
      0.19386281073093414,
      0.2012653648853302,
      0.20422834157943726,
      -0.1947980672121048,
      -0.19837085902690887,
      -0.18605628609657288,
      -0.1912020742893219,
      0.1974843144416809,
      0.19711221754550934,
      -0.1591690480709076,
      -0.1926598697900772,
      -0.20302000641822815,
      -0.2064378559589386,
      0.19942110776901245,
      0.19437453150749207,
      -0.18285292387008667,
      -0.19530293345451355,
      -0.18594272434711456,
      -0.1978859156370163
    ],
    [
      0.5154909491539001,
      -0.5597296953201294,
      -0.5370118021965027,
      -0.5444617867469788,
      0.5471000075340271,
      0.5498850345611572,
      0.5540893077850342,
      0.5630052089691162,
      -0.5343229174613953,
      -0.5496838688850403,
      0.5559757351875305,
      0.5579577684402466,
      0.5155837535858154,
      0.566562831401825,
      -0.5377198457717896,
      -0.5421143770217896,
      -0.5936489105224609,
      0.5571343898773193,
      0.5450103282928467,
      0.5551260113716125,
      -0.5346956849098206,
      -0.5451619029045105,
      -0.5536007285118103,
      0.5313324928283691,
      0.5324856042861938,
      0.5404444932937622,
      -0.5177552103996277,
      -0.5435290932655334,
      -0.5475410223007202,
      0.5345029830932617,
      0.5574450492858887,
      0.5300152897834778,
      -0.5526227951049805,
      -0.5473750233650208,
      -0.5414748787879944,
      -0.5464758276939392,
      0.5267473459243774,
      0.5435840487480164,
      0.555051863193512,
      -0.5507516264915466,
      -0.5445554852485657,
      -0.5298067927360535,
      0.5569733381271362,
      0.5386767983436584,
      0.5101367235183716,
      -0.5532875657081604,
      -0.5283236503601074,
      -0.5365902781486511,
      0.5509676933288574,
      0.5528094172477722,
      0.5534152984619141,
      0.5688347220420837,
      -0.5359954833984375,
      -0.5538737773895264,
      0.5848748087882996,
      0.5589042901992798,
      0.5127878189086914,
      0.5411472916603088,
      -0.5391978621482849,
      -0.5405270457267761,
      0.5581783652305603,
      0.5552842020988464,
      0.5380445122718811,
      0.5534954071044922
    ],
    [
      -0.6467258334159851,
      0.6408342719078064,
      0.6243219375610352,
      0.6486736536026001,
      -0.6307126879692078,
      -0.6346409320831299,
      -0.6177928447723389,
      -0.639182984828949,
      0.6464818716049194,
      0.6472311615943909,
      -0.6416069269180298,
      -0.6358273029327393,
      -0.6324355602264404,
      -0.6245630383491516,
      0.6486042737960815,
      0.6333082318305969,
      0.6252538561820984,
      -0.6296747326850891,
      -0.6282128095626831,
      -0.6404501795768738,
      0.6496005058288574,
      0.6461130380630493,
      0.6253864765167236,
      -0.628197968006134,
      -0.64174485206604,
      -0.645291805267334,
      0.6450703144073486,
      0.6444023847579956,
      0.6391194462776184,
      -0.6503368020057678,
      -0.6287701725959778,
      -0.6280800700187683,
      0.6383993029594421,
      0.6383036375045776,
      0.6374713778495789,
      0.6502345204353333,
      -0.6484429240226746,
      -0.6382996439933777,
      -0.6555449366569519,
      0.6258028149604797,
      0.6503416299819946,
      0.632169246673584,
      -0.6370617747306824,
      -0.641229510307312,
      -0.6462917923927307,
      0.634743869304657,
      0.6293612122535706,
      0.6466819047927856,
      -0.6362015604972839,
      -0.637791633605957,
      -0.6197254657745361,
      -0.6432332396507263,
      0.6460242867469788,
      0.639838695526123,
      -0.5909878611564636,
      -0.6368328332901001,
      -0.6309020519256592,
      -0.643380880355835,
      0.6505069732666016,
      0.6331593990325928,
      -0.623171329498291,
      -0.6344089508056641,
      -0.6232694387435913,
      -0.6375266909599304
    ],
    [
      0.6171044707298279,
      -0.6105657815933228,
      -0.6116043925285339,
      -0.6016877889633179,
      0.625390350818634,
      0.6206923723220825,
      0.619753360748291,
      0.6083948016166687,
      -0.6162934303283691,
      -0.6260565519332886,
      0.6053056120872498,
      0.6080669164657593,
      0.6054140329360962,
      0.611524224281311,
      -0.6098544001579285,
      -0.6095280647277832,
      -0.6065797805786133,
      0.6282482743263245,
      0.6237966418266296,
      0.6252700686454773,
      -0.6094238758087158,
      -0.6194248795509338,
      -0.6248666644096375,
      0.6060265898704529,
      0.6011506915092468,
      0.6038116216659546,
      -0.6217923760414124,
      -0.6154090762138367,
      -0.6170419454574585,
      0.6189596056938171,
      0.6183834671974182,
      0.6210136413574219,
      -0.6047644019126892,
      -0.6097418069839478,
      -0.6080246567726135,
      -0.6125540137290955,
      0.6080003976821899,
      0.6093801856040955,
      0.6062411665916443,
      -0.6322669386863708,
      -0.6170921325683594,
      -0.6197587847709656,
      0.6118199229240417,
      0.6177080869674683,
      0.6181326508522034,
      -0.6095886826515198,
      -0.6066847443580627,
      -0.603090763092041,
      0.6240803003311157,
      0.6206058859825134,
      0.6167234778404236,
      0.6097822189331055,
      -0.6174444556236267,
      -0.6294251680374146,
      0.6073617935180664,
      0.609724760055542,
      0.6066403388977051,
      0.6156319379806519,
      -0.6070916652679443,
      -0.6079603433609009,
      0.6208173036575317,
      0.6294839382171631,
      0.6180813312530518,
      0.623529851436615
    ],
    [
      0.5549606084823608,
      -0.5517354011535645,
      -0.56614089012146,
      -0.5487056374549866,
      0.5601339340209961,
      0.5563213229179382,
      0.5475329160690308,
      0.5402253866195679,
      -0.5353890061378479,
      -0.5399066805839539,
      0.5508747100830078,
      0.5416507720947266,
      0.5413973927497864,
      0.5604448914527893,
      -0.5382094979286194,
      -0.5562260746955872,
      -0.5621878504753113,
      0.5585544109344482,
      0.5557880401611328,
      0.5494067668914795,
      -0.5540540814399719,
      -0.551390528678894,
      -0.5465827584266663,
      0.5497720837593079,
      0.532616913318634,
      0.542226254940033,
      -0.539306640625,
      -0.5360614061355591,
      -0.558103084564209,
      0.5388045907020569,
      0.5447995662689209,
      0.5509150624275208,
      -0.5523383617401123,
      -0.5626366138458252,
      -0.5464380979537964,
      -0.5386110544204712,
      0.5471456050872803,
      0.5412380695343018,
      0.5433229804039001,
      -0.5542765855789185,
      -0.5314143896102905,
      -0.5504253506660461,
      0.5366010069847107,
      0.5505326390266418,
      0.5539315938949585,
      -0.5544582009315491,
      -0.5593734979629517,
      -0.5479514002799988,
      0.5612821578979492,
      0.5573214292526245,
      0.5452008247375488,
      0.5490832924842834,
      -0.5335037112236023,
      -0.545068085193634,
      0.5600341558456421,
      0.5418975949287415,
      0.5428693294525146,
      0.5597366690635681,
      -0.5398202538490295,
      -0.5574359893798828,
      0.5451133251190186,
      0.5621721148490906,
      0.5471904873847961,
      0.5482264161109924
    ],
    [
      0.08076770603656769,
      -0.0934503823518753,
      -0.07589332014322281,
      -0.0764867290854454,
      0.09169896692037582,
      0.09180688112974167,
      0.07327628880739212,
      0.09011496603488922,
      -0.07497624307870865,
      -0.08766797184944153,
      0.09049393236637115,
      0.07431581616401672,
      0.06104358658194542,
      0.0944063663482666,
      -0.0743320882320404,
      -0.07656612992286682,
      -0.0969543308019638,
      0.09073353558778763,
      0.08820715546607971,
      0.08780334889888763,
      -0.07607177644968033,
      -0.08856897056102753,
      -0.08843687176704407,
      0.07404626905918121,
      0.05935684219002724,
      0.07557468861341476,
      -0.07444297522306442,
      -0.07877038419246674,
      -0.08951939642429352,
      0.0724402666091919,
      0.08060958981513977,
      0.07772016525268555,
      -0.08949486911296844,
      -0.0820106714963913,
      -0.07586579769849777,
      -0.0849754810333252,
      0.08098350465297699,
      0.06997018307447433,
      0.08504404127597809,
      -0.09386685490608215,
      -0.08021338284015656,
      -0.0709223747253418,
      0.07350132614374161,
      0.08249729871749878,
      0.0782158374786377,
      -0.08953467011451721,
      -0.06650470197200775,
      -0.07541541010141373,
      0.09556496143341064,
      0.09352964162826538,
      0.07305026799440384,
      0.10205446928739548,
      -0.07794280350208282,
      -0.08689280599355698,
      0.0876271054148674,
      0.07460921257734299,
      0.06258314847946167,
      0.09064076095819473,
      -0.07713480293750763,
      -0.07602708786725998,
      0.08168849349021912,
      0.09359980374574661,
      0.07537610828876495,
      0.08583452552556992
    ],
    [
      0.22411048412322998,
      -0.23712342977523804,
      -0.251023530960083,
      -0.2453288733959198,
      0.2547433078289032,
      0.24710296094417572,
      0.2527722418308258,
      0.2532564103603363,
      -0.2566606104373932,
      -0.2378736436367035,
      0.23504503071308136,
      0.239047110080719,
      0.2408231794834137,
      0.23600713908672333,
      -0.23412704467773438,
      -0.2594660818576813,
      -0.26408079266548157,
      0.24820901453495026,
      0.24524381756782532,
      0.2726518213748932,
      -0.2664141356945038,
      -0.24781031906604767,
      -0.24391794204711914,
      0.21610192954540253,
      0.23898105323314667,
      0.25208115577697754,
      -0.25454187393188477,
      -0.23626287281513214,
      -0.2650047540664673,
      0.2562536299228668,
      0.25037044286727905,
      0.2485131472349167,
      -0.23584452271461487,
      -0.23609298467636108,
      -0.23474527895450592,
      -0.2458345592021942,
      0.24765200912952423,
      0.250646710395813,
      0.25154873728752136,
      -0.24662362039089203,
      -0.2362341582775116,
      -0.2470284253358841,
      0.2549406886100769,
      0.2537152171134949,
      0.22006286680698395,
      -0.22908836603164673,
      -0.23742026090621948,
      -0.23968923091888428,
      0.2663121521472931,
      0.2525307536125183,
      0.2547542154788971,
      0.26295557618141174,
      -0.2594039738178253,
      -0.2267029583454132,
      0.2721192240715027,
      0.2338697612285614,
      0.2432427853345871,
      0.2242872565984726,
      -0.24903090298175812,
      -0.26323801279067993,
      0.27159222960472107,
      0.2537853717803955,
      0.2378012239933014,
      0.2638426125049591
    ],
    [
      0.5413339734077454,
      -0.5522146821022034,
      -0.5533771514892578,
      -0.5576396584510803,
      0.5555151104927063,
      0.5636929273605347,
      0.5534080862998962,
      0.5417047142982483,
      -0.5402483344078064,
      -0.5521250367164612,
      0.542792797088623,
      0.556667149066925,
      0.5570471882820129,
      0.5451294183731079,
      -0.5551585555076599,
      -0.5451415181159973,
      -0.5539652109146118,
      0.5476102232933044,
      0.5588173866271973,
      0.5646708607673645,
      -0.5588070154190063,
      -0.5584313869476318,
      -0.5498329401016235,
      0.5468733310699463,
      0.5407397150993347,
      0.5590735077857971,
      -0.5490909814834595,
      -0.5584093332290649,
      -0.5536324977874756,
      0.56122887134552,
      0.542438268661499,
      0.5448591709136963,
      -0.5425049662590027,
      -0.5562387108802795,
      -0.5597052574157715,
      -0.5455089807510376,
      0.555508017539978,
      0.545389711856842,
      0.5515496134757996,
      -0.5515953302383423,
      -0.5499358773231506,
      -0.5592690706253052,
      0.5606319308280945,
      0.5562921166419983,
      0.5400862097740173,
      -0.5554177165031433,
      -0.5463914275169373,
      -0.5563358068466187,
      0.5530664324760437,
      0.5655994415283203,
      0.5555014610290527,
      0.5439974069595337,
      -0.5420759320259094,
      -0.5521575808525085,
      0.5461338758468628,
      0.5539329051971436,
      0.557535707950592,
      0.5492094159126282,
      -0.557108998298645,
      -0.5463106036186218,
      0.5526937246322632,
      0.5485665202140808,
      0.5512413382530212,
      0.5664195418357849
    ],
    [
      -0.5599265694618225,
      0.5491204261779785,
      0.5565540790557861,
      0.5531085729598999,
      -0.5496935844421387,
      -0.5468099117279053,
      -0.5559979677200317,
      -0.5560115575790405,
      0.5401628613471985,
      0.5492779612541199,
      -0.5551322102546692,
      -0.5498610138893127,
      -0.5407425165176392,
      -0.5476852655410767,
      0.549860417842865,
      0.5480701327323914,
      0.5469546914100647,
      -0.5632049441337585,
      -0.5512685775756836,
      -0.5503333806991577,
      0.5596804022789001,
      0.5600721836090088,
      0.5551540851593018,
      -0.5623106360435486,
      -0.5568996667861938,
      -0.5519819259643555,
      0.5619702935218811,
      0.5597657561302185,
      0.5621358752250671,
      -0.5576720833778381,
      -0.5605170726776123,
      -0.5600906610488892,
      0.5513699650764465,
      0.56296706199646,
      0.561721920967102,
      0.5603476762771606,
      -0.5509825944900513,
      -0.5636659860610962,
      -0.5642951130867004,
      0.5577454566955566,
      0.5502004027366638,
      0.5622959136962891,
      -0.5446584820747375,
      -0.5517882108688354,
      -0.5568374395370483,
      0.5496849417686462,
      0.5485661029815674,
      0.5500718951225281,
      -0.5520979762077332,
      -0.5481181144714355,
      -0.552457869052887,
      -0.5582190155982971,
      0.5409966707229614,
      0.550811231136322,
      -0.5617702603340149,
      -0.5525956153869629,
      -0.5404863357543945,
      -0.5467538833618164,
      0.552933394908905,
      0.550128698348999,
      -0.5628915429115295,
      -0.5673758387565613,
      -0.5494881868362427,
      -0.5513979196548462
    ],
    [
      0.17421482503414154,
      -0.17389823496341705,
      -0.16156317293643951,
      -0.16679321229457855,
      0.16625088453292847,
      0.17790789902210236,
      0.1714758425951004,
      0.17276310920715332,
      -0.1723719984292984,
      -0.18391530215740204,
      0.17228570580482483,
      0.18197648227214813,
      0.17960461974143982,
      0.16123543679714203,
      -0.17717167735099792,
      -0.1651313602924347,
      -0.14804677665233612,
      0.16591772437095642,
      0.1724696010351181,
      0.15979044139385223,
      -0.15641939640045166,
      -0.16121596097946167,
      -0.18030370771884918,
      0.1754170060157776,
      0.15945649147033691,
      0.1635206937789917,
      -0.17411208152770996,
      -0.1658065915107727,
      -0.1577703058719635,
      0.15788836777210236,
      0.15075889229774475,
      0.15129956603050232,
      -0.16924171149730682,
      -0.15433427691459656,
      -0.15165182948112488,
      -0.17922548949718475,
      0.16341330111026764,
      0.15635687112808228,
      0.1702110469341278,
      -0.1632867008447647,
      -0.17954465746879578,
      -0.16514475643634796,
      0.16220667958259583,
      0.16456463932991028,
      0.17867890000343323,
      -0.17834460735321045,
      -0.16709944605827332,
      -0.16280493140220642,
      0.16901874542236328,
      0.17688563466072083,
      0.172743558883667,
      0.17693087458610535,
      -0.1688840091228485,
      -0.18516415357589722,
      0.16789011657238007,
      0.1802809089422226,
      0.17889142036437988,
      0.16099011898040771,
      -0.1781475841999054,
      -0.16756097972393036,
      0.1740536093711853,
      0.1622624546289444,
      0.16884833574295044,
      0.1604253649711609
    ],
    [
      0.43304988741874695,
      -0.42500290274620056,
      -0.4345839023590088,
      -0.4301973879337311,
      0.4227205216884613,
      0.4315931499004364,
      0.4355725347995758,
      0.4261460602283478,
      -0.4325099587440491,
      -0.4361483156681061,
      0.42475447058677673,
      0.4356518089771271,
      0.4319656491279602,
      0.41917693614959717,
      -0.4346981942653656,
      -0.43381795287132263,
      -0.4143385589122772,
      0.43382740020751953,
      0.42906874418258667,
      0.4180035889148712,
      -0.42412811517715454,
      -0.4248378574848175,
      -0.4263122081756592,
      0.43090876936912537,
      0.417828768491745,
      0.41525372862815857,
      -0.4284401834011078,
      -0.4111913740634918,
      -0.414642333984375,
      0.42343369126319885,
      0.41420361399650574,
      0.41399961709976196,
      -0.42240244150161743,
      -0.41635268926620483,
      -0.41637691855430603,
      -0.43030330538749695,
      0.41453441977500916,
      0.4209986627101898,
      0.4308224618434906,
      -0.4202178716659546,
      -0.4190426468849182,
      -0.4295937716960907,
      0.41849857568740845,
      0.4254056513309479,
      0.43515047430992126,
      -0.4292908310890198,
      -0.43500858545303345,
      -0.42888927459716797,
      0.42628106474876404,
      0.4333970844745636,
      0.4343462288379669,
      0.42551568150520325,
      -0.4338545501232147,
      -0.43675634264945984,
      0.4261961579322815,
      0.4351087510585785,
      0.43013137578964233,
      0.41770246624946594,
      -0.43274351954460144,
      -0.4294823110103607,
      0.43134358525276184,
      0.4320804476737976,
      0.42472442984580994,
      0.4165538251399994
    ],
    [
      -0.49634692072868347,
      0.49827906489372253,
      0.5147445797920227,
      0.5083646774291992,
      -0.515242874622345,
      -0.5042521953582764,
      -0.5040408372879028,
      -0.5107650756835938,
      0.5045124888420105,
      0.5133035182952881,
      -0.5157881379127502,
      -0.501569390296936,
      -0.5004493594169617,
      -0.5137285590171814,
      0.5109687447547913,
      0.5073250532150269,
      0.4974125325679779,
      -0.5013182163238525,
      -0.5060945153236389,
      -0.5155906677246094,
      0.5117773413658142,
      0.5070919990539551,
      0.5030090808868408,
      -0.49689599871635437,
      -0.5050793290138245,
      -0.5103147029876709,
      0.514884352684021,
      0.49811404943466187,
      0.5027168393135071,
      -0.49668145179748535,
      -0.507684051990509,
      -0.506589412689209,
      0.5145158767700195,
      0.500515341758728,
      0.5023270845413208,
      0.5128740072250366,
      -0.510145366191864,
      -0.5064480304718018,
      -0.49886196851730347,
      0.504564642906189,
      0.5008495450019836,
      0.5134828090667725,
      -0.5136304497718811,
      -0.5035259127616882,
      -0.4982099235057831,
      0.4986863136291504,
      0.5133682489395142,
      0.5065976977348328,
      -0.5152973532676697,
      -0.5032666921615601,
      -0.5060235857963562,
      -0.5137898325920105,
      0.5060070157051086,
      0.5134820938110352,
      -0.517730712890625,
      -0.4999820590019226,
      -0.5026726722717285,
      -0.5146458148956299,
      0.5124340057373047,
      0.5040870308876038,
      -0.5101856589317322,
      -0.5018531084060669,
      -0.505142331123352,
      -0.5131964683532715
    ],
    [
      0.5508595108985901,
      -0.5573285222053528,
      -0.5603450536727905,
      -0.548306405544281,
      0.5568334460258484,
      0.5542755126953125,
      0.5565029382705688,
      0.5503165125846863,
      -0.5491080284118652,
      -0.5547075271606445,
      0.551792323589325,
      0.5557061433792114,
      0.5470396280288696,
      0.5532621145248413,
      -0.5514184832572937,
      -0.5534136891365051,
      -0.5551990270614624,
      0.5587343573570251,
      0.5516294836997986,
      0.5599287748336792,
      -0.5515624284744263,
      -0.5549972653388977,
      -0.5617726445198059,
      0.552940845489502,
      0.5462840795516968,
      0.5531365871429443,
      -0.5546745657920837,
      -0.5459681153297424,
      -0.5584515929222107,
      0.5551199316978455,
      0.5468149781227112,
      0.5524872541427612,
      -0.5551308393478394,
      -0.5527442693710327,
      -0.5532994866371155,
      -0.5481093525886536,
      0.545991837978363,
      0.5578902959823608,
      0.5494020581245422,
      -0.55800861120224,
      -0.5492846965789795,
      -0.5480680465698242,
      0.5485507845878601,
      0.557124674320221,
      0.5462050437927246,
      -0.5539953112602234,
      -0.5590335726737976,
      -0.5449427962303162,
      0.5534635186195374,
      0.56007981300354,
      0.5519339442253113,
      0.5578038692474365,
      -0.5525457859039307,
      -0.5536489486694336,
      0.5507561564445496,
      0.559661865234375,
      0.5428656339645386,
      0.5585609674453735,
      -0.5547047853469849,
      -0.5497545003890991,
      0.5448429584503174,
      0.5637829303741455,
      0.543156087398529,
      0.5633236169815063
    ],
    [
      -0.4917677044868469,
      0.49175167083740234,
      0.4893905222415924,
      0.4708121716976166,
      -0.4705936908721924,
      -0.48824554681777954,
      -0.4951384961605072,
      -0.46761906147003174,
      0.47306931018829346,
      0.48036444187164307,
      -0.4742622971534729,
      -0.4901171624660492,
      -0.48791933059692383,
      -0.4715016186237335,
      0.4762847423553467,
      0.47781017422676086,
      0.4941718280315399,
      -0.4942481815814972,
      -0.48646917939186096,
      -0.4730208218097687,
      0.4739253520965576,
      0.48460036516189575,
      0.4949614405632019,
      -0.49444907903671265,
      -0.48073628544807434,
      -0.47365468740463257,
      0.4740507900714874,
      0.4832404851913452,
      0.4931490421295166,
      -0.4947734773159027,
      -0.47732117772102356,
      -0.47501346468925476,
      0.4734095633029938,
      0.48847952485084534,
      0.48932889103889465,
      0.47178414463996887,
      -0.47556358575820923,
      -0.4787752032279968,
      -0.4961920976638794,
      0.4963548183441162,
      0.48216792941093445,
      0.47598156332969666,
      -0.475344717502594,
      -0.4822691082954407,
      -0.49236950278282166,
      0.49090641736984253,
      0.4888611137866974,
      0.47090697288513184,
      -0.47204628586769104,
      -0.4867682158946991,
      -0.49566930532455444,
      -0.47163593769073486,
      0.4749484658241272,
      0.4817951023578644,
      -0.47769880294799805,
      -0.487624853849411,
      -0.4886232614517212,
      -0.4757392704486847,
      0.4797440767288208,
      0.4754813611507416,
      -0.4708992540836334,
      -0.4929584860801697,
      -0.4854298532009125,
      -0.473319411277771
    ],
    [
      0.3252166509628296,
      -0.3244808316230774,
      -0.3443416357040405,
      -0.32709968090057373,
      0.3321758210659027,
      0.33352211117744446,
      0.327483594417572,
      0.33762356638908386,
      -0.34783411026000977,
      -0.32934239506721497,
      0.31905651092529297,
      0.3293668329715729,
      0.3423784077167511,
      0.31795942783355713,
      -0.3237178921699524,
      -0.35125359892845154,
      -0.3258178234100342,
      0.31982704997062683,
      0.33534109592437744,
      0.33687272667884827,
      -0.3417834937572479,
      -0.33815133571624756,
      -0.338167279958725,
      0.33008578419685364,
      0.3384151756763458,
      0.35194364190101624,
      -0.3565983474254608,
      -0.3261452913284302,
      -0.3521130383014679,
      0.35126686096191406,
      0.33812204003334045,
      0.34583306312561035,
      -0.3277915120124817,
      -0.3325517475605011,
      -0.32927578687667847,
      -0.3293413519859314,
      0.35087019205093384,
      0.34047168493270874,
      0.346516877412796,
      -0.34849828481674194,
      -0.3280028700828552,
      -0.34548714756965637,
      0.3532751798629761,
      0.3422184884548187,
      0.33512136340141296,
      -0.32407698035240173,
      -0.3362961709499359,
      -0.3296668827533722,
      0.34015658497810364,
      0.33276280760765076,
      0.32860812544822693,
      0.34871670603752136,
      -0.34993621706962585,
      -0.32278144359588623,
      0.33041366934776306,
      0.32822930812835693,
      0.34561166167259216,
      0.3188687562942505,
      -0.33108407258987427,
      -0.3529714345932007,
      0.3441920280456543,
      0.3203037977218628,
      0.3343181014060974,
      0.3290223479270935
    ],
    [
      -0.6357869505882263,
      0.6344783306121826,
      0.6382144689559937,
      0.6261686682701111,
      -0.6410269737243652,
      -0.643828272819519,
      -0.646330714225769,
      -0.6363235712051392,
      0.6221575736999512,
      0.6283319592475891,
      -0.6429680585861206,
      -0.6469357013702393,
      -0.6439594626426697,
      -0.6392651796340942,
      0.6241186261177063,
      0.6285015344619751,
      0.6212208867073059,
      -0.6442674994468689,
      -0.642116129398346,
      -0.6406548619270325,
      0.627520740032196,
      0.634733259677887,
      0.6392454504966736,
      -0.6355441808700562,
      -0.6294350624084473,
      -0.6308441162109375,
      0.6392088532447815,
      0.635485053062439,
      0.6415465474128723,
      -0.627300500869751,
      -0.6226629614830017,
      -0.623373806476593,
      0.6422462463378906,
      0.6459131240844727,
      0.6410983204841614,
      0.6431326866149902,
      -0.6222850680351257,
      -0.6254584193229675,
      -0.6256999373435974,
      0.6483874320983887,
      0.6364170908927917,
      0.6413043141365051,
      -0.6277593374252319,
      -0.6304005980491638,
      -0.6316454410552979,
      0.6403820514678955,
      0.6389399766921997,
      0.6307409405708313,
      -0.6371244192123413,
      -0.6411346197128296,
      -0.6422075033187866,
      -0.637000560760498,
      0.6236752271652222,
      0.6336179375648499,
      -0.6380285024642944,
      -0.6461806297302246,
      -0.6432487964630127,
      -0.6442392468452454,
      0.6225915551185608,
      0.627125084400177,
      -0.6392553448677063,
      -0.6477949023246765,
      -0.641635000705719,
      -0.6442263126373291
    ],
    [
      0.6104522943496704,
      -0.5972631573677063,
      -0.6058524250984192,
      -0.6037536859512329,
      0.5968519449234009,
      0.5965784192085266,
      0.6057657599449158,
      0.6043689846992493,
      -0.5905487537384033,
      -0.6003506183624268,
      0.6016063094139099,
      0.5976684093475342,
      0.5917197465896606,
      0.5960187911987305,
      -0.5975498557090759,
      -0.5966214537620544,
      -0.5921387672424316,
      0.6084355115890503,
      0.5979556441307068,
      0.5973928570747375,
      -0.6068606376647949,
      -0.6046977639198303,
      -0.6006555557250977,
      0.6127976775169373,
      0.6030886173248291,
      0.5972808003425598,
      -0.613676905632019,
      -0.6068488359451294,
      -0.605580747127533,
      0.6116232872009277,
      0.6103159189224243,
      0.6061366200447083,
      -0.6057515144348145,
      -0.6151997447013855,
      -0.6092832088470459,
      -0.6042042374610901,
      0.6070529222488403,
      0.6148419976234436,
      0.6106466054916382,
      -0.611760139465332,
      -0.6062233448028564,
      -0.6130958795547485,
      0.5988941788673401,
      0.6086680293083191,
      0.6121458411216736,
      -0.5999371409416199,
      -0.6059809327125549,
      -0.6079248785972595,
      0.5965043306350708,
      0.6010648608207703,
      0.60959392786026,
      0.6110613942146301,
      -0.5907782316207886,
      -0.6070841550827026,
      0.59571772813797,
      0.5962718725204468,
      0.5935152769088745,
      0.6040999889373779,
      -0.593593955039978,
      -0.596544623374939,
      0.6038636565208435,
      0.6050596833229065,
      0.591316282749176,
      0.5986747145652771
    ],
    [
      0.7013558745384216,
      -0.699184775352478,
      -0.7048787474632263,
      -0.6807750463485718,
      0.6930903196334839,
      0.6840949654579163,
      0.7014828324317932,
      0.6920464038848877,
      -0.6971957087516785,
      -0.6962792277336121,
      0.7013599276542664,
      0.6903404593467712,
      0.6837981343269348,
      0.6967864036560059,
      -0.688883364200592,
      -0.7032735347747803,
      -0.6853193640708923,
      0.7040269374847412,
      0.6850835084915161,
      0.6907197833061218,
      -0.6813493967056274,
      -0.6976381540298462,
      -0.7041255831718445,
      0.6999775171279907,
      0.6944668292999268,
      0.681911051273346,
      -0.6906610131263733,
      -0.6817806363105774,
      -0.7004758715629578,
      0.6882505416870117,
      0.6996200084686279,
      0.690900981426239,
      -0.7003366351127625,
      -0.6886586546897888,
      -0.6859492063522339,
      -0.7000714540481567,
      0.6893159747123718,
      0.7039424180984497,
      0.6877099871635437,
      -0.7033323645591736,
      -0.6782734394073486,
      -0.6922115683555603,
      0.6820544600486755,
      0.6985583305358887,
      0.698455274105072,
      -0.7031387090682983,
      -0.697282612323761,
      -0.6807198524475098,
      0.6886242032051086,
      0.6878063082695007,
      0.7039276361465454,
      0.6896839141845703,
      -0.6974042654037476,
      -0.6940417885780334,
      0.6951828598976135,
      0.6870303153991699,
      0.6867156028747559,
      0.7028698325157166,
      -0.6932242512702942,
      -0.7023409008979797,
      0.6934632658958435,
      0.7018643617630005,
      0.6799582242965698,
      0.6952288150787354
    ],
    [
      -0.7027431130409241,
      0.7005422115325928,
      0.7180755734443665,
      0.6955767273902893,
      -0.695504903793335,
      -0.7173349261283875,
      -0.6993923783302307,
      -0.7075143456459045,
      0.7106666564941406,
      0.703180193901062,
      -0.7026060819625854,
      -0.7060482501983643,
      -0.7105750441551208,
      -0.6940945386886597,
      0.6965973377227783,
      0.7175582051277161,
      0.6894105672836304,
      -0.6981099843978882,
      -0.7157101035118103,
      -0.6998407244682312,
      0.7005903720855713,
      0.7106043696403503,
      0.7074131369590759,
      -0.7091267704963684,
      -0.6994441151618958,
      -0.7135942578315735,
      0.7154470086097717,
      0.694455623626709,
      0.7174845933914185,
      -0.7159628868103027,
      -0.6967872977256775,
      -0.7113785743713379,
      0.7076677680015564,
      0.7072094082832336,
      0.703751266002655,
      0.7082208395004272,
      -0.7110946178436279,
      -0.6982120871543884,
      -0.7160922884941101,
      0.7181576490402222,
      0.6923620700836182,
      0.7153013348579407,
      -0.7130377888679504,
      -0.7022371888160706,
      -0.707486629486084,
      0.7055761218070984,
      0.7113787531852722,
      0.6993182301521301,
      -0.697910487651825,
      -0.7171719670295715,
      -0.698393702507019,
      -0.7111316323280334,
      0.7130413055419922,
      0.7008902430534363,
      -0.6915802955627441,
      -0.7110451459884644,
      -0.7054147720336914,
      -0.7033259272575378,
      0.6999775171279907,
      0.7150759696960449,
      -0.7067326307296753,
      -0.698773205280304,
      -0.7151923179626465,
      -0.697075605392456
    ],
    [
      -0.5950689911842346,
      0.6035748720169067,
      0.5895612239837646,
      0.5880977511405945,
      -0.586956799030304,
      -0.600540280342102,
      -0.5844987034797668,
      -0.5880780816078186,
      0.5838477611541748,
      0.6029749512672424,
      -0.5976048111915588,
      -0.5853967666625977,
      -0.5869463086128235,
      -0.5914708971977234,
      0.5978185534477234,
      0.5842107534408569,
      0.5879496932029724,
      -0.5882606506347656,
      -0.6001142859458923,
      -0.583415687084198,
      0.5806243419647217,
      0.5896730422973633,
      0.6052134037017822,
      -0.5998739004135132,
      -0.5781151056289673,
      -0.5878225564956665,
      0.5827521085739136,
      0.5930629968643188,
      0.5818817615509033,
      -0.5873207449913025,
      -0.5797353982925415,
      -0.5951991081237793,
      0.5964900851249695,
      0.5852494239807129,
      0.5809644460678101,
      0.5961207151412964,
      -0.5958404541015625,
      -0.5835701823234558,
      -0.589353084564209,
      0.5901675224304199,
      0.5926624536514282,
      0.5808354616165161,
      -0.5853183269500732,
      -0.5842893719673157,
      -0.5976601839065552,
      0.6045288443565369,
      0.5887044668197632,
      0.5833011269569397,
      -0.5835774540901184,
      -0.6025422215461731,
      -0.5866420865058899,
      -0.5884276032447815,
      0.5785577893257141,
      0.6080518960952759,
      -0.5968172550201416,
      -0.5900614261627197,
      -0.5817050933837891,
      -0.5976346731185913,
      0.5965556502342224,
      0.5882099866867065,
      -0.5886970162391663,
      -0.5859106779098511,
      -0.5957175493240356,
      -0.5866639018058777
    ],
    [
      0.47683772444725037,
      -0.4956410229206085,
      -0.48616334795951843,
      -0.4770531952381134,
      0.4848155677318573,
      0.48081398010253906,
      0.49615421891212463,
      0.4929797053337097,
      -0.48379677534103394,
      -0.5018618106842041,
      0.48652419447898865,
      0.49905553460121155,
      0.4877185821533203,
      0.47867658734321594,
      -0.4910081923007965,
      -0.4825170636177063,
      -0.47939661145210266,
      0.488619327545166,
      0.4784306287765503,
      0.49204903841018677,
      -0.4731365740299225,
      -0.4881857633590698,
      -0.5041128993034363,
      0.483018159866333,
      0.48919469118118286,
      0.49259305000305176,
      -0.4917689263820648,
      -0.4911360740661621,
      -0.48706361651420593,
      0.4955505132675171,
      0.4825665354728699,
      0.47333207726478577,
      -0.490237832069397,
      -0.481254518032074,
      -0.47674426436424255,
      -0.49239376187324524,
      0.4752732813358307,
      0.4921773374080658,
      0.49655866622924805,
      -0.4994662404060364,
      -0.4912816882133484,
      -0.4884472191333771,
      0.49348968267440796,
      0.4922197163105011,
      0.4778912663459778,
      -0.5013747215270996,
      -0.48487240076065063,
      -0.47520971298217773,
      0.4887980818748474,
      0.4809097945690155,
      0.49038445949554443,
      0.4988456964492798,
      -0.47823336720466614,
      -0.504429817199707,
      0.4882309138774872,
      0.4967130124568939,
      0.49106937646865845,
      0.4835468530654907,
      -0.4927166700363159,
      -0.4871297776699066,
      0.4947355091571808,
      0.4951132535934448,
      0.4729875326156616,
      0.48819640278816223
    ],
    [
      0.5907129645347595,
      -0.6066234707832336,
      -0.6130928993225098,
      -0.601251482963562,
      0.591242253780365,
      0.5911949276924133,
      0.5978587865829468,
      0.5926104187965393,
      -0.5865129232406616,
      -0.5907593369483948,
      0.6045083403587341,
      0.6072778105735779,
      0.5995789766311646,
      0.5978361368179321,
      -0.5920302271842957,
      -0.6021268367767334,
      -0.601329505443573,
      0.5907628536224365,
      0.5867007970809937,
      0.5916414856910706,
      -0.5989121198654175,
      -0.6020586490631104,
      -0.6008888483047485,
      0.6002374291419983,
      0.599214494228363,
      0.6033458113670349,
      -0.5863114595413208,
      -0.582335889339447,
      -0.594041645526886,
      0.59615159034729,
      0.5885324478149414,
      0.5859020948410034,
      -0.6031246781349182,
      -0.607646107673645,
      -0.6005448698997498,
      -0.6002092957496643,
      0.5891518592834473,
      0.5978029370307922,
      0.6000230312347412,
      -0.5968062877655029,
      -0.5789089202880859,
      -0.5859087109565735,
      0.6022635698318481,
      0.6012873649597168,
      0.595394492149353,
      -0.6030327677726746,
      -0.6049142479896545,
      -0.6009389162063599,
      0.5901393890380859,
      0.5896973013877869,
      0.5924292206764221,
      0.5921638011932373,
      -0.5911402702331543,
      -0.5975232720375061,
      0.604747474193573,
      0.6075837016105652,
      0.6013373732566833,
      0.6042212843894958,
      -0.5867642760276794,
      -0.5968790054321289,
      0.5899598598480225,
      0.5952075719833374,
      0.5828460454940796,
      0.5907654166221619
    ],
    [
      0.6179893016815186,
      -0.6065032482147217,
      -0.6089915633201599,
      -0.604744017124176,
      0.6140324473381042,
      0.6112925410270691,
      0.6082982420921326,
      0.5958194136619568,
      -0.6192817687988281,
      -0.6209580898284912,
      0.613304853439331,
      0.6222730875015259,
      0.6225548982620239,
      0.6157678365707397,
      -0.6074299216270447,
      -0.6142590641975403,
      -0.6097176671028137,
      0.6066506505012512,
      0.6044248342514038,
      0.6063776016235352,
      -0.6140272617340088,
      -0.6126407980918884,
      -0.6093958020210266,
      0.6241919994354248,
      0.6200889945030212,
      0.6184430122375488,
      -0.6133910417556763,
      -0.6164392232894897,
      -0.6223978996276855,
      0.6045334339141846,
      0.6039854884147644,
      0.609700620174408,
      -0.607783317565918,
      -0.6063600778579712,
      -0.6012336015701294,
      -0.6044173240661621,
      0.6148175597190857,
      0.6120969653129578,
      0.6077207326889038,
      -0.6251312494277954,
      -0.6187282800674438,
      -0.6185116171836853,
      0.6129761934280396,
      0.6191597580909729,
      0.6217004060745239,
      -0.6067475080490112,
      -0.6091596484184265,
      -0.6094630360603333,
      0.608980655670166,
      0.6077734231948853,
      0.605612576007843,
      0.5987610220909119,
      -0.6143314242362976,
      -0.6179625988006592,
      0.6086516976356506,
      0.6254087090492249,
      0.6219963431358337,
      0.6189841628074646,
      -0.6119169592857361,
      -0.6197507381439209,
      0.5961794853210449,
      0.6065735816955566,
      0.6037998795509338,
      0.610727846622467
    ],
    [
      -0.5424174070358276,
      0.5587725639343262,
      0.5521499514579773,
      0.5511012077331543,
      -0.5486555695533752,
      -0.5568737983703613,
      -0.5692547559738159,
      -0.5500413179397583,
      0.559876024723053,
      0.5559656620025635,
      -0.5642297863960266,
      -0.5552350878715515,
      -0.5408792495727539,
      -0.5557632446289062,
      0.5418184995651245,
      0.5587336421012878,
      0.5662381052970886,
      -0.5615315437316895,
      -0.5651534795761108,
      -0.5572982430458069,
      0.5608319044113159,
      0.5556060671806335,
      0.5519839525222778,
      -0.5491825342178345,
      -0.5406126379966736,
      -0.5563374161720276,
      0.5444901585578918,
      0.553651750087738,
      0.5666479468345642,
      -0.5580847859382629,
      -0.5603489875793457,
      -0.5471091270446777,
      0.5627924799919128,
      0.5528712272644043,
      0.5428435802459717,
      0.5575553178787231,
      -0.541988730430603,
      -0.5608746409416199,
      -0.563090443611145,
      0.568250834941864,
      0.5560465455055237,
      0.5479863882064819,
      -0.5622729659080505,
      -0.5494058132171631,
      -0.5435066819190979,
      0.5537694692611694,
      0.5483554601669312,
      0.5566419363021851,
      -0.5512268543243408,
      -0.564257800579071,
      -0.5663427710533142,
      -0.5499168038368225,
      0.5572664141654968,
      0.5537233352661133,
      -0.565341591835022,
      -0.5501876473426819,
      -0.542853593826294,
      -0.562082827091217,
      0.5444356799125671,
      0.5637810230255127,
      -0.545996904373169,
      -0.5680060386657715,
      -0.5573360323905945,
      -0.5521045327186584
    ],
    [
      0.5211554765701294,
      -0.5289096236228943,
      -0.5146709680557251,
      -0.5205284357070923,
      0.5218991637229919,
      0.5207716226577759,
      0.5146442651748657,
      0.5224729180335999,
      -0.5211398005485535,
      -0.5135498642921448,
      0.5156214833259583,
      0.515259861946106,
      0.5226191282272339,
      0.5057509541511536,
      -0.5060796737670898,
      -0.5227832794189453,
      -0.5185372829437256,
      0.526936411857605,
      0.5083227157592773,
      0.529758870601654,
      -0.5213720798492432,
      -0.5175824165344238,
      -0.5200796127319336,
      0.5099426507949829,
      0.5227357745170593,
      0.506293535232544,
      -0.5103268623352051,
      -0.5147677063941956,
      -0.5233873724937439,
      0.5261228084564209,
      0.5030184388160706,
      0.5231064558029175,
      -0.5206958651542664,
      -0.5206578373908997,
      -0.5086153149604797,
      -0.5247682332992554,
      0.5229549407958984,
      0.5111081004142761,
      0.5204163193702698,
      -0.5223474502563477,
      -0.5177474617958069,
      -0.50727778673172,
      0.506476640701294,
      0.5238350629806519,
      0.5147351026535034,
      -0.5258811116218567,
      -0.5108922719955444,
      -0.5235188603401184,
      0.5266286134719849,
      0.5169770121574402,
      0.5188066959381104,
      0.5231140851974487,
      -0.5201416015625,
      -0.5138860940933228,
      0.513421893119812,
      0.5217576622962952,
      0.5168363451957703,
      0.5099299550056458,
      -0.504379153251648,
      -0.5271689891815186,
      0.520010769367218,
      0.5230208039283752,
      0.5075423121452332,
      0.528992772102356
    ],
    [
      -0.4875872731208801,
      0.490472674369812,
      0.4808330535888672,
      0.488409161567688,
      -0.48805928230285645,
      -0.48128780722618103,
      -0.48855653405189514,
      -0.4812628924846649,
      0.483903706073761,
      0.4769357144832611,
      -0.47433024644851685,
      -0.493944376707077,
      -0.47764018177986145,
      -0.48238399624824524,
      0.4782578945159912,
      0.48916128277778625,
      0.4747999310493469,
      -0.47794219851493835,
      -0.4918453097343445,
      -0.4772864878177643,
      0.4798126220703125,
      0.48357343673706055,
      0.49242982268333435,
      -0.4957925081253052,
      -0.4698740839958191,
      -0.49128758907318115,
      0.4884565770626068,
      0.4812157452106476,
      0.48220643401145935,
      -0.4791407287120819,
      -0.4878615438938141,
      -0.47264188528060913,
      0.47400733828544617,
      0.4921015501022339,
      0.48030245304107666,
      0.47940805554389954,
      -0.4730333685874939,
      -0.49366554617881775,
      -0.4762228727340698,
      0.4825492799282074,
      0.4836820662021637,
      0.4833510220050812,
      -0.4827669858932495,
      -0.48042207956314087,
      -0.4912227988243103,
      0.49431532621383667,
      0.4766806960105896,
      0.48737674951553345,
      -0.4824841022491455,
      -0.4898548424243927,
      -0.48095929622650146,
      -0.48826107382774353,
      0.48426735401153564,
      0.4811175763607025,
      -0.47928357124328613,
      -0.49055996537208557,
      -0.4813406467437744,
      -0.47990819811820984,
      0.47314712405204773,
      0.4928138256072998,
      -0.4901014566421509,
      -0.48271554708480835,
      -0.48266881704330444,
      -0.4836297333240509
    ]
  ],
  "action_output_bias": -0.04172951728105545,
  "action_output_weights": [
    0.12612098455429077,
    -0.12486869096755981,
    -0.12457898259162903,
    -0.12617965042591095,
    0.125120148062706,
    0.12556092441082,
    0.1250295490026474,
    0.1256827712059021,
    -0.12682853639125824,
    -0.1251365840435028,
    0.1254926323890686,
    0.12538619339466095,
    0.1267775297164917,
    0.1258591115474701,
    -0.12647278606891632,
    -0.12562401592731476,
    -0.12547653913497925,
    0.1249525174498558,
    0.1257285475730896,
    0.12492918968200684,
    -0.12598592042922974,
    -0.12522856891155243,
    -0.12447606772184372,
    0.12588071823120117,
    0.12696558237075806,
    0.12625229358673096,
    -0.12575875222682953,
    -0.12685061991214752,
    -0.12533855438232422,
    0.12559548020362854,
    0.12682370841503143,
    0.12666074931621552,
    -0.12547419965267181,
    -0.12542513012886047,
    -0.12672163546085358,
    -0.12539508938789368,
    0.12651978433132172,
    0.1256382316350937,
    0.12560191750526428,
    -0.1241069808602333,
    -0.12668825685977936,
    -0.12591233849525452,
    0.12614655494689941,
    0.1257559061050415,
    0.12612326443195343,
    -0.12475650012493134,
    -0.125545471906662,
    -0.12623539566993713,
    0.12508103251457214,
    0.12521138787269592,
    0.1251726597547531,
    0.12451039254665375,
    -0.12678584456443787,
    -0.12453366070985794,
    0.12373737245798111,
    0.12533043324947357,
    0.1268303543329239,
    0.1255316436290741,
    -0.1265219748020172,
    -0.12560027837753296,
    0.12497590482234955,
    0.12467241287231445,
    0.12695421278476715,
    0.12489653378725052
  ],
  "action_value_output_bias": 0.06414955854415894,
  "action_value_output_weights": [
    0.005955325905233622,
    -0.006565764080733061,
    -0.0056245275773108006,
    -0.004703859332948923,
    0.005341680254787207,
    0.006324717774987221,
    0.005594194866716862,
    0.006372123956680298,
    -0.005185483023524284,
    -0.006275477819144726,
    0.007255439646542072,
    0.005956662353128195,
    0.005126117262989283,
    0.006045012269169092,
    -0.005117082502692938,
    -0.00541898375377059,
    -0.00497316662222147,
    0.006218797527253628,
    0.005926674697548151,
    0.005480033345520496,
    -0.004707813262939453,
    -0.006478130351752043,
    -0.006920245476067066,
    0.006500421091914177,
    0.004924610257148743,
    0.005746779963374138,
    -0.005919824354350567,
    -0.005944847594946623,
    -0.006805998273193836,
    0.0058008828200399876,
    0.00512771075591445,
    0.005321184638887644,
    -0.007327535189688206,
    -0.006045975722372532,
    -0.005531462375074625,
    -0.007126146461814642,
    0.0059837400913238525,
    0.00557603407651186,
    0.006632235832512379,
    -0.0075845494866371155,
    -0.005986682139337063,
    -0.005530220922082663,
    0.005562182981520891,
    0.005937611218541861,
    0.005992756225168705,
    -0.006642543710768223,
    -0.005047342739999294,
    -0.004906410351395607,
    0.005195753648877144,
    0.006537311244755983,
    0.005614671390503645,
    0.006946798879653215,
    -0.005249665584415197,
    -0.006461405660957098,
    0.005713997408747673,
    0.006163591984659433,
    0.004917297046631575,
    0.006865902803838253,
    -0.0054994011297822,
    -0.005527923349291086,
    0.005603237077593803,
    0.006195181515067816,
    0.005036281421780586,
    0.005702455993741751
  ],
  "activation": "tanh",
  "categories": [
    "airplane",
    "chair",
    "table"
  ],
  "default_logit": -5.87493073085203,
  "fallback_coord_scale_logits": {
    "0:0": -3.929020581796717,
    "0:1": -3.1023420086122493,
    "1:0": -3.6777061535158113,
    "1:1": -2.0037297199441397,
    "2:0": -2.0462893343629354,
    "2:1": -1.2114916367399633,
    "3:0": -2.93049175168559,
    "3:1": -4.26549281841793,
    "4:0": -3.0417173867958143,
    "4:1": -3.235873401236772,
    "5:0": -2.1613586641477225,
    "5:1": -2.8304082931286074,
    "6:0": -3.929020581796717
  },
  "feature_names": [
    "bias_context",
    "bvs",
    "bvs_minus_one",
    "abs_bvs_minus_one",
    "step_fraction",
    "action_unit",
    "num_bbox_scaled",
    "cover_penalty_scaled",
    "pen_rate",
    "category=airplane",
    "category=chair",
    "category=table",
    "bbox_idx_norm",
    "bbox_centered",
    "bbox_reverse_norm",
    "local_action_norm",
    "is_axis_action",
    "is_recenter_action",
    "is_lower_coord",
    "is_upper_coord",
    "signed_scale_norm",
    "abs_scale_norm",
    "scale_idx_norm",
    "axis=x",
    "axis=y",
    "axis=z",
    "coord=0",
    "coord=1",
    "coord=2",
    "coord=3",
    "coord=4",
    "coord=5",
    "coord=6",
    "scale_idx=0",
    "scale_idx=1"
  ],
  "hidden_size": 64,
  "metadata": {
    "accepted_weight": 1.0,
    "advantage_baseline": "category",
    "advantage_clip": 5.0,
    "advantage_mean": -2.9023596836647494e-17,
    "advantage_std": 0.21863895814898066,
    "candidate_actions_seen": 33163,
    "candidate_records_used": 0,
    "candidate_weight": 1.0,
    "categories": [
      "airplane",
      "chair",
      "table"
    ],
    "category_balance": false,
    "device": "mps",
    "entropy_coef": 0.01,
    "epochs": 160,
    "fallback_min_reward": 0.0,
    "hidden_size": 64,
    "l2": 0.0001,
    "learning_rate": 0.003,
    "logit_scale": 0.19093594349434068,
    "max_logit_abs": 8.0,
    "mean_example_weight": 1.0,
    "meshes": [
      "1040cd764facf6981190e285a2cbc9c",
      "10e6398274554867fdf2e93846e20960",
      "11347c7e8bc5881775907ca70d2973a4",
      "11740d372308f12185047f9f654ddc2e",
      "11b7c86fc42306ec7e7e25239e7b8f85",
      "123bd9e948881939c38a1d3458dafa1b",
      "12877bdca58ccbea402991f646f01d6c",
      "13370c42b8ea45cf5e8172e6d9ae84ff",
      "1600f311c31ad47fa4bec68446bb57f4",
      "1692563658149377630047043c6a0c50",
      "16f603525c5ce57b23f7198a00163bb6",
      "16fa03bfc61770652c5d34a902e568f9",
      "172764bea108bbcceae5a783c313eb36",
      "17ac3afd54143b797172a40a4ca640fe",
      "17c2d3e052dfe73f9cc1fc25372199f",
      "1804dd6f5c827c1a4bf8d5f43e57b138",
      "18806a80387734b754c7b6e11bf7148d",
      "18be1556eb4da5af7ccf848ce05c84be",
      "18d391ede29e2edb990561fc34164364",
      "196d35794f869816db6f03b6829a5891",
      "1998ee1bf3806b05818b286e41cc1a3f",
      "19a624cf1037fc75cda1835f53ae7d53",
      "19c8189116dd7cd3e95c611687989498",
      "1ac6531a337de85f2f7628d6bf38bcc4",
      "1c45b266d3c879dab36dcc661f3905d",
      "1ee30d218c8c730ecb01bc908e8cea6",
      "23acbdfee13b407ce42d6c2ea750090e"
    ],
    "min_reward": -10.0,
    "model_type": "policy_value_agent",
    "num_meshes": 27,
    "policy_base_prior": "",
    "pre_scale_max_abs_logit": 41.898868560791016,
    "records_seen": 394,
    "records_used": 394,
    "reward_mean": 0.12212529937633118,
    "selected_candidate_weight": 1.0,
    "smoothing": 1.0,
    "source": "smart.action_prior.build_policy_value_action_prior_from_traces",
    "torch_version": "2.8.0",
    "trace_files": [
      "runs/bench_exact/local_refine_trace_after_candidate_pg_cat10_covtol.jsonl",
      "runs/bench_exact/local_refine_trace_mcts_cat10_covtol.jsonl"
    ],
    "trainer_backend": "torch",
    "value_candidate_records_used": 0,
    "value_clip": 5.0,
    "value_epochs": 160,
    "value_learning_rate": 0.003,
    "value_negative_examples": 196,
    "value_negative_weight": 1.0,
    "value_positive_examples": 198,
    "value_positive_weight": 2.0,
    "value_records_used": 394,
    "value_target_mean": -2.9023596836647494e-17,
    "value_target_std": 0.21863895814898066,
    "value_trace_files": [
      "runs/bench_exact/local_refine_trace_after_candidate_pg_cat10_covtol.jsonl",
      "runs/bench_exact/local_refine_trace_mcts_cat10_covtol.jsonl"
    ],
    "value_zero_examples": 0,
    "value_zero_weight": 0.2
  },
  "num_action_scale": 2,
  "policy_type": "action_policy_value_prior",
  "schema_version": 2
}