{
  "activation": "tanh",
  "categories": [
    "table"
  ],
  "classes": [
    "0:0",
    "0:1",
    "1:0",
    "1:1",
    "2:0",
    "2:1",
    "3:0",
    "3:1",
    "4:0",
    "4:1",
    "5:0",
    "5:1",
    "6:0"
  ],
  "default_logit": -7.192182058713246,
  "fallback_coord_scale_logits": {
    "0:0": -2.5477911595718727,
    "0:1": -2.6488872764432414,
    "1:0": -2.9436868166638863,
    "1:1": -2.7733414509166474,
    "2:0": -2.6488872764432414,
    "2:1": -2.8227342062462237,
    "3:0": -2.9017226175648543,
    "3:1": -2.7262739400586615,
    "4:0": -2.9017226175648543,
    "4:1": -3.0332989753535733,
    "5:0": -2.627833867245409,
    "5:1": -2.3719004931082086,
    "6:0": -1.5292215785772993
  },
  "feature_names": [
    "bias_context",
    "bvs",
    "bvs_minus_one",
    "abs_bvs_minus_one",
    "step_fraction",
    "action_unit",
    "num_bbox_scaled",
    "cover_penalty_scaled",
    "pen_rate",
    "category=table"
  ],
  "hidden_bias": [
    2.548319101333618,
    -2.5393688678741455,
    -0.9685150980949402,
    1.287265658378601,
    0.9544522166252136,
    2.5474112033843994,
    0.9614170789718628,
    1.2147573232650757,
    -1.2321405410766602,
    -1.3947702646255493,
    -0.9709068536758423,
    1.2369554042816162,
    -2.768543004989624,
    2.5602128505706787,
    2.5931131839752197,
    -1.248773217201233,
    -2.5654296875,
    -0.9629592299461365,
    0.9543215036392212,
    0.9487700462341309,
    2.539304494857788,
    2.144385576248169,
    0.9628831744194031,
    0.9608322978019714,
    -0.965485692024231,
    2.494649648666382,
    -2.5325727462768555,
    -0.959140956401825,
    0.9560574293136597,
    -1.6341034173965454,
    2.530709981918335,
    -1.3649847507476807,
    1.2873209714889526,
    0.974911630153656,
    -2.5607428550720215,
    0.9666073322296143,
    1.2576144933700562,
    0.9683338403701782,
    2.509384870529175,
    -0.9515526294708252,
    -0.9514679908752441,
    -2.565291404724121,
    -0.955532431602478,
    2.4697105884552,
    2.521923065185547,
    0.9578383564949036,
    -0.9684688448905945,
    1.2849587202072144
  ],
  "hidden_size": 48,
  "input_weights": [
    [
      2.5557141304016113,
      -2.529330015182495,
      -0.9660342931747437,
      1.2793989181518555,
      0.9437842965126038,
      2.5436747074127197,
      0.9670429825782776,
      1.224351406097412,
      -1.2277247905731201,
      -1.3998205661773682,
      -0.9796817898750305,
      1.2312893867492676,
      -2.7627639770507812,
      2.5690934658050537,
      2.598557472229004,
      -1.2513540983200073,
      -2.5740299224853516,
      -0.9692643880844116,
      0.9548906683921814,
      0.957048773765564,
      2.5467233657836914,
      2.1439027786254883,
      0.9533441662788391,
      0.9505713582038879,
      -0.9656187891960144,
      2.501315116882324,
      -2.5220751762390137,
      -0.9555044770240784,
      0.9485443234443665,
      -1.6437342166900635,
      2.5257413387298584,
      -1.3591021299362183,
      1.297003984451294,
      0.978715717792511,
      -2.5640604496002197,
      0.9557026028633118,
      1.2508702278137207,
      0.9701456427574158,
      2.518089771270752,
      -0.943019688129425,
      -0.9522359371185303,
      -2.573450803756714,
      -0.9628560543060303,
      2.4689807891845703,
      2.5294759273529053,
      0.9657344818115234,
      -0.9661603569984436,
      1.2769783735275269
    ],
    [
      0.32474374771118164,
      -0.25220614671707153,
      -0.8482174873352051,
      0.3784450888633728,
      0.9254217743873596,
      0.19708818197250366,
      0.8170840740203857,
      0.35830241441726685,
      -0.36169514060020447,
      -0.07239383459091187,
      -0.8807271122932434,
      0.3469127118587494,
      0.037205763161182404,
      0.24986523389816284,
      0.10617436468601227,
      -0.309662789106369,
      -0.19934068620204926,
      -0.9059493541717529,
      0.8289822340011597,
      0.8415911197662354,
      0.1838783323764801,
      -0.010744605213403702,
      0.894075334072113,
      0.9514510035514832,
      -0.8913393020629883,
      0.5863692760467529,
      -0.25965800881385803,
      -0.831794798374176,
      0.833183228969574,
      -0.1173342764377594,
      0.23750104010105133,
      -0.07265593111515045,
      0.3676072657108307,
      0.9682210683822632,
      -0.10099952667951584,
      0.8485985398292542,
      0.21486182510852814,
      0.8700114488601685,
      0.4290687143802643,
      -0.9534016251564026,
      -0.8149588108062744,
      -0.16123183071613312,
      -0.8552049398422241,
      0.7116008996963501,
      0.33309099078178406,
      0.9170539975166321,
      -0.8502283096313477,
      0.37751305103302
    ],
    [
      -1.2663151025772095,
      1.2165093421936035,
      -0.31927284598350525,
      -0.5225666761398315,
      0.38202446699142456,
      -1.189470887184143,
      0.3206736445426941,
      -0.507719099521637,
      0.5175287127494812,
      0.3852730691432953,
      -0.3274576961994171,
      -0.4983528256416321,
      1.1806631088256836,
      -1.232781171798706,
      -1.1556016206741333,
      0.4691881239414215,
      1.2094100713729858,
      -0.3535173535346985,
      0.3137381374835968,
      0.2981336712837219,
      -1.187098503112793,
      -0.8938422799110413,
      0.3525070250034332,
      0.39268699288368225,
      -0.3659328818321228,
      -1.3866119384765625,
      1.2158699035644531,
      -0.2994074523448944,
      0.32714229822158813,
      0.735822856426239,
      -1.208266019821167,
      0.3881642520427704,
      -0.5245479345321655,
      0.38723698258399963,
      1.1326192617416382,
      0.32783859968185425,
      -0.4328901469707489,
      0.34427016973495483,
      -1.306560754776001,
      -0.36548539996147156,
      -0.3233257532119751,
      1.1858704090118408,
      -0.339044451713562,
      -1.4504976272583008,
      -1.2591882944107056,
      0.37683606147766113,
      -0.32156115770339966,
      -0.5209735035896301
    ],
    [
      -1.2551101446151733,
      1.2078543901443481,
      -0.4768374264240265,
      -0.5016445517539978,
      0.5789076089859009,
      -1.1768380403518677,
      0.4523533284664154,
      -0.47297126054763794,
      0.4693739414215088,
      0.35920995473861694,
      -0.4917227327823639,
      -0.4781333804130554,
      1.0960383415222168,
      -1.2110034227371216,
      -1.1461379528045654,
      0.46864017844200134,
      1.1791560649871826,
      -0.5216532945632935,
      0.4552493095397949,
      0.45298779010772705,
      -1.1594862937927246,
      -0.8720929026603699,
      0.5212697982788086,
      0.6025886535644531,
      -0.5395796298980713,
      -1.3961718082427979,
      1.2128429412841797,
      -0.45211267471313477,
      0.4890557527542114,
      0.7160765528678894,
      -1.1959034204483032,
      0.3446308374404907,
      -0.49142399430274963,
      0.5321201682090759,
      1.1351267099380493,
      0.4677630066871643,
      -0.407340943813324,
      0.5124297738075256,
      -1.3004639148712158,
      -0.5496127009391785,
      -0.4672586917877197,
      1.1583008766174316,
      -0.49009689688682556,
      -1.4537607431411743,
      -1.253008246421814,
      0.5761259198188782,
      -0.47971299290657043,
      -0.5014874935150146
    ],
    [
      -3.3074657917022705,
      3.2576260566711426,
      -0.5228971242904663,
      0.6056276559829712,
      0.47063350677490234,
      -3.365091323852539,
      0.5555388927459717,
      0.4607710838317871,
      -0.41869059205055237,
      -1.095523715019226,
      -0.5117484331130981,
      0.49122530221939087,
      2.7445082664489746,
      -3.279064416885376,
      -3.216657876968384,
      -0.4602828621864319,
      3.3000781536102295,
      -0.498887300491333,
      0.5522312521934509,
      0.5801835656166077,
      -3.407399892807007,
      -1.636267066001892,
      0.52447110414505,
      0.4174666702747345,
      -0.4634626805782318,
      -3.579266309738159,
      3.3546411991119385,
      -0.5530540943145752,
      0.5767493844032288,
      1.0165823698043823,
      -3.3877205848693848,
      -0.9629391431808472,
      0.6356101036071777,
      0.3676517903804779,
      3.2290406227111816,
      0.553061306476593,
      0.31632161140441895,
      0.5280179977416992,
      -3.554853677749634,
      -0.4798091948032379,
      -0.6101646423339844,
      3.2656126022338867,
      -0.5298104286193848,
      -3.5488152503967285,
      -3.3675079345703125,
      0.4224318861961365,
      -0.5231506824493408,
      0.6028645038604736
    ],
    [
      2.5700342655181885,
      -2.570796012878418,
      -0.8086769580841064,
      1.2556482553482056,
      0.7835129499435425,
      2.5687761306762695,
      0.79511559009552,
      1.1855164766311646,
      -1.2152915000915527,
      -1.3676269054412842,
      -0.7996556162834167,
      1.217473030090332,
      -2.7235233783721924,
      2.5946171283721924,
      2.6233787536621094,
      -1.2165586948394775,
      -2.586980104446411,
      -0.7829744815826416,
      0.8048570156097412,
      0.8053166270256042,
      2.570268392562866,
      2.125331401824951,
      0.7952662706375122,
      0.7860857844352722,
      -0.8023742437362671,
      2.515423059463501,
      -2.573335886001587,
      -0.8118970990180969,
      0.7929057478904724,
      -1.617514729499817,
      2.556100845336914,
      -1.336601734161377,
      1.2649204730987549,
      0.7963353395462036,
      -2.5823380947113037,
      0.8088526725769043,
      1.241738200187683,
      0.8078963756561279,
      2.5513827800750732,
      -0.7855808138847351,
      -0.794743537902832,
      -2.5903408527374268,
      -0.7937889099121094,
      2.5040676593780518,
      2.5699501037597656,
      0.7877098321914673,
      -0.8078107237815857,
      1.2539699077606201
    ],
    [
      2.067899227142334,
      -2.008286952972412,
      -0.7620800137519836,
      -2.6644887924194336,
      0.7441264986991882,
      2.0516457557678223,
      0.7487727403640747,
      -3.0137715339660645,
      2.9546163082122803,
      2.673313617706299,
      -0.7531299591064453,
      -2.9385247230529785,
      -2.1205203533172607,
      2.041839122772217,
      2.0525259971618652,
      2.8557302951812744,
      -2.04978084564209,
      -0.7605000734329224,
      0.7619670033454895,
      0.7529748678207397,
      1.9543991088867188,
      1.1556135416030884,
      0.7600336074829102,
      0.7374297976493835,
      -0.7404400706291199,
      1.9652600288391113,
      -2.026012897491455,
      -0.747402012348175,
      0.7198665142059326,
      1.3446693420410156,
      2.024843215942383,
      2.7355406284332275,
      -2.764801502227783,
      0.7319630980491638,
      -1.9252948760986328,
      0.76284259557724,
      -3.0401172637939453,
      0.7800641059875488,
      1.9867287874221802,
      -0.7203370332717896,
      -0.761297881603241,
      -2.049881935119629,
      -0.7610728740692139,
      1.9562745094299316,
      2.032299518585205,
      0.7502726316452026,
      -0.763219952583313,
      -2.6673691272735596
    ],
    [
      2.557192802429199,
      -2.5412955284118652,
      -0.9764885306358337,
      1.2924776077270508,
      0.9608010649681091,
      2.5387885570526123,
      0.9552707672119141,
      1.2236580848693848,
      -1.2293072938919067,
      -1.4043174982070923,
      -0.9693410992622375,
      1.2464858293533325,
      -2.770174264907837,
      2.5502946376800537,
      2.5978612899780273,
      -1.2412681579589844,
      -2.572321653366089,
      -0.9666686654090881,
      0.962716281414032,
      0.9501209259033203,
      2.528395891189575,
      2.1446986198425293,
      0.9715479612350464,
      0.9560686349868774,
      -0.9730170965194702,
      2.4997806549072266,
      -2.524677276611328,
      -0.9663172960281372,
      0.9505794048309326,
      -1.624404788017273,
      2.531625270843506,
      -1.3746020793914795,
      1.2880679368972778,
      0.9830997586250305,
      -2.563656806945801,
      0.9570634365081787,
      1.2636692523956299,
      0.9738779664039612,
      2.5001418590545654,
      -0.954736053943634,
      -0.9410964846611023,
      -2.5627920627593994,
      -0.9645364880561829,
      2.470214366912842,
      2.530555486679077,
      0.9525331258773804,
      -0.9757505059242249,
      1.2912930250167847
    ],
    [
      2.5514233112335205,
      -2.545924186706543,
      -0.9578924775123596,
      1.2770498991012573,
      0.9618577361106873,
      2.5408825874328613,
      0.9621525406837463,
      1.2169983386993408,
      -1.2381417751312256,
      -1.385445475578308,
      -0.9796739220619202,
      1.2459182739257812,
      -2.7738516330718994,
      2.5624899864196777,
      2.5929417610168457,
      -1.2533847093582153,
      -2.5563597679138184,
      -0.9715355634689331,
      0.9631485342979431,
      0.9399253129959106,
      2.543191432952881,
      2.1431961059570312,
      0.958416759967804,
      0.9665637016296387,
      -0.9735841155052185,
      2.503676414489746,
      -2.540531873703003,
      -0.9519872069358826,
      0.9527230858802795,
      -1.635616660118103,
      2.5354366302490234,
      -1.3731658458709717,
      1.296933650970459,
      0.9639142751693726,
      -2.552330493927002,
      0.9615718126296997,
      1.2572157382965088,
      0.9713819026947021,
      2.50089168548584,
      -0.9408841133117676,
      -0.9605461955070496,
      -2.5558321475982666,
      -0.9600554704666138,
      2.4703893661499023,
      2.523592948913574,
      0.9503711462020874,
      -0.958426296710968,
      1.2746665477752686
    ],
    [
      2.619887351989746,
      -2.606149911880493,
      -0.8629770874977112,
      1.2873640060424805,
      0.8425517082214355,
      2.624807119369507,
      0.8567621111869812,
      1.1982578039169312,
      -1.215795636177063,
      -1.3891979455947876,
      -0.8580208420753479,
      1.236228585243225,
      -2.8187978267669678,
      2.650660753250122,
      2.662437677383423,
      -1.2391481399536133,
      -2.6460320949554443,
      -0.8567286133766174,
      0.852199375629425,
      0.8315294981002808,
      2.6209378242492676,
      2.145524263381958,
      0.8436142206192017,
      0.8584407567977905,
      -0.8626785278320312,
      2.580723762512207,
      -2.6146082878112793,
      -0.8513738512992859,
      0.852868914604187,
      -1.6322903633117676,
      2.6191139221191406,
      -1.3561345338821411,
      1.2803903818130493,
      0.8714964389801025,
      -2.6466548442840576,
      0.8598456382751465,
      1.2425154447555542,
      0.8555259108543396,
      2.5943875312805176,
      -0.85575270652771,
      -0.831883430480957,
      -2.6569032669067383,
      -0.8410045504570007,
      2.553715705871582,
      2.615480661392212,
      0.8548673391342163,
      -0.8625586628913879,
      1.2838857173919678
    ]
  ],
  "metadata": {
    "advantage_baseline": "mesh",
    "advantage_clip": 4.0,
    "advantage_mean": -5.719932577675226e-17,
    "advantage_std": 10.204005264387735,
    "categories": [
      "table"
    ],
    "device": "cpu",
    "entropy_coef": 0.02,
    "epochs": 600,
    "fallback_min_reward": 0.0,
    "hidden_size": 48,
    "l2": 0.0001,
    "learning_rate": 0.01,
    "logit_scale": 0.018506346354864048,
    "max_logit_abs": 6.0,
    "meshes": [
      "1011e1c9812b84d2a9ed7bb5b55809f8",
      "10139657dfa9afe0c3bd24f986301745",
      "1028a9cbaa7a333230bbd4cddd04c77b",
      "102f0532f9f8bbcdcb503f63ed915ed2",
      "1033f41fd2decfa938da3ea2c9e0e4f",
      "103ad97126bc54f4fc5e9e325e1bd5b8",
      "1040cd764facf6981190e285a2cbc9c",
      "104c5225ef0a288ff932326d9778e21b",
      "104c8e90ecf0e5351ed672982b7954af",
      "10506aab1adfe9f4eb7b988bf4f0d1ef",
      "105b9a03ddfaf5c5e7828dbf1991f6a4",
      "105f53a6471f3ceb4a420e3c1b966720",
      "10657fcfce1d326b30bbd4cddd04c77b",
      "10733a711fe254965d7786e1df78254f",
      "1096b4a30bd7717c4733824eae5cd9ae",
      "109738784a0a6129a02c88fe01f2b9c1",
      "109a8d453ce93a6fc21b51dd4113da62",
      "10a4e263f8087c4b8cf2bc41970d572a",
      "10b0d655bf4938eae1ab19b3beff6716",
      "10b5723ea035cb047464e25da6d2e90",
      "10b6147009cbc17ec25cfdac7cd67ea3",
      "10bb44a54a12a74e4719088c8e42c6ab",
      "10c0eecb17d1bac64b3c42e318f3affc",
      "10c25bdfea5eccfd153555abe935e806",
      "10ca7bfe736d81b64b3c42e318f3affc",
      "10cc8c941fc8aeaa71a782a4379556c7",
      "10cd74fb0af8021fbf7cf6012a0af9fc",
      "1692563658149377630047043c6a0c50",
      "16f603525c5ce57b23f7198a00163bb6",
      "16fa03bfc61770652c5d34a902e568f9",
      "1804dd6f5c827c1a4bf8d5f43e57b138",
      "18be1556eb4da5af7ccf848ce05c84be",
      "194fd39afab11888b84c578d4c100fe6",
      "1a00aa6b75362cc5b324368d54a7416f",
      "1a96d308eef57195efaa61516f88b67",
      "1b78b8e14a21439afab04609f4609e83",
      "1c3310f4c05ce1f6a192483aa282f8e5",
      "1cb2fe52097b5304217ffa735084910f",
      "1cd6a00b71f02b06430c2c15987e4cd"
    ],
    "min_reward": -1e+18,
    "model_type": "offline_rl_mlp",
    "num_meshes": 39,
    "pre_scale_max_abs_logit": 324.2131042480469,
    "records_seen": 2236,
    "records_used": 2236,
    "reward_mean": -0.0038825943174216593,
    "smoothing": 1.0,
    "source": "smart.action_prior.build_rl_mlp_action_prior_from_traces",
    "torch_version": "2.8.0",
    "trace_files": [
      "runs/bench_exact/action_prior_generalization_smoke5_w01/table_1692563658149377630047043c6a0c50.trace.jsonl",
      "runs/bench_exact/table_mcts_trace_for_prior.jsonl",
      "runs/bench_exact/trace_collection/expanded_full_cat20_20260514_table_batch001.jsonl",
      "runs/bench_exact/trace_collection/expanded_full_cat20_20260514_table_batch002.jsonl",
      "runs/bench_exact/trace_collection/expanded_full_cat20_20260514_table_batch003.jsonl",
      "runs/bench_exact/trace_collection/expanded_full_cat20_20260514_table_batch004.jsonl",
      "runs/bench_exact/trace_collection/expanded_full_cat20_20260514_table_batch005.jsonl",
      "runs/bench_exact/trace_collection/expanded_full_next_20260514_table_batch001.jsonl",
      "runs/bench_exact/trace_collection/expanded_more_20260514_table_batch001.jsonl",
      "runs/bench_exact/trace_collection/shapenet_v1_first_20260514_table_batch001.jsonl",
      "runs/bench_exact/traces/mcts_table_1692563658_manifold.jsonl",
      "runs/bench_exact/traces/mcts_table_1692563658_manifold_stateful.jsonl",
      "runs/bench_exact/traces_expanded_batch2_table5_mcts20.jsonl",
      "runs/bench_exact/traces_expanded_batch2_table_replacement_mcts20.jsonl",
      "runs/bench_exact/traces_expanded_batch_table5_mcts20.jsonl"
    ],
    "trainer_backend": "torch"
  },
  "num_action_scale": 2,
  "output_bias": [
    0.07129505276679993,
    -0.1586546003818512,
    0.0470331646502018,
    -0.15898148715496063,
    0.04001776501536369,
    -0.15950815379619598,
    -0.15867196023464203,
    0.055997367948293686,
    -0.1589137613773346,
    0.043314360082149506,
    -0.15987053513526917,
    0.04869415611028671,
    -0.15873517096042633
  ],
  "output_weights": [
    [
      0.1261759251356125,
      -0.11980752646923065,
      0.09561792761087418,
      -0.12103613466024399,
      -0.023194530978798866,
      -0.11993327736854553,
      -0.12220200151205063,
      0.10670078545808792,
      -0.12132740765810013,
      0.09644197672605515,
      -0.12192476540803909,
      0.10101475566625595,
      -0.11599505692720413
    ],
    [
      -0.1268739253282547,
      0.12080144882202148,
      -0.09619258344173431,
      0.12203647196292877,
      0.025432629510760307,
      0.11981834471225739,
      0.12396521866321564,
      -0.10703054815530777,
      0.12243200838565826,
      -0.09162717312574387,
      0.1216181144118309,
      -0.10129957646131516,
      0.11681226640939713
    ],
    [
      -0.12202651053667068,
      0.11601618677377701,
      -0.10167528688907623,
      0.11586453765630722,
      -0.09029170870780945,
      0.11408283561468124,
      0.11522166430950165,
      -0.10571121424436569,
      0.11539603024721146,
      -0.09731534868478775,
      0.1140136793255806,
      -0.10576513409614563,
      0.11530128121376038
    ],
    [
      0.12064148485660553,
      -0.11330269277095795,
      0.10566097497940063,
      -0.11398829519748688,
      -0.12960954010486603,
      -0.1175202801823616,
      -0.10789959877729416,
      0.11223582923412323,
      -0.11446520686149597,
      0.11674509197473526,
      -0.11664725095033646,
      0.10536324232816696,
      -0.11659205704927444
    ],
    [
      0.12232186645269394,
      -0.1168150082230568,
      0.10344971716403961,
      -0.1166546568274498,
      0.0911293774843216,
      -0.11443091183900833,
      -0.11340250074863434,
      0.10531821101903915,
      -0.11639769375324249,
      0.09924395382404327,
      -0.11433272808790207,
      0.10825369507074356,
      -0.11631804704666138
    ],
    [
      0.12681268155574799,
      -0.11999300122261047,
      0.09694723039865494,
      -0.12129658460617065,
      -0.023885434493422508,
      -0.11971640586853027,
      -0.12314590066671371,
      0.1068752184510231,
      -0.12185625731945038,
      0.09503957629203796,
      -0.12182824313640594,
      0.10189103335142136,
      -0.11676497757434845
    ],
    [
      0.121794693171978,
      -0.11602842062711716,
      0.10177021473646164,
      -0.11613044142723083,
      0.09008142352104187,
      -0.11447113007307053,
      -0.11618395149707794,
      0.10688790678977966,
      -0.11552640795707703,
      0.0981447771191597,
      -0.11449216306209564,
      0.10606289654970169,
      -0.11571643501520157
    ],
    [
      0.12111851572990417,
      -0.11420482397079468,
      0.10422101616859436,
      -0.11435617506504059,
      -0.12691034376621246,
      -0.11541709303855896,
      -0.10980018228292465,
      0.11213803291320801,
      -0.11518017202615738,
      0.11327246576547623,
      -0.11468760669231415,
      0.10549995303153992,
      -0.11662249267101288
    ],
    [
      -0.1210273802280426,
      0.11383967846632004,
      -0.10514182597398758,
      0.11418520659208298,
      0.12770529091358185,
      0.11658626049757004,
      0.10935751348733902,
      -0.11230912804603577,
      0.11492940038442612,
      -0.1145603135228157,
      0.11546263843774796,
      -0.10578569769859314,
      0.11639146506786346
    ],
    [
      -0.12199032306671143,
      0.11521893739700317,
      -0.10610134154558182,
      0.11393804103136063,
      0.1282484531402588,
      0.10722596198320389,
      0.11041117459535599,
      -0.1154942736029625,
      0.11386461555957794,
      -0.11045441776514053,
      0.10612469166517258,
      -0.10651424527168274,
      0.11526907235383987
    ],
    [
      -0.12148857861757278,
      0.1158158928155899,
      -0.10281267017126083,
      0.11609745025634766,
      -0.09031861275434494,
      0.11466091126203537,
      0.11525925993919373,
      -0.10591447353363037,
      0.1158357635140419,
      -0.09908833354711533,
      0.1148572713136673,
      -0.10744974762201309,
      0.11583492159843445
    ],
    [
      0.12127748876810074,
      -0.11382380872964859,
      0.10424340516328812,
      -0.11452387273311615,
      -0.12752167880535126,
      -0.11528167873620987,
      -0.10975997895002365,
      0.11213573813438416,
      -0.11483356356620789,
      0.11364229023456573,
      -0.11405777186155319,
      0.10564028471708298,
      -0.11634326726198196
    ],
    [
      -0.12402782589197159,
      0.12334409356117249,
      -0.10151009261608124,
      0.12053079903125763,
      0.026506753638386726,
      0.10604777187108994,
      0.12408001720905304,
      -0.11377604305744171,
      0.11879481375217438,
      -0.09659495204687119,
      0.10773436725139618,
      -0.10520363599061966,
      0.1131979450583458
    ],
    [
      0.1261104792356491,
      -0.12005726993083954,
      0.0952654629945755,
      -0.12097560614347458,
      -0.02396516688168049,
      -0.1196792721748352,
      -0.12256400287151337,
      0.10637222975492477,
      -0.12135778367519379,
      0.09527340531349182,
      -0.12205599993467331,
      0.10041171312332153,
      -0.11635085940361023
    ],
    [
      0.12669187784194946,
      -0.12050449848175049,
      0.09598434716463089,
      -0.12144259363412857,
      -0.025204522535204887,
      -0.11809714138507843,
      -0.12377932667732239,
      0.10723885148763657,
      -0.12103046476840973,
      0.09180208295583725,
      -0.12008927017450333,
      0.1014242023229599,
      -0.11524095386266708
    ],
    [
      -0.12122123688459396,
      0.11395677924156189,
      -0.10476534068584442,
      0.11440091580152512,
      0.127944216132164,
      0.11564607173204422,
      0.10947788506746292,
      -0.11237294971942902,
      0.11464143544435501,
      -0.11431875824928284,
      0.11498565226793289,
      -0.10582911968231201,
      0.11626683175563812
    ],
    [
      -0.1261940747499466,
      0.11981537193059921,
      -0.0954965278506279,
      0.12129198759794235,
      0.023616213351488113,
      0.11919130384922028,
      0.1225820928812027,
      -0.1066538542509079,
      0.12150170654058456,
      -0.09549124538898468,
      0.12111295759677887,
      -0.10116177052259445,
      0.11676957458257675
    ],
    [
      -0.12150708585977554,
      0.11582529544830322,
      -0.10250896215438843,
      0.11588741838932037,
      -0.0905740037560463,
      0.11418017745018005,
      0.11468657106161118,
      -0.1053110733628273,
      0.11591990292072296,
      -0.09811766445636749,
      0.11391249299049377,
      -0.10703060775995255,
      0.1156901866197586
    ],
    [
      0.12217837572097778,
      -0.11580252647399902,
      0.10185135155916214,
      -0.11570235341787338,
      0.09041555970907211,
      -0.11411046981811523,
      -0.11616653949022293,
      0.10667257010936737,
      -0.115555040538311,
      0.09772779047489166,
      -0.1143224909901619,
      0.10589094460010529,
      -0.11546890437602997
    ],
    [
      0.12237221747636795,
      -0.11632731556892395,
      0.10145175457000732,
      -0.1161712035536766,
      0.0901181772351265,
      -0.11439459770917892,
      -0.11670667678117752,
      0.10682019591331482,
      -0.11601530760526657,
      0.09831028431653976,
      -0.1144489124417305,
      0.10591714829206467,
      -0.115872822701931
    ],
    [
      0.1267900913953781,
      -0.12127379328012466,
      0.09613291174173355,
      -0.1219668760895729,
      -0.027749812230467796,
      -0.11901447921991348,
      -0.12433681637048721,
      0.10691753029823303,
      -0.12188643962144852,
      0.09110670536756516,
      -0.12133185565471649,
      0.10140491276979446,
      -0.11667483299970627
    ],
    [
      0.12975865602493286,
      -0.12392573058605194,
      0.09557342529296875,
      -0.12491388618946075,
      -0.054962292313575745,
      -0.12013207376003265,
      -0.1309969425201416,
      0.10612067580223083,
      -0.12518636882305145,
      0.08547845482826233,
      -0.12383320182561874,
      0.10326547920703888,
      -0.11677972972393036
    ],
    [
      0.12176453322172165,
      -0.11611517518758774,
      0.10261815041303635,
      -0.11640477925539017,
      0.09040199965238571,
      -0.11402654647827148,
      -0.11493980139493942,
      0.1056593507528305,
      -0.11584839969873428,
      0.09803617745637894,
      -0.11422605067491531,
      0.10715868324041367,
      -0.1159394234418869
    ],
    [
      0.12261035293340683,
      -0.11596967279911041,
      0.1037483736872673,
      -0.11724545061588287,
      0.09135790914297104,
      -0.11454128473997116,
      -0.11255784332752228,
      0.1050962582230568,
      -0.1171392872929573,
      0.09967783838510513,
      -0.11397893726825714,
      0.10897421091794968,
      -0.1167788878083229
    ],
    [
      -0.12147602438926697,
      0.11627856642007828,
      -0.10316541790962219,
      0.11634929478168488,
      -0.09073030203580856,
      0.1146247461438179,
      0.1143951341509819,
      -0.1055176854133606,
      0.1161530539393425,
      -0.09890156239271164,
      0.11446630954742432,
      -0.10816138982772827,
      0.11600161343812943
    ],
    [
      0.12556201219558716,
      -0.1190149188041687,
      0.09581565111875534,
      -0.12046924233436584,
      -0.019634243100881577,
      -0.12261707335710526,
      -0.12013792246580124,
      0.1063951775431633,
      -0.12081644684076309,
      0.10455889254808426,
      -0.12511786818504333,
      0.10175220668315887,
      -0.11641488969326019
    ],
    [
      -0.12670691311359406,
      0.1206040233373642,
      -0.09673892706632614,
      0.12201051414012909,
      0.02434583194553852,
      0.11952357739210129,
      0.12365671992301941,
      -0.10734499990940094,
      0.12215451151132584,
      -0.09331946074962616,
      0.12155550718307495,
      -0.10207268595695496,
      0.11702614277601242
    ],
    [
      -0.1217465028166771,
      0.1160697191953659,
      -0.10177373886108398,
      0.11550792306661606,
      -0.09027107805013657,
      0.1142069399356842,
      0.1162828654050827,
      -0.1068655401468277,
      0.1156810075044632,
      -0.09794934093952179,
      0.11449060589075089,
      -0.10612055659294128,
      0.11551494896411896
    ],
    [
      0.12177863717079163,
      -0.11631405353546143,
      0.10190916806459427,
      -0.11601288616657257,
      0.08989637345075607,
      -0.11428654938936234,
      -0.1167597845196724,
      0.10751203447580338,
      -0.11610175669193268,
      0.09802901744842529,
      -0.11426176130771637,
      0.10600121319293976,
      -0.11554741114377975
    ],
    [
      -0.12691722810268402,
      0.12132206559181213,
      -0.09934639185667038,
      0.12227782607078552,
      0.09052639454603195,
      0.1183747947216034,
      0.12573020160198212,
      -0.10785143077373505,
      0.12239095568656921,
      -0.09695257246494293,
      0.1205182820558548,
      -0.10571685433387756,
      0.11687600612640381
    ],
    [
      0.12645667791366577,
      -0.11993596702814102,
      0.09663598984479904,
      -0.1213630735874176,
      -0.02383701503276825,
      -0.12119121104478836,
      -0.12261699885129929,
      0.10645488649606705,
      -0.12191848456859589,
      0.09682928025722504,
      -0.12283828109502792,
      0.10158541053533554,
      -0.11633843928575516
    ],
    [
      -0.1220569983124733,
      0.1153460294008255,
      -0.10618310421705246,
      0.11434794962406158,
      0.12789471447467804,
      0.10781329870223999,
      0.11055826395750046,
      -0.11549651622772217,
      0.11433304846286774,
      -0.11047898232936859,
      0.10716716200113297,
      -0.10657143592834473,
      0.11537034064531326
    ],
    [
      0.12078721821308136,
      -0.11354026943445206,
      0.10439368337392807,
      -0.11369579285383224,
      -0.12922386825084686,
      -0.1159520149230957,
      -0.10841236263513565,
      0.11245124042034149,
      -0.11448230594396591,
      0.11495502293109894,
      -0.11472269892692566,
      0.10508327186107635,
      -0.11644548177719116
    ],
    [
      0.12259218096733093,
      -0.11565252393484116,
      0.1041920930147171,
      -0.1179584264755249,
      0.09194118529558182,
      -0.11574240028858185,
      -0.11165120452642441,
      0.10587908327579498,
      -0.11826440691947937,
      0.09998807311058044,
      -0.11553684622049332,
      0.10792991518974304,
      -0.1181543692946434
    ],
    [
      -0.12717413902282715,
      0.12091460824012756,
      -0.09512149542570114,
      0.12201352417469025,
      0.02858845703303814,
      0.11915526539087296,
      0.12425217032432556,
      -0.10622730851173401,
      0.12251655757427216,
      -0.09052673727273941,
      0.12150001525878906,
      -0.10038372129201889,
      0.11648641526699066
    ],
    [
      0.12174145877361298,
      -0.11667237430810928,
      0.10339076071977615,
      -0.11620546877384186,
      0.08998730778694153,
      -0.11498799920082092,
      -0.11576764285564423,
      0.10675302892923355,
      -0.11650198698043823,
      0.0994180291891098,
      -0.11425825208425522,
      0.10822080820798874,
      -0.11650953441858292
    ],
    [
      0.12148325890302658,
      -0.1141415610909462,
      0.10420462489128113,
      -0.11466464400291443,
      -0.12753945589065552,
      -0.11381284892559052,
      -0.10992534458637238,
      0.11269242316484451,
      -0.11355548352003098,
      0.11272796243429184,
      -0.1128140315413475,
      0.10611047595739365,
      -0.11553633213043213
    ],
    [
      0.12162567675113678,
      -0.1157037541270256,
      0.10165637731552124,
      -0.11566554754972458,
      0.09020141512155533,
      -0.11396105587482452,
      -0.11527486145496368,
      0.1056143045425415,
      -0.1156538873910904,
      0.09705662727355957,
      -0.1141328439116478,
      0.10559501498937607,
      -0.11541366577148438
    ],
    [
      0.12583553791046143,
      -0.11957106739282608,
      0.0961029976606369,
      -0.1206522211432457,
      -0.021513313055038452,
      -0.1223096027970314,
      -0.1214224323630333,
      0.10628121346235275,
      -0.1211177259683609,
      0.10199908167123795,
      -0.12442432343959808,
      0.10136894136667252,
      -0.11675086617469788
    ],
    [
      -0.12252064049243927,
      0.1166948452591896,
      -0.10420374572277069,
      0.1169971227645874,
      -0.09121600538492203,
      0.11481142789125443,
      0.11266970634460449,
      -0.10584505647420883,
      0.11698627471923828,
      -0.09967238456010818,
      0.1147608608007431,
      -0.10945602506399155,
      0.1168513223528862
    ],
    [
      -0.1223674789071083,
      0.11643591523170471,
      -0.10255980491638184,
      0.11633209139108658,
      -0.09015695750713348,
      0.1148650199174881,
      0.11678618937730789,
      -0.10746963322162628,
      0.11591150611639023,
      -0.09895587712526321,
      0.1148289293050766,
      -0.10699411481618881,
      0.1158730536699295
    ],
    [
      -0.12637373805046082,
      0.12004224956035614,
      -0.09558036923408508,
      0.12138387560844421,
      0.024326853454113007,
      0.11948845535516739,
      0.12286599725484848,
      -0.10656052082777023,
      0.12188500165939331,
      -0.09414849430322647,
      0.121152363717556,
      -0.10101053863763809,
      0.116827093064785
    ],
    [
      -0.12186335027217865,
      0.11588509380817413,
      -0.10174882411956787,
      0.11567413806915283,
      -0.09013722836971283,
      0.11415307223796844,
      0.11656845360994339,
      -0.10599541664123535,
      0.11538645625114441,
      -0.09753512591123581,
      0.11399661004543304,
      -0.10566815733909607,
      0.11549939215183258
    ],
    [
      0.1258370280265808,
      -0.1189168393611908,
      0.09603139013051987,
      -0.1202564537525177,
      -0.01600237749516964,
      -0.1222393736243248,
      -0.12016349285840988,
      0.10746175050735474,
      -0.12076956778764725,
      0.10506206750869751,
      -0.12453729659318924,
      0.10197809338569641,
      -0.1164231151342392
    ],
    [
      0.1262732893228531,
      -0.12002870440483093,
      0.09599487483501434,
      -0.12126702815294266,
      -0.023036567494273186,
      -0.12053022533655167,
      -0.12217312306165695,
      0.1067570298910141,
      -0.12163807451725006,
      0.09740526974201202,
      -0.12243274599313736,
      0.1013951227068901,
      -0.11636059731245041
    ],
    [
      0.12206736207008362,
      -0.1166812852025032,
      0.10443893074989319,
      -0.11698119342327118,
      0.09078675508499146,
      -0.11449240893125534,
      -0.11341336369514465,
      0.10605227202177048,
      -0.11669567972421646,
      0.0998227447271347,
      -0.1147136390209198,
      0.10942625999450684,
      -0.116616390645504
    ],
    [
      -0.12203735113143921,
      0.11603112518787384,
      -0.10169623047113419,
      0.11588312685489655,
      -0.09030531346797943,
      0.11409696191549301,
      0.11521198600530624,
      -0.10569863021373749,
      0.11537978798151016,
      -0.0972963273525238,
      0.1139766201376915,
      -0.10575064271688461,
      0.11526830494403839
    ],
    [
      0.12066546827554703,
      -0.11334498971700668,
      0.10564059019088745,
      -0.11401908099651337,
      -0.12946131825447083,
      -0.11750265210866928,
      -0.10798618197441101,
      0.11220955103635788,
      -0.11446548253297806,
      0.1166534423828125,
      -0.11666598916053772,
      0.10543571412563324,
      -0.11663119494915009
    ]
  ],
  "policy_type": "coord_scale_mlp_prior",
  "schema_version": 2
}